-4.618075117468833923e-02,-5.193018168210983276e-02,-1.383212208747863770e-02,7.985027879476547241e-02,-2.794893085956573486e-02,2.659752964973449707e-03,4.438737779855728149e-02,-6.742948293685913086e-02,-2.778296917676925659e-02,3.402502089738845825e-02,2.283081412315368652e-04,-1.676356047391891479e-02,3.757222369313240051e-02,1.502545475959777832e-01,-2.064823172986507416e-03,3.973893821239471436e-03,2.415107935667037964e-02,3.766974806785583496e-02,6.165613979101181030e-02,4.850021749734878540e-02,5.507519096136093140e-02,3.729466348886489868e-02,6.141304969787597656e-03,6.467656046152114868e-02,-5.151852592825889587e-02,1.911789923906326294e-02,-5.627837777137756348e-02,5.667046457529067993e-02,-4.371296986937522888e-02,3.678336739540100098e-03,2.906619757413864136e-02,5.087479948997497559e-03,1.415306143462657928e-02,5.885894224047660828e-02,1.936334371566772461e-01,2.343666851520538330e-01,1.983089596033096313e-01,8.982482552528381348e-02,6.361225247383117676e-02,-7.258342951536178589e-02,2.107645124197006226e-01,2.107179313898086548e-01,-3.394550085067749023e-01,-2.251146137714385986e-01,-3.302753344178199768e-02,2.015321552753448486e-01,4.543118774890899658e-01,3.968234956264495850e-01,3.710939884185791016e-01,2.207875251770019531e-01,1.489969789981842041e-01,1.834006160497665405e-01,-1.979659870266914368e-02,7.887840270996093750e-03,2.918665856122970581e-02,6.180762499570846558e-02,4.872575402259826660e-03,3.985571116209030151e-02,5.810740590095520020e-02,-6.672314554452896118e-02,-1.162802428007125854e-02,9.764639288187026978e-02,2.347746491432189941e-01,1.054595187306404114e-01,2.471554130315780640e-01,3.354238867759704590e-01,2.582795023918151855e-01,6.178132295608520508e-01,2.845191657543182373e-01,2.498085349798202515e-01,4.508384466171264648e-01,3.443832695484161377e-01,-1.268781125545501709e-01,-2.811859250068664551e-01,-1.860119700431823730e-01,5.204571038484573364e-02,8.326256275177001953e-02,3.353703916072845459e-01,3.713494539260864258e-01,2.066959589719772339e-01,9.661719948053359985e-02,8.574856817722320557e-02,7.010810077190399170e-03,-4.011970013380050659e-02,3.950387239456176758e-03,-7.690845429897308350e-02,-3.716217279434204102e-01,-2.780097723007202148e-01,1.920631714165210724e-02,-1.566561013460159302e-01,3.835572302341461182e-01,8.977296352386474609e-01,4.833144247531890869e-01,-5.048734322190284729e-02,-1.056961044669151306e-01,3.006369173526763916e-01,3.107351064682006836e-01,5.751215815544128418e-01,5.977575182914733887e-01,2.532982230186462402e-01,2.078399062156677246e-01,-3.128189221024513245e-02,-1.836782693862915039e-01,-5.234492197632789612e-02,1.625278592109680176e-01,-6.359837204217910767e-02,-4.449867457151412964e-02,-7.701033353805541992e-02,-8.859413862228393555e-02,-5.016481969505548477e-03,3.842379152774810791e-02,-2.482791990041732788e-02,1.580531150102615356e-02,3.350751474499702454e-02,-2.795320451259613037e-01,-2.089496701955795288e-01,3.456327915191650391e-01,-1.001761555671691895e-01,1.221716552972793579e-01,7.953029870986938477e-02,1.356117278337478638e-01,5.346324760466814041e-04,1.035178974270820618e-01,4.169381558895111084e-01,2.661206722259521484e-01,2.710884250700473785e-02,-1.659581810235977173e-01,-2.733713686466217041e-01,-1.506921350955963135e-01,-1.653418093919754028e-01,-3.874633014202117920e-01,-1.235491484403610229e-01,-7.431397587060928345e-02,-4.957475140690803528e-02,-5.144332647323608398e-01,-4.758104383945465088e-01,-3.440985083580017090e-01,-9.243611246347427368e-03,1.867780536413192749e-01,2.250599265098571777e-01,-4.977670684456825256e-02,-1.623956859111785889e-02,-2.371876537799835205e-01,-3.789458870887756348e-01,-5.457969848066568375e-03,3.642809018492698669e-02,1.497579365968704224e-01,1.063127517700195312e-01,-1.780756115913391113e-01,-1.873559653759002686e-01,-2.347194552421569824e-01,-2.817443013191223145e-02,9.296142309904098511e-02,-5.098039284348487854e-02,-1.615502685308456421e-01,-1.288104057312011719e-02,7.947162538766860962e-02,-9.360792487859725952e-02,-4.207386076450347900e-01,-6.452568173408508301e-01,-4.784869849681854248e-01,-4.026272296905517578e-01,-4.218817055225372314e-01,-2.518637180328369141e-01,4.514295607805252075e-02,3.975940048694610596e-01,5.938342213630676270e-01,7.394626736640930176e-02,-4.301279783248901367e-03,7.074664533138275146e-02,-1.394850164651870728e-01,-2.011288516223430634e-02,1.080402880907058716e-01,1.142075434327125549e-01,5.248923972249031067e-02,-3.092560730874538422e-02,-1.309034824371337891e-01,5.455404147505760193e-02,-9.960208088159561157e-02,-1.370920389890670776e-01,-7.933562994003295898e-02,-1.902966499328613281e-01,-2.519709169864654541e-01,1.844313293695449829e-01,1.498651206493377686e-01,1.234495118260383606e-01,-2.004202269017696381e-02,-1.942855715751647949e-01,-2.238486260175704956e-01,-1.202454343438148499e-01,-1.796760410070419312e-01,-1.077174544334411621e-01,-5.409765243530273438e-01,-2.217100858688354492e-01,1.703001856803894043e-01,8.635497838258743286e-02,4.337986186146736145e-02,5.680810809135437012e-01,7.663930207490921021e-02,-1.757214069366455078e-01,-2.727455794811248779e-01,-2.742265760898590088e-01,1.461692601442337036e-01,3.828778490424156189e-02,2.462548203766345978e-02,-1.294283270835876465e-01,-1.237336695194244385e-01,-3.845987096428871155e-02,-1.983063295483589172e-02,-1.209195181727409363e-01,-7.631198503077030182e-03,2.652850449085235596e-01,-3.249258548021316528e-02,-9.123761206865310669e-03,8.456856757402420044e-02,-1.448749303817749023e-01,-1.304811984300613403e-01,-7.671000063419342041e-02,-2.048358023166656494e-01,-7.777826488018035889e-02,-1.782019734382629395e-01,-2.188071608543395996e-01,3.646891117095947266e-01,6.277392804622650146e-02,-3.080390393733978271e-01,2.013630419969558716e-01,2.638911642134189606e-02,-1.613059639930725098e-01,-1.927662342786788940e-01,6.266587972640991211e-02,9.830718487501144409e-02,3.260029554367065430e-01,2.985177934169769287e-01,-2.109578251838684082e-02,3.306875526905059814e-01,2.451888322830200195e-01,-1.562913358211517334e-01,-9.400004893541336060e-02,2.412136942148208618e-01,2.381375283002853394e-01,6.387840211391448975e-02,-8.276539295911788940e-02,2.024997919797897339e-01,5.479119345545768738e-02,-7.278019189834594727e-02,1.059009358286857605e-01,6.565111875534057617e-02,-1.814284026622772217e-01,-2.107019722461700439e-01,7.599575817584991455e-02,7.404346466064453125e-01,1.146520860493183136e-02,1.151468455791473389e-01,4.144260883331298828e-01,6.321316212415695190e-02,1.082770824432373047e-01,2.225089967250823975e-01,1.225667968392372131e-01,4.313068836927413940e-02,3.651197552680969238e-01,3.415951132774353027e-01,2.041612416505813599e-01,1.502190083265304565e-01,1.558277159929275513e-01,-5.615691840648651123e-02,7.849019765853881836e-02,1.652370244264602661e-01,1.685498654842376709e-01,1.663354486227035522e-01,1.172550097107887268e-01,-3.567463755607604980e-01,-1.785966455936431885e-01,1.646006256341934204e-01,2.282710373401641846e-01,3.189890086650848389e-01,1.294556260108947754e-01,2.434740029275417328e-02,6.899758428335189819e-02,2.606562376022338867e-01,2.105043083429336548e-01,5.478163063526153564e-02,1.555923670530319214e-01,1.560562998056411743e-01,2.817011773586273193e-01,4.873501956462860107e-01,2.853552438318729401e-02,2.059330493211746216e-01,3.316046297550201416e-01,4.026203751564025879e-01,3.144678473472595215e-01,1.391220092773437500e-01,7.379796355962753296e-02,-1.016740873456001282e-01,-2.339026704430580139e-02,-1.500721275806427002e-01,-2.640038430690765381e-01,-1.602226644754409790e-01,-1.409451812505722046e-01,-2.795057892799377441e-01,9.905259124934673309e-03,3.682970106601715088e-01,2.159683853387832642e-01,3.475093245506286621e-01,2.412563115358352661e-01,6.284971535205841064e-02,-1.777710616588592529e-01,-7.794333994388580322e-02,2.064111828804016113e-01,2.966992091387510300e-03,-3.473739922046661377e-01,3.054102659225463867e-01,4.887676239013671875e-01,4.462517797946929932e-01,1.980056613683700562e-01,2.370619215071201324e-02,3.924700617790222168e-01,1.953911781311035156e-01,2.739323377609252930e-01,1.451485157012939453e-01,1.063841879367828369e-01,-2.186672836542129517e-01,-2.145107388496398926e-01,-2.208570539951324463e-01,-2.137776762247085571e-01,-3.648867905139923096e-01,-1.900366879999637604e-02,1.940465271472930908e-01,4.527530074119567871e-01,6.274381279945373535e-01,4.644467830657958984e-01,4.141643643379211426e-01,3.592776879668235779e-02,-1.620784103870391846e-01,-1.736385524272918701e-01,2.729466259479522705e-01,3.850076794624328613e-01,6.401252746582031250e-02,3.570224717259407043e-02,2.361229807138442993e-01,1.117974668741226196e-01,4.061187505722045898e-01,2.736395299434661865e-01,-7.073622941970825195e-02,-2.320241332054138184e-01,-2.741505801677703857e-01,-1.735691428184509277e-01,-6.598535925149917603e-03,-2.386785745620727539e-01,-3.886129856109619141e-01,-4.988260269165039062e-01,-1.596557796001434326e-01,3.560977429151535034e-02,2.470077425241470337e-01,4.380944371223449707e-01,5.035954117774963379e-01,5.115662813186645508e-01,5.242604613304138184e-01,3.086761534214019775e-01,2.622571587562561035e-01,1.615505963563919067e-01,-4.562507271766662598e-01,-4.016052186489105225e-01,-2.563799172639846802e-02,4.295176565647125244e-01,-1.423491537570953369e-01,3.700237022712826729e-03,2.855773270130157471e-01,9.875228255987167358e-02,2.491309791803359985e-01,-1.155849471688270569e-01,-1.848721504211425781e-02,-1.453064382076263428e-01,-5.876618623733520508e-02,-6.817458570003509521e-02,-9.452185034751892090e-02,-2.141219377517700195e-01,-4.077385067939758301e-01,-2.834497988224029541e-01,1.267593260854482651e-02,6.050082668662071228e-02,4.131396412849426270e-01,4.495466351509094238e-01,4.262746870517730713e-01,5.694316029548645020e-01,2.865069508552551270e-01,4.440287053585052490e-01,4.119944944977760315e-02,-1.105076000094413757e-01,-2.890966534614562988e-01,1.591465063393115997e-02,-2.308374643325805664e-02,4.320725798606872559e-02,-8.206232637166976929e-02,3.437227904796600342e-01,3.813366591930389404e-01,2.034342437982559204e-01,1.081005949527025223e-02,-8.668594807386398315e-02,-2.971029877662658691e-01,-1.565951481461524963e-02,-2.149411290884017944e-01,-7.398701459169387817e-02,-2.817120030522346497e-02,-2.114607952535152435e-02,-6.311158090829849243e-02,2.498172223567962646e-01,2.116668820381164551e-01,1.632637530565261841e-01,2.032623738050460815e-01,2.729530632495880127e-01,6.864038109779357910e-02,1.217526122927665710e-01,1.286701112985610962e-01,-1.417352468706667423e-03,-6.271386891603469849e-02,-1.803759038448333740e-01,-2.958134710788726807e-01,2.925318852066993713e-02,-1.986979842185974121e-01,-2.582023479044437408e-02,-6.267771869897842407e-02,1.649238020181655884e-01,-2.386914193630218506e-01,5.050484836101531982e-02,-1.242981776595115662e-01,-2.401827871799468994e-01,-2.863318324089050293e-01,-2.047272920608520508e-01,-3.277323544025421143e-01,-9.217151254415512085e-02,-1.421282142400741577e-01,-7.172275334596633911e-02,1.881053596735000610e-01,5.048158168792724609e-01,4.933682680130004883e-01,1.967608481645584106e-01,1.028896942734718323e-01,-7.806319044902920723e-04,-5.319353938102722168e-02,5.892330408096313477e-02,1.935547143220901489e-01,6.756851077079772949e-02,2.230752259492874146e-01,-2.718258500099182129e-01,-1.589408516883850098e-01,2.630439102649688721e-01,-5.988677218556404114e-02,4.192362725734710693e-02,8.958347886800765991e-02,2.391930818557739258e-01,1.039808616042137146e-01,1.667266637086868286e-01,2.454022467136383057e-01,-2.349116653203964233e-01,-1.303919255733489990e-01,-1.766532063484191895e-01,-1.877293884754180908e-01,-2.647728919982910156e-01,-1.153916716575622559e-01,-1.626802533864974976e-01,-1.760739088058471680e-02,2.785552442073822021e-01,3.094291985034942627e-01,2.041315734386444092e-01,2.181345783174037933e-02,-3.486661240458488464e-02,2.949466230347752571e-03,-2.641905099153518677e-02,-2.541593648493289948e-02,-1.551862806081771851e-03,1.133753061294555664e-01,-4.434712603688240051e-02,-4.617223143577575684e-02,-1.674025058746337891e-01,-4.621179401874542236e-01,-2.163390964269638062e-01,3.230030089616775513e-02,1.254504472017288208e-01,1.565111130475997925e-01,2.586155533790588379e-01,1.224840953946113586e-01,-1.921249032020568848e-01,-4.523581862449645996e-01,-1.524132192134857178e-01,-1.937340945005416870e-01,-3.672399222850799561e-01,-1.032714769244194031e-01,1.543837636709213257e-01,2.319664806127548218e-01,3.616593182086944580e-01,2.460046559572219849e-01,9.221249073743820190e-02,1.028168201446533203e-01,2.295948565006256104e-01,-4.024136438965797424e-02,9.332198649644851685e-03,-1.619264781475067139e-01,-1.343646496534347534e-01,-4.853483662009239197e-02,-1.310753077268600464e-01,-2.304452210664749146e-01,3.503807783126831055e-01,1.891822665929794312e-01,-3.577689826488494873e-01,2.077427357435226440e-01,-1.636315020732581615e-03,4.397950470447540283e-01,1.331826001405715942e-01,8.446364849805831909e-02,-2.246206700801849365e-01,-1.311605125665664673e-01,-2.571082413196563721e-01,-3.504452407360076904e-01,-4.665517210960388184e-01,-4.687075316905975342e-02,1.788231432437896729e-01,3.811827600002288818e-01,3.747259676456451416e-01,5.603311583399772644e-02,1.816194206476211548e-01,2.823834866285324097e-02,3.167834281921386719e-01,1.135922968387603760e-01,-7.273723836988210678e-03,-1.173047348856925964e-01,-2.158405631780624390e-01,-1.070208773016929626e-01,-4.485588967800140381e-01,-4.798360466957092285e-01,-3.588891774415969849e-02,3.086137175559997559e-01,-2.708915770053863525e-01,-5.403502285480499268e-02,1.676422804594039917e-01,2.260804362595081329e-02,-4.642628133296966553e-01,6.801576819270849228e-03,8.275751024484634399e-02,-2.677778154611587524e-02,-1.086799204349517822e-01,-2.642501294612884521e-01,-3.126076459884643555e-01,-2.196265161037445068e-01,2.248344570398330688e-02,2.339436560869216919e-01,-7.795458287000656128e-02,6.187558919191360474e-02,1.785673573613166809e-02,4.796458408236503601e-02,6.918130815029144287e-02,-9.768413007259368896e-02,1.824852894060313702e-03,-2.366425246000289917e-01,-1.510798931121826172e-01,-1.922106295824050903e-01,-4.307410717010498047e-01,-4.386530816555023193e-01,-2.235850691795349121e-01,-5.139518901705741882e-02,-2.429146021604537964e-01,-9.338833391666412354e-03,6.880567222833633423e-02,-2.934532463550567627e-01,-2.905848920345306396e-01,-4.383766651153564453e-02,-1.682444065809249878e-01,-1.535827517509460449e-01,1.197333708405494690e-01,-5.414573848247528076e-02,-1.201691254973411560e-01,-1.458669900894165039e-01,-9.597829729318618774e-02,-2.029374241828918457e-02,-9.030763804912567139e-02,1.610992699861526489e-01,-4.605853185057640076e-02,-5.437557119876146317e-03,-8.294278383255004883e-02,-2.089195400476455688e-01,-3.063921630382537842e-01,-2.725054621696472168e-01,-2.683785557746887207e-01,-7.163758575916290283e-02,-3.569451570510864258e-01,-3.916624784469604492e-01,-4.641506075859069824e-02,-2.413805387914180756e-02,-6.173341348767280579e-02,-4.471755772829055786e-02,4.811458289623260498e-03,-1.741164624691009521e-01,-1.740122735500335693e-01,-5.457232519984245300e-02,-1.907263398170471191e-01,-3.449890390038490295e-02,2.102017030119895935e-02,6.821982562541961670e-03,-7.296877354383468628e-02,-7.898844033479690552e-02,-7.125813513994216919e-02,9.110016748309135437e-03,1.869548559188842773e-01,2.535120248794555664e-01,-1.916039735078811646e-01,-2.055600658059120178e-02,-2.120457887649536133e-01,-1.384975016117095947e-01,-1.968426257371902466e-01,-1.899773031473159790e-01,-1.659316718578338623e-01,-1.423054467886686325e-02,-4.081626832485198975e-01,-3.819869160652160645e-01,-2.320018857717514038e-01,-4.507385194301605225e-01,-7.604842633008956909e-02,-5.791338905692100525e-02,-6.604281812906265259e-02,-1.949690133333206177e-01,-3.118856847286224365e-01,1.141435056924819946e-01,1.348798722028732300e-01,-1.941237896680831909e-01,-2.303212322294712067e-02,6.427391618490219116e-02,-8.881356567144393921e-02,5.111885257065296173e-03,-1.977557986974716187e-01,-4.622569307684898376e-02,-1.469387114048004150e-01,-6.218420341610908508e-02,-1.288643106818199158e-02,-1.067637056112289429e-01,-6.656869500875473022e-02,-1.983867734670639038e-01,4.286269843578338623e-02,-1.050413484335877001e-04,-1.611846685409545898e-01,-6.761401146650314331e-02,-2.574062943458557129e-01,-2.935595810413360596e-01,-1.876810938119888306e-01,-3.448039591312408447e-01,-1.783395558595657349e-02,7.473210245370864868e-02,-4.791734740138053894e-02,2.087002843618392944e-01,-3.726878464221954346e-01,-3.228792548179626465e-01,-5.526113673113286495e-04,-1.490575261414051056e-02,-2.084831744432449341e-01,-1.025883704423904419e-01,-3.980322778224945068e-01,-3.116111159324645996e-01,-4.652656242251396179e-02,-1.940269768238067627e-01,-1.614978611469268799e-01,-4.327013343572616577e-02,-3.457451984286308289e-02,2.749119885265827179e-03,-7.232701778411865234e-02,9.323852509260177612e-02,2.062772214412689209e-01,6.009167432785034180e-02,-1.696068495512008667e-01,1.344760209321975708e-01,-6.447361409664154053e-02,-6.178216636180877686e-02,-1.521161049604415894e-01,-2.657315731048583984e-01,8.054698258638381958e-02,3.841008245944976807e-02,-5.121837556362152100e-02,3.348255902528762817e-02,2.315824106335639954e-02,1.548350900411605835e-01,1.924768239259719849e-01,1.810772716999053955e-01,-5.133002996444702148e-02,-1.314648613333702087e-02,-3.412901610136032104e-02,-2.242899984121322632e-01,-8.688281476497650146e-02,-7.847473025321960449e-02,-4.527732357382774353e-02,-5.388363078236579895e-02,8.340913802385330200e-02,2.188091725111007690e-01,4.761822894215583801e-02,-1.340708434581756592e-01,5.843923240900039673e-02,1.470494121313095093e-01,-1.179254278540611267e-01,-1.243981439620256424e-02,1.088576912879943848e-01,-2.935976088047027588e-01,-5.159166455268859863e-01,-2.923347055912017822e-01,-6.317947804927825928e-02,-3.412361070513725281e-02,3.562186658382415771e-02,-2.160612866282463074e-02,-2.655004262924194336e-01,7.168935239315032959e-02,2.200198918581008911e-01,2.759621143341064453e-01,2.850775122642517090e-01,2.483189702033996582e-01,5.600637942552566528e-02,1.665167659521102905e-01,-1.547667980194091797e-01,2.232259809970855713e-01,4.050088580697774887e-03,4.902529716491699219e-02,-2.571003884077072144e-02,1.260974854230880737e-01,-2.117190957069396973e-01,-8.538082987070083618e-02,9.489795565605163574e-02,-1.739881634712219238e-01,-2.446011602878570557e-01,-2.545318603515625000e-01,3.488413244485855103e-02,2.854592725634574890e-02,-1.410981714725494385e-01,-2.354960292577743530e-01,-6.527093797922134399e-02,-1.265042275190353394e-02,-1.272862404584884644e-02,3.988970816135406494e-02,1.383614242076873779e-01,-2.512222230434417725e-01,-3.190863430500030518e-01,-5.484309792518615723e-02,5.306491255760192871e-01,3.119674026966094971e-01,6.159205455332994461e-03,3.564321398735046387e-01,-7.431763689965009689e-03,6.223544850945472717e-02,1.619816422462463379e-01,2.088968008756637573e-01,-1.300442069768905640e-01,-7.120944559574127197e-02,3.814785778522491455e-01,5.248546600341796875e-01,4.132595956325531006e-01,3.656462430953979492e-01,3.501272201538085938e-01,3.479854390025138855e-02,1.023400053381919861e-01,-7.703901827335357666e-02,7.266196608543395996e-02,-6.852803379297256470e-02,-6.530740857124328613e-02,6.321788579225540161e-02,-1.964434608817100525e-02,6.262274831533432007e-02,-2.745572477579116821e-02,4.902498051524162292e-02,1.165156662464141846e-01,1.428269296884536743e-01,1.274495571851730347e-01,6.796290725469589233e-02,1.490463614463806152e-01,1.847277283668518066e-01,2.327564060688018799e-01,2.723741531372070312e-01,2.907382547855377197e-01,4.316393733024597168e-01,1.053796485066413879e-01,3.554258346557617188e-01,7.316968441009521484e-01,1.840486824512481689e-01,-7.635078579187393188e-02,1.337515711784362793e-01,2.218156009912490845e-01,-5.095205083489418030e-02,3.148193284869194031e-02,-3.243781253695487976e-02,4.011622071266174316e-02,3.510489314794540405e-02,6.607248634099960327e-02
5.442123860120773315e-02,-5.368232727050781250e-03,1.865730434656143188e-02,2.425686269998550415e-02,5.210996419191360474e-02,7.226780802011489868e-02,-1.468026638031005859e-02,-7.178152352571487427e-02,3.137006610631942749e-02,-2.087933197617530823e-02,4.569230228662490845e-02,-7.072325795888900757e-02,6.106272712349891663e-02,9.448459744453430176e-02,7.988908886909484863e-02,-6.213035807013511658e-02,5.266643315553665161e-02,-7.101418077945709229e-02,-9.231679141521453857e-03,3.725167363882064819e-02,-1.912616193294525146e-03,-6.199959665536880493e-02,-3.641949221491813660e-02,-6.087422370910644531e-02,2.705118805170059204e-02,4.540845751762390137e-03,-2.469083294272422791e-02,-7.932071387767791748e-02,-6.779985129833221436e-02,3.466583788394927979e-03,-2.032026648521423340e-03,-7.662565261125564575e-02,9.597125649452209473e-02,-9.632420726120471954e-03,1.496967375278472900e-01,8.025585860013961792e-02,1.053887382149696350e-01,1.022150218486785889e-01,2.353706210851669312e-01,2.453057169914245605e-01,3.675588965415954590e-01,6.337439417839050293e-01,1.082556843757629395e-01,1.978815197944641113e-01,3.873478472232818604e-01,2.680381238460540771e-01,2.092532962560653687e-01,3.729735016822814941e-01,4.424048066139221191e-01,2.242537587881088257e-01,1.970966905355453491e-01,4.791554436087608337e-02,5.237673968076705933e-02,4.101660847663879395e-02,1.761262863874435425e-02,5.461131781339645386e-02,5.652724951505661011e-02,4.298656433820724487e-02,-5.017363280057907104e-02,1.477359682321548462e-01,2.007021307945251465e-01,1.628807038068771362e-01,9.945525974035263062e-02,3.113091886043548584e-01,-6.664656102657318115e-03,-1.141739413142204285e-01,-6.838755309581756592e-02,2.907838821411132812e-01,3.203506022691726685e-02,-1.383288949728012085e-01,3.731755539774894714e-02,1.733668595552444458e-01,3.659463524818420410e-01,3.173463940620422363e-01,2.849355638027191162e-01,1.758381724357604980e-01,1.965628117322921753e-01,1.107385456562042236e-01,1.585339754819869995e-01,4.683194160461425781e-01,-7.184306159615516663e-03,-1.931406259536743164e-01,7.070564478635787964e-02,-7.870662957429885864e-02,-5.741686373949050903e-02,3.681310266256332397e-02,-2.972528040409088135e-01,-7.522995024919509888e-02,4.822772443294525146e-01,-1.413251608610153198e-01,1.746805161237716675e-01,1.917233318090438843e-01,-8.625416457653045654e-02,1.684862822294235229e-01,7.044741511344909668e-02,-3.089885115623474121e-01,-5.230041742324829102e-01,-2.717808261513710022e-02,1.855985075235366821e-02,2.199979126453399658e-01,-2.930461987853050232e-02,-2.552741207182407379e-02,2.216396182775497437e-01,4.142483472824096680e-01,4.349193572998046875e-01,4.844782948493957520e-01,2.141941636800765991e-01,1.532107591629028320e-01,2.866801619529724121e-01,3.722274899482727051e-01,5.807349085807800293e-01,-1.232996582984924316e-02,-5.434837937355041504e-02,1.140559185296297073e-02,-3.850049674510955811e-01,-1.288251876831054688e-01,1.752218306064605713e-01,-2.239823043346405029e-01,-1.489956527948379517e-01,-9.153764694929122925e-02,-1.550517827272415161e-01,-9.785922244191169739e-03,2.812242368236184120e-03,-2.579495683312416077e-02,-3.138680160045623779e-01,-1.627997159957885742e-01,1.094396971166133881e-02,1.036198139190673828e-01,5.776542052626609802e-02,9.277502447366714478e-02,1.852785348892211914e-01,9.988214820623397827e-02,1.091827452182769775e-01,2.816323637962341309e-01,1.144257634878158569e-01,3.330388069152832031e-01,4.786219298839569092e-01,6.376680135726928711e-01,6.411241888999938965e-01,-1.802989095449447632e-02,-7.000201940536499023e-02,6.656493991613388062e-02,-1.928708255290985107e-01,2.297296524047851562e-01,-1.825439184904098511e-01,2.216182090342044830e-02,-8.178938180208206177e-02,-1.080182343721389771e-01,-1.209697797894477844e-01,3.161795809864997864e-02,6.440375745296478271e-02,-1.827357411384582520e-01,-3.222375810146331787e-01,-2.424674481153488159e-01,-1.420096457004547119e-01,-2.959035523235797882e-02,1.646331697702407837e-01,3.366664946079254150e-01,2.809852361679077148e-01,1.873088330030441284e-01,4.836995303630828857e-01,2.714406251907348633e-01,1.724081486463546753e-01,6.131740808486938477e-01,3.175072371959686279e-01,3.823014199733734131e-01,-1.029959414154291153e-02,9.743352420628070831e-03,-5.138176679611206055e-02,4.795229062438011169e-02,3.468566834926605225e-01,-1.236586943268775940e-01,1.391882151365280151e-01,1.199610009789466858e-01,-2.625908851623535156e-01,-1.714075803756713867e-01,-1.959265917539596558e-01,-8.969745784997940063e-02,-6.894322484731674194e-02,-2.491585351526737213e-02,-5.405632406473159790e-02,-1.281266007572412491e-02,-2.560741966590285301e-03,1.397058069705963135e-01,1.968101412057876587e-01,3.847408890724182129e-01,3.525952994823455811e-01,4.485243856906890869e-01,4.335334897041320801e-01,2.335587143898010254e-01,3.865118920803070068e-01,5.459014773368835449e-01,6.406869888305664062e-01,8.265011310577392578e-01,1.665458828210830688e-01,1.379918158054351807e-01,-2.995239198207855225e-02,-1.252805888652801514e-01,1.844889968633651733e-01,-7.402689754962921143e-02,-2.388808280229568481e-01,-4.001209437847137451e-01,-3.272951245307922363e-01,-3.367188200354576111e-02,-1.687831804156303406e-02,1.911168843507766724e-01,1.558073312044143677e-01,-8.319272659718990326e-03,-5.398669838905334473e-02,1.105748931877315044e-03,2.097717672586441040e-01,1.963361054658889771e-01,1.715693920850753784e-01,2.907036840915679932e-01,2.780801653861999512e-01,3.992124795913696289e-01,1.730946600437164307e-01,6.630329787731170654e-02,1.418972015380859375e-01,1.472054421901702881e-01,-5.334313958883285522e-02,-2.510113175958395004e-03,3.319167494773864746e-01,1.596064269542694092e-01,-4.485345911234617233e-03,4.820999875664710999e-02,-8.763039857149124146e-02,1.179719939827919006e-01,-3.782127201557159424e-01,-4.300341904163360596e-01,-2.138141244649887085e-01,6.924047321081161499e-02,-7.189857214689254761e-02,-1.229581516236066818e-02,-2.542545646429061890e-02,1.507931798696517944e-01,1.029296312481164932e-02,-6.412678956985473633e-02,-2.294540256261825562e-01,-1.953969746828079224e-01,-3.156111538410186768e-01,-3.143637776374816895e-01,-3.342775404453277588e-01,-2.927713096141815186e-01,-4.322019815444946289e-01,-6.037695407867431641e-01,-4.467996954917907715e-01,-3.305270969867706299e-01,-6.080166697502136230e-01,-6.862475872039794922e-01,1.247328370809555054e-01,3.244843333959579468e-02,-3.392537683248519897e-02,2.012861520051956177e-02,-3.866064548492431641e-01,-3.605129122734069824e-01,-2.582778632640838623e-01,-3.102813959121704102e-01,-2.686813473701477051e-01,-3.365445137023925781e-01,-1.272861808538436890e-01,-6.185799092054367065e-02,-2.640734016895294189e-01,-2.598908357322216034e-02,5.070240795612335205e-02,-2.337868213653564453e-01,-2.785199582576751709e-01,-4.919819235801696777e-01,-8.689364790916442871e-01,-9.691926240921020508e-01,-1.187500596046447754e+00,-1.205764651298522949e+00,-1.333022594451904297e+00,-1.306641578674316406e+00,-8.207959532737731934e-01,-8.343998789787292480e-01,-5.171632766723632812e-01,-6.941907405853271484e-01,-2.672050595283508301e-01,-5.682932585477828979e-02,-2.043887972831726074e-02,2.177831903100013733e-02,3.072234094142913818e-01,-4.277246296405792236e-01,1.563734561204910278e-01,-6.593444198369979858e-02,-7.955126464366912842e-02,-1.251306533813476562e-01,6.501509249210357666e-02,3.057319112122058868e-02,-2.382532060146331787e-01,6.390489637851715088e-02,1.833349764347076416e-01,-9.326577931642532349e-02,-1.794014275074005127e-01,-3.414775431156158447e-01,-6.244881153106689453e-01,-8.055921792984008789e-01,-8.020607829093933105e-01,-9.633499383926391602e-01,-1.012387275695800781e+00,-8.740122318267822266e-01,-1.143249273300170898e+00,-8.835225701332092285e-01,-4.127823412418365479e-01,-7.484244704246520996e-01,-3.033576607704162598e-01,6.960090249776840210e-02,-5.675056204199790955e-02,-4.059903696179389954e-02,-1.494354158639907837e-01,-2.702203989028930664e-01,2.128102630376815796e-01,3.393583893775939941e-01,9.819446504116058350e-02,6.783587485551834106e-02,9.814897924661636353e-02,1.179954931139945984e-01,3.833094611763954163e-02,2.716668844223022461e-01,2.104045748710632324e-01,1.016722545027732849e-01,1.434039324522018433e-01,-5.952733755111694336e-02,5.652878805994987488e-02,-2.939102472737431526e-03,1.640677154064178467e-01,-1.816641390323638916e-01,-1.825869232416152954e-01,-1.901948302984237671e-01,-3.604267239570617676e-01,-2.770597338676452637e-01,-2.737711071968078613e-01,-3.365889489650726318e-01,2.838428020477294922e-01,2.897172868251800537e-01,-6.494417041540145874e-02,9.196499362587928772e-03,3.075038492679595947e-01,-9.637787193059921265e-02,1.567602902650833130e-01,1.976950615644454956e-01,3.253934085369110107e-01,7.911351323127746582e-02,1.774865388870239258e-01,-7.875050604343414307e-02,1.142039895057678223e-01,1.122071072459220886e-01,-8.749785274267196655e-02,1.948207616806030273e-02,2.873726654797792435e-03,-1.335451100021600723e-02,2.133988738059997559e-01,4.658346176147460938e-01,6.687579751014709473e-01,2.955102324485778809e-01,3.208022415637969971e-01,-8.480648696422576904e-02,-1.437258571386337280e-01,2.286730892956256866e-02,-2.220682501792907715e-01,-2.941748797893524170e-01,3.804375231266021729e-01,4.012797474861145020e-01,-1.432584319263696671e-02,-6.823437660932540894e-02,2.863797247409820557e-01,2.796484529972076416e-01,1.677318960428237915e-01,1.072187051177024841e-01,1.970304846763610840e-01,1.592030972242355347e-01,-1.263222098350524902e-01,-8.677523583173751831e-02,1.821284443140029907e-01,5.742268264293670654e-02,8.118656277656555176e-02,1.618337333202362061e-01,1.201032698154449463e-01,1.567445695400238037e-01,7.395976781845092773e-02,3.623060882091522217e-02,2.090467065572738647e-01,4.103407859802246094e-01,4.358286559581756592e-01,1.547929793596267700e-01,-2.060655951499938965e-01,1.019854024052619934e-01,2.350405901670455933e-01,-8.453214913606643677e-02,1.088182702660560608e-01,-1.916973739862442017e-01,1.671736538410186768e-01,1.258939951658248901e-01,1.547637134790420532e-01,7.398768514394760132e-02,8.428606390953063965e-02,1.979601942002773285e-02,1.782777458429336548e-01,2.009248137474060059e-01,-3.614374995231628418e-02,1.637945920228958130e-01,3.829197287559509277e-01,2.851630449295043945e-01,1.157412454485893250e-01,-1.197291910648345947e-01,1.138942465186119080e-01,8.712971955537796021e-02,1.978672146797180176e-01,5.912805721163749695e-02,6.435400247573852539e-02,3.115436136722564697e-01,3.960316479206085205e-01,3.099688589572906494e-01,-8.299755305051803589e-02,3.661368787288665771e-02,1.251261234283447266e-01,-3.360510244965553284e-02,-4.675456881523132324e-01,-2.536464631557464600e-01,1.436867266893386841e-01,1.613441556692123413e-01,1.757899522781372070e-01,-3.225721716880798340e-01,-2.547635138034820557e-01,2.948859930038452148e-01,4.811392351984977722e-02,-7.442248612642288208e-02,-5.851886700838804245e-03,-5.076491460204124451e-02,5.265757814049720764e-02,-1.269924826920032501e-02,1.959504745900630951e-02,-9.269651025533676147e-02,-1.913940906524658203e-02,5.012581869959831238e-02,1.771371662616729736e-01,7.009422779083251953e-02,2.112701237201690674e-01,1.998231112957000732e-01,4.791546165943145752e-01,4.399493932723999023e-01,-8.619870990514755249e-02,7.990009151399135590e-03,4.407680630683898926e-01,3.363811075687408447e-01,-4.623261690139770508e-01,-1.383379697799682617e-01,-7.819519191980361938e-02,1.033366248011589050e-01,1.744723916053771973e-01,-1.053164619952440262e-02,-3.203531503677368164e-01,-2.535611204802989960e-02,-4.081084206700325012e-02,-8.577171713113784790e-02,-1.874126195907592773e-01,-1.528413891792297363e-01,-1.397518813610076904e-01,-1.088938638567924500e-01,1.678157597780227661e-02,2.264436632394790649e-01,1.836760789155960083e-01,-8.092927932739257812e-02,5.944759398698806763e-02,9.937667846679687500e-02,-5.896739289164543152e-02,1.940639764070510864e-01,3.439445495605468750e-01,2.848684191703796387e-01,1.956356316804885864e-01,-7.727656979113817215e-03,4.838483631610870361e-01,2.225005440413951874e-02,-3.089537285268306732e-02,-4.956950247287750244e-01,3.309208899736404419e-02,3.235762193799018860e-02,-8.831822872161865234e-02,-5.069926381111145020e-02,-8.106835931539535522e-02,6.859415024518966675e-02,-3.367573022842407227e-02,-6.666363775730133057e-02,-8.303124457597732544e-02,-1.749938279390335083e-01,-1.779061257839202881e-01,4.942885413765907288e-02,-8.176303654909133911e-02,-1.204093471169471741e-01,-1.561688035726547241e-01,-7.839685678482055664e-02,-1.269017755985260010e-01,-9.608460962772369385e-02,-9.500485658645629883e-02,1.039176434278488159e-01,3.603538274765014648e-01,3.113597035408020020e-01,2.116594463586807251e-01,8.075296133756637573e-02,3.386260569095611572e-01,-5.677142366766929626e-02,1.612396836280822754e-01,-4.966742396354675293e-01,-3.911909088492393494e-02,-2.241229824721813202e-02,2.965919859707355499e-02,6.288377195596694946e-02,2.082202285528182983e-01,2.500435411930084229e-01,2.206639647483825684e-01,7.433703541755676270e-02,-1.054347380995750427e-01,-5.446961149573326111e-02,7.815827429294586182e-02,-1.592356711626052856e-02,3.268947824835777283e-02,-1.548378616571426392e-01,2.247293852269649506e-02,-1.574081331491470337e-01,2.446996606886386871e-02,-1.314620226621627808e-01,1.393472552299499512e-01,1.775208562612533569e-01,2.544761896133422852e-01,2.079292982816696167e-01,1.413391530513763428e-02,1.484129810705780983e-03,1.090047731995582581e-01,9.842287003993988037e-02,5.020052790641784668e-01,-2.784197032451629639e-01,-7.059969357214868069e-04,2.627681493759155273e-01,1.863964498043060303e-01,1.292886286973953247e-01,9.904447942972183228e-02,2.251235544681549072e-01,8.104530721902847290e-02,1.659677475690841675e-01,1.531419809907674789e-02,1.411813590675592422e-02,1.435138583183288574e-01,9.015271812677383423e-02,1.078442633152008057e-01,-1.656525433063507080e-01,-1.389903873205184937e-01,-2.794763147830963135e-01,-6.767862290143966675e-02,9.053775668144226074e-02,1.096184551715850830e-01,-1.869522966444492340e-02,1.397004164755344391e-02,-6.214122846722602844e-02,-5.261242017149925232e-02,3.563350439071655273e-02,2.091175317764282227e-01,1.193062067031860352e-01,-4.215539097785949707e-01,-6.858125329017639160e-02,1.695989817380905151e-02,-6.632994115352630615e-02,1.008785367012023926e-01,4.329097568988800049e-01,3.871809840202331543e-01,2.167155295610427856e-01,-2.202585898339748383e-02,-9.029894322156906128e-02,5.192962288856506348e-02,2.278053611516952515e-01,9.090527147054672241e-02,-1.267186850309371948e-01,-1.831194013357162476e-01,2.469879239797592163e-01,-2.141117863357067108e-02,1.195454448461532593e-01,-2.188615351915359497e-01,-4.648216068744659424e-02,-9.089675545692443848e-02,-5.223916098475456238e-02,-1.099804602563381195e-02,-6.493605673313140869e-02,-3.741043061017990112e-02,-6.332119554281234741e-02,7.750869542360305786e-02,2.305784374475479126e-01,-2.746403217315673828e-01,6.172485277056694031e-02,-1.162443384528160095e-01,-4.792004823684692383e-02,-1.026457771658897400e-01,2.830997109413146973e-01,4.091454446315765381e-01,8.984696120023727417e-02,5.645426362752914429e-02,4.957092925906181335e-02,-2.442505359649658203e-01,1.809831410646438599e-01,6.135506555438041687e-03,8.075235784053802490e-02,-2.193368785083293915e-02,1.181255057454109192e-01,8.121480047702789307e-02,1.450990289449691772e-01,2.192821167409420013e-02,-1.980967447161674500e-02,3.882962092757225037e-02,9.755543619394302368e-02,1.572115719318389893e-01,1.666472405195236206e-01,-4.169823601841926575e-02,-1.894611865282058716e-02,2.871473692357540131e-02,2.539049386978149414e-01,1.077278554439544678e-01,2.591382712125778198e-02,1.664907322265207767e-03,-1.070113629102706909e-01,-6.175020709633827209e-02,-5.241847410798072815e-02,1.133640259504318237e-01,-5.492287501692771912e-02,-2.717137932777404785e-01,5.016084015369415283e-02,-1.840248890221118927e-02,1.506329923868179321e-01,2.572129108011722565e-02,4.500498995184898376e-02,6.419712305068969727e-02,9.765136241912841797e-02,-1.196107175201177597e-02,7.480974495410919189e-02,-7.349099963903427124e-03,1.755134575068950653e-02,-1.060798913240432739e-01,-1.244047880172729492e-01,-1.535136532038450241e-02,-3.414480984210968018e-01,-2.276470214128494263e-01,-1.094734817743301392e-01,-1.768662333488464355e-01,8.563671261072158813e-02,1.391956955194473267e-01,-2.099736034870147705e-02,-2.598704025149345398e-02,-1.678460091352462769e-02,1.143820770084857941e-02,-2.147634774446487427e-01,2.623279094696044922e-01,6.386557221412658691e-02,1.421702206134796143e-01,4.130673035979270935e-02,2.171978503465652466e-01,9.515293687582015991e-02,1.569370180368423462e-01,4.327514395117759705e-02,-2.358905412256717682e-02,-1.873879507184028625e-02,1.378682553768157959e-01,7.262270897626876831e-02,-9.959556162357330322e-02,-2.484065294265747070e-01,-2.827195227146148682e-01,-3.034429848194122314e-01,-2.878961861133575439e-01,-4.077361226081848145e-01,-2.196072787046432495e-02,-2.417180091142654419e-01,-1.847547739744186401e-01,8.417718112468719482e-02,-1.188421174883842468e-01,6.004201620817184448e-02,-7.055281102657318115e-02,-6.676472723484039307e-03,4.890975728631019592e-02,1.576159149408340454e-01,4.294830560684204102e-02,1.838916540145874023e-01,1.061130836606025696e-01,1.037091091275215149e-01,1.219891756772994995e-02,-5.115710198879241943e-02,-1.007475107908248901e-01,-1.170951575040817261e-01,-1.599030047655105591e-01,-7.859811931848526001e-02,-6.541284173727035522e-02,2.315003983676433563e-02,-1.143196448683738708e-01,-5.720155239105224609e-01,-2.207380086183547974e-01,-3.669105172157287598e-01,-8.106568455696105957e-02,-4.108415842056274414e-01,-5.929132699966430664e-01,-6.013291478157043457e-01,5.314689874649047852e-02,-1.319679766893386841e-01,-1.246238723397254944e-01,-2.922897040843963623e-02,4.572086781263351440e-02,1.543449610471725464e-02,3.968940675258636475e-02,1.821658611297607422e-01,-1.638475656509399414e-01,3.486813604831695557e-02,2.660872638225555420e-01,3.540442883968353271e-01,3.042410314083099365e-01,2.893078625202178955e-01,1.098808571696281433e-01,9.740142524242401123e-02,8.057872056961059570e-01,5.260494351387023926e-01,2.405418455600738525e-01,1.602042913436889648e-01,5.650243908166885376e-02,1.799986362457275391e-01,2.264200598001480103e-01,2.341095954179763794e-01,3.314413726329803467e-01,1.346818171441555023e-02,8.484899252653121948e-02,-1.034406945109367371e-01,-2.808462977409362793e-01,2.919851243495941162e-02,-1.702781766653060913e-02,5.149067193269729614e-02,1.267880201339721680e-03,2.569284290075302124e-02,4.500671476125717163e-02,9.711663424968719482e-02,9.535348415374755859e-02,1.228889599442481995e-01,1.341986805200576782e-01,2.016236633062362671e-01,-2.634532451629638672e-01,-3.303512036800384521e-01,-3.262808024883270264e-01,-1.703173071146011353e-01,2.360825985670089722e-02,2.996627688407897949e-01,2.582368813455104828e-02,2.023009024560451508e-02,-8.260130882263183594e-02,-3.095967769622802734e-01,-1.243032589554786682e-01,-8.562773466110229492e-03,-9.461453557014465332e-02,-2.760756015777587891e-01,-6.956210732460021973e-02,2.165465205907821655e-01,2.875767648220062256e-02,7.346076518297195435e-02,-7.893986999988555908e-03,2.030074596405029297e-02,5.276282876729965210e-02,-6.560359895229339600e-02,-5.734322220087051392e-02,-7.800708711147308350e-02,-6.901274621486663818e-02,-2.838247641921043396e-02,6.240656226873397827e-02,-3.935267403721809387e-02,6.170801445841789246e-02,2.019146978855133057e-01,2.131290286779403687e-01,2.978610992431640625e-01,2.372113168239593506e-01,1.519765257835388184e-01,-1.824849843978881836e-01,-1.464997529983520508e-01,8.144114166498184204e-02,5.884040892124176025e-02,7.111948728561401367e-02,-3.504780679941177368e-02,-1.062147617340087891e-01,-2.075088769197463989e-01,-1.268307417631149292e-01,-1.619867235422134399e-02,7.072851806879043579e-02,5.168873816728591919e-02,9.536258876323699951e-03,-6.123957782983779907e-02
-3.444620966911315918e-02,-6.542034447193145752e-03,-7.333597540855407715e-02,-4.912657290697097778e-02,2.835012972354888916e-03,3.998584300279617310e-02,-3.009054809808731079e-02,-7.896458357572555542e-02,6.693763285875320435e-02,6.010808050632476807e-03,-1.608807593584060669e-02,1.422983407974243164e-02,2.319292351603507996e-02,9.048061072826385498e-02,-5.825573951005935669e-02,5.103305727243423462e-02,3.483651578426361084e-02,2.777513861656188965e-02,-4.915620014071464539e-02,2.069783955812454224e-02,-6.879070401191711426e-02,-5.077094584703445435e-02,7.857691496610641479e-02,7.911513000726699829e-02,5.616221576929092407e-02,6.012649089097976685e-02,-7.880479097366333008e-02,6.943526118993759155e-02,2.744337171316146851e-02,4.805103689432144165e-02,-1.314656436443328857e-02,2.972940355539321899e-02,-1.955449022352695465e-02,-9.742569178342819214e-03,5.625130608677864075e-02,6.041560322046279907e-02,1.212990656495094299e-01,1.543805301189422607e-01,1.624255776405334473e-01,2.032368071377277374e-02,1.607834100723266602e-01,3.063950836658477783e-01,3.905359208583831787e-01,4.827485680580139160e-01,1.712465137243270874e-01,8.349989354610443115e-02,2.380996495485305786e-01,1.873846352100372314e-01,1.891401112079620361e-01,5.080834031105041504e-02,1.469087004661560059e-01,8.500734716653823853e-02,6.720111519098281860e-02,4.770598560571670532e-02,-3.551844134926795959e-02,-6.378512084484100342e-02,-7.347358763217926025e-02,2.636133134365081787e-02,4.659490659832954407e-02,-4.612192139029502869e-02,1.063543334603309631e-01,3.313905000686645508e-02,1.040214821696281433e-01,1.126491799950599670e-01,1.675997227430343628e-01,-3.499821573495864868e-02,2.338526397943496704e-02,2.816481888294219971e-01,-1.308483332395553589e-01,5.814195796847343445e-02,-2.320431405678391457e-03,2.257695943117141724e-01,2.936392128467559814e-01,3.155676722526550293e-01,6.531845778226852417e-02,-1.570081412792205811e-01,-1.649561971426010132e-01,-1.035739779472351074e-01,4.568995162844657898e-02,8.251877501606941223e-03,7.249086350202560425e-02,-5.263576284050941467e-02,6.896258145570755005e-02,-2.657252550125122070e-02,5.228645354509353638e-02,-6.556348502635955811e-02,-4.695354774594306946e-02,-9.866002202033996582e-02,1.002030745148658752e-01,8.530569821596145630e-02,2.155333161354064941e-01,-1.286353766918182373e-01,5.203211307525634766e-02,5.279181599617004395e-01,4.067260026931762695e-01,3.027626574039459229e-01,2.621454745531082153e-02,-2.326744794845581055e-01,-2.790718674659729004e-01,2.868105173110961914e-01,6.320843696594238281e-01,4.429839551448822021e-01,1.946624368429183960e-01,9.082114696502685547e-02,-1.194457188248634338e-01,2.554178610444068909e-02,1.328752338886260986e-01,5.960535407066345215e-01,3.695761561393737793e-01,7.322521507740020752e-02,-1.078590005636215210e-01,-5.259155109524726868e-02,1.192846149206161499e-02,1.207152754068374634e-02,-1.798478066921234131e-01,-2.457639127969741821e-01,6.423386931419372559e-02,2.818817794322967529e-01,3.210601583123207092e-02,2.822029590606689453e-02,1.963460445404052734e-01,4.175772070884704590e-01,2.061925381422042847e-01,-2.764529883861541748e-01,-3.089329004287719727e-01,-4.639439582824707031e-01,-1.139227971434593201e-01,-1.389887183904647827e-01,3.472791612148284912e-01,5.113955736160278320e-01,1.182195320725440979e-01,1.188160553574562073e-01,-4.137665033340454102e-02,-1.374090909957885742e-01,-9.452617727220058441e-03,1.926752179861068726e-01,2.432028502225875854e-01,1.801936626434326172e-01,3.644515573978424072e-02,-4.203809052705764771e-02,-5.811199545860290527e-03,5.445084720849990845e-02,-1.593672484159469604e-01,-2.439791411161422729e-01,1.346265431493520737e-02,1.900456100702285767e-01,-1.185747683048248291e-01,9.156540036201477051e-02,2.762519717216491699e-01,7.664780132472515106e-03,-4.589070677757263184e-01,-5.121703743934631348e-01,-2.017231285572052002e-01,-1.753591448068618774e-01,-5.239059031009674072e-02,-1.611950844526290894e-01,-1.892932131886482239e-02,1.628189384937286377e-01,-1.275313086807727814e-02,2.446675449609756470e-01,-1.124866530299186707e-01,1.339434683322906494e-01,1.740036904811859131e-01,1.656616777181625366e-01,4.458323419094085693e-01,3.797378242015838623e-01,7.819123566150665283e-02,-1.306733787059783936e-01,1.482499390840530396e-02,7.204318791627883911e-02,-1.525336056947708130e-01,-3.303679823875427246e-01,-1.007181033492088318e-01,1.368732154369354248e-01,3.567184135317802429e-02,-7.142391055822372437e-02,-1.707255542278289795e-01,-3.500338196754455566e-01,-4.636184275150299072e-01,-6.782278418540954590e-02,4.355518519878387451e-02,-4.757235571742057800e-02,2.438555099070072174e-02,1.414846442639827728e-02,-1.037160754203796387e-01,-7.158759981393814087e-02,-1.603217273950576782e-01,-9.560208767652511597e-02,2.013077028095722198e-02,-1.719226837158203125e-01,2.961794734001159668e-01,4.360262453556060791e-01,1.957282721996307373e-01,2.145051062107086182e-01,8.914583176374435425e-02,2.232039868831634521e-01,3.997851163148880005e-02,-3.910085558891296387e-02,-1.354946941137313843e-01,-2.173575162887573242e-01,5.942230671644210815e-02,1.870514899492263794e-01,-9.343801438808441162e-02,-9.810182452201843262e-02,-2.463636994361877441e-01,-1.468328982591629028e-01,-3.604357317090034485e-02,-2.118260413408279419e-01,-9.998059272766113281e-02,-2.107014954090118408e-01,-8.632083237171173096e-02,1.292860209941864014e-01,-2.198241800069808960e-01,-1.358617693185806274e-01,-1.499895006418228149e-01,-9.112595021724700928e-02,-4.480974003672599792e-02,-1.081217974424362183e-01,2.822734117507934570e-01,2.790859341621398926e-01,-2.604374289512634277e-01,-4.882567003369331360e-02,6.630073487758636475e-02,1.625599414110183716e-01,-7.037932425737380981e-02,-1.270460188388824463e-01,-2.062419652938842773e-01,5.854309722781181335e-02,3.365830481052398682e-01,3.300804495811462402e-01,2.850728034973144531e-01,2.942898869514465332e-01,-2.541422247886657715e-01,-2.389437258243560791e-01,-2.580321431159973145e-01,-2.807452082633972168e-01,-4.502063244581222534e-02,-6.944669783115386963e-02,-3.012272343039512634e-02,-1.004838943481445312e-01,-3.621682524681091309e-01,-1.265840530395507812e-01,-4.058156907558441162e-02,-1.741737425327301025e-01,1.358226090669631958e-01,-9.984137117862701416e-02,7.949212193489074707e-02,-1.221919357776641846e-01,-1.906787902116775513e-01,-1.755566149950027466e-02,4.355196654796600342e-01,1.902799755334854126e-01,-7.857900857925415039e-02,-4.607679843902587891e-01,-2.794705331325531006e-01,1.464132368564605713e-01,7.796695828437805176e-02,-2.332254312932491302e-02,2.928731739521026611e-01,1.140865385532379150e-01,-2.344866245985031128e-01,-1.610839366912841797e-01,-1.858863085508346558e-01,-6.887496262788772583e-02,-2.539147436618804932e-01,-2.142439223825931549e-02,7.978495210409164429e-03,-4.470922052860260010e-02,-1.344752963632345200e-02,4.068066924810409546e-02,1.174074709415435791e-01,-9.888902306556701660e-02,-8.055692538619041443e-03,9.665762633085250854e-02,-1.962077319622039795e-01,1.425273120403289795e-01,-1.054341644048690796e-01,-2.519950270652770996e-01,-5.657351389527320862e-02,-2.901484668254852295e-01,-3.361167013645172119e-02,-1.739785075187683105e-01,-3.813260793685913086e-01,-3.097848892211914062e-01,-2.701993333175778389e-03,-2.446185350418090820e-01,2.430910170078277588e-01,-4.478192701935768127e-02,-2.906604707241058350e-01,-9.587371349334716797e-02,4.882439970970153809e-02,-6.352053582668304443e-02,1.490523014217615128e-02,-1.314855962991714478e-01,-1.912658661603927612e-01,-2.256695628166198730e-01,-4.424693807959556580e-02,1.387983709573745728e-01,8.326933532953262329e-02,-4.724479839205741882e-02,-3.312164545059204102e-02,-4.525458067655563354e-02,9.337815642356872559e-02,1.002384871244430542e-01,-3.657284006476402283e-02,-4.896413981914520264e-01,-2.986450493335723877e-01,-1.749384999275207520e-01,6.124634295701980591e-02,1.495021432638168335e-01,-1.433595269918441772e-01,-1.035304442048072815e-01,5.772836972028017044e-03,3.286404535174369812e-02,3.138160407543182373e-01,7.299897726625204086e-03,6.912723183631896973e-02,1.355892866849899292e-01,1.173241734504699707e-01,7.863663882017135620e-02,2.594883143901824951e-01,1.707806289196014404e-01,-2.595061361789703369e-01,-2.059973925352096558e-01,-1.476978976279497147e-02,-5.722467601299285889e-02,-1.416250169277191162e-01,-4.876058921217918396e-02,-1.804662309587001801e-02,-5.277670174837112427e-02,-3.682036325335502625e-02,-6.069158017635345459e-02,-2.020721733570098877e-01,-4.719835519790649414e-01,-4.242371320724487305e-01,-4.027314782142639160e-01,7.610700279474258423e-02,3.788352012634277344e-02,-5.020982027053833008e-02,2.201482504606246948e-01,-1.937313824892044067e-01,2.073967829346656799e-02,2.356728613376617432e-01,2.925554215908050537e-01,1.349860876798629761e-01,1.234154254198074341e-01,8.079996041487902403e-05,2.247450649738311768e-01,2.344387471675872803e-01,2.293542772531509399e-01,3.212747350335121155e-02,4.604123532772064209e-02,-4.925994947552680969e-02,-2.743735611438751221e-01,-2.673930823802947998e-01,-3.651747480034828186e-02,-1.886621266603469849e-01,-1.855599880218505859e-01,3.946549072861671448e-02,-6.049233675003051758e-02,4.374950230121612549e-01,-2.441044896841049194e-01,-6.603193879127502441e-01,-5.040480494499206543e-01,5.171278491616249084e-02,6.779450923204421997e-02,-6.859023869037628174e-02,1.043023467063903809e-01,-2.516176104545593262e-01,7.400409877300262451e-02,2.521622478961944580e-01,5.837320908904075623e-02,1.089992597699165344e-01,2.299884147942066193e-02,-8.842138200998306274e-02,-9.568795561790466309e-02,1.316052526235580444e-01,-2.160522155463695526e-02,9.127303957939147949e-02,1.254553496837615967e-01,-1.013140305876731873e-01,-1.613140702247619629e-01,-3.159022191539406776e-03,7.546082139015197754e-02,5.922750104218721390e-03,-1.390351951122283936e-01,2.240545004606246948e-01,5.550457537174224854e-02,-1.484684795141220093e-01,-2.743428647518157959e-01,-3.499960303306579590e-01,-7.531825453042984009e-02,2.154944092035293579e-01,-2.149933278560638428e-01,-3.049844130873680115e-02,4.491877183318138123e-02,-1.891014426946640015e-01,3.374466300010681152e-01,3.972442448139190674e-01,1.018715947866439819e-01,1.295266002416610718e-01,-1.380019634962081909e-01,-2.282651364803314209e-01,-1.385166198015213013e-01,3.882549330592155457e-02,1.510174125432968140e-01,3.102360963821411133e-01,1.172566972672939301e-02,-9.832708537578582764e-02,5.039638374000787735e-03,-8.453700691461563110e-02,1.414113640785217285e-01,-2.731892168521881104e-01,-2.391873896121978760e-01,-1.093353703618049622e-01,2.361416071653366089e-01,1.345824897289276123e-01,1.586230844259262085e-01,3.367654681205749512e-01,3.880716487765312195e-02,9.611673653125762939e-02,-2.042471766471862793e-01,3.304189443588256836e-01,4.087503850460052490e-01,5.371781438589096069e-02,3.650123476982116699e-01,3.802679777145385742e-01,1.598927229642868042e-01,-5.080783963203430176e-01,-4.851090312004089355e-01,-3.714286088943481445e-01,-6.798209249973297119e-02,1.820244193077087402e-01,3.710479438304901123e-01,3.110237717628479004e-01,8.002912253141403198e-02,-8.916105143725872040e-03,-1.397298127412796021e-01,3.831078857183456421e-02,1.087121199816465378e-02,-2.246661484241485596e-01,-5.044676661491394043e-01,1.204325482249259949e-01,3.767569959163665771e-01,1.339257657527923584e-01,2.675682306289672852e-01,-5.404793098568916321e-02,-1.032680049538612366e-01,-7.626669108867645264e-02,-3.453055024147033691e-02,2.219700664281845093e-01,6.937944293022155762e-01,1.324875652790069580e-01,3.351795673370361328e-01,-1.271576969884335995e-03,-2.311535030603408813e-01,-3.869967460632324219e-01,-8.540059328079223633e-01,-4.698752462863922119e-01,-8.329063653945922852e-02,2.518858611583709717e-01,2.836608290672302246e-01,2.553052306175231934e-01,2.482119798660278320e-01,5.370203778147697449e-02,-3.174131736159324646e-02,1.712943911552429199e-01,-2.016895264387130737e-02,-2.193566262722015381e-01,-3.416797816753387451e-01,-1.745315641164779663e-01,2.225121408700942993e-01,1.220685839653015137e-01,4.100483953952789307e-01,8.150783181190490723e-02,-1.003615260124206543e-01,-1.041046530008316040e-02,-1.622322387993335724e-02,8.725450932979583740e-02,3.354852795600891113e-01,3.477388620376586914e-01,1.311769932508468628e-01,-5.800922960042953491e-02,-2.813013792037963867e-01,-3.413448035717010498e-01,-7.554794549942016602e-01,-3.405300080776214600e-01,1.944007724523544312e-01,3.638714551925659180e-01,1.799522787332534790e-01,2.003394514322280884e-01,1.562776714563369751e-01,1.436579078435897827e-01,-2.388727292418479919e-02,1.068994123488664627e-02,2.581819519400596619e-02,2.928044646978378296e-02,-1.801729351282119751e-01,-4.880538210272789001e-02,2.709026336669921875e-01,4.162731766700744629e-01,-5.276447534561157227e-01,-4.034552574157714844e-01,3.953928127884864807e-02,-3.632124066352844238e-01,-7.410128414630889893e-02,-6.689856946468353271e-02,4.050582051277160645e-01,2.652628123760223389e-01,-1.855216771364212036e-01,-4.106497168540954590e-01,-6.488111019134521484e-01,-4.222376942634582520e-01,-4.228083491325378418e-01,-4.388087987899780273e-02,1.670914739370346069e-01,4.600301086902618408e-01,3.462244570255279541e-01,5.370587110519409180e-02,2.440847270190715790e-02,6.540424376726150513e-02,1.276935935020446777e-01,1.374010443687438965e-01,2.952762544155120850e-01,8.585273474454879761e-02,-1.747300326824188232e-01,-2.623867392539978027e-01,-2.880067825317382812e-01,4.590370953083038330e-01,6.757576763629913330e-02,-3.946483731269836426e-01,-8.452462404966354370e-02,7.745282351970672607e-02,-1.339494138956069946e-01,-1.143421381711959839e-01,3.472741842269897461e-01,-1.177672296762466431e-01,-2.866127192974090576e-01,-3.065887689590454102e-01,-1.885252743959426880e-01,-6.612709164619445801e-01,-5.477858185768127441e-01,7.656293362379074097e-02,5.046576857566833496e-01,4.057427942752838135e-01,3.095337748527526855e-01,-1.013324260711669922e-01,-1.906767189502716064e-01,8.016771636903285980e-03,1.720961183309555054e-01,1.404654383659362793e-01,2.777648568153381348e-01,9.472629427909851074e-02,-1.668016016483306885e-01,-4.023196101188659668e-01,6.095470488071441650e-02,4.572108387947082520e-01,1.324978619813919067e-01,2.342378944158554077e-01,-3.255902975797653198e-02,-3.961584344506263733e-02,-4.881508648395538330e-03,1.469762772321701050e-01,5.037097260355949402e-02,-4.432085752487182617e-01,-4.735161066055297852e-01,-3.965395390987396240e-01,-7.211098074913024902e-01,-5.535699129104614258e-01,-4.014930427074432373e-01,3.175316154956817627e-01,5.851319432258605957e-01,4.690316915512084961e-01,1.906122416257858276e-01,-1.001137122511863708e-01,-4.760008677840232849e-02,8.451735228300094604e-02,1.785163730382919312e-01,4.066485762596130371e-01,3.611315786838531494e-01,-2.561559900641441345e-03,-2.065414041280746460e-01,-3.911375403404235840e-01,-5.260472372174263000e-02,1.905564814805984497e-01,-3.694392740726470947e-02,2.427966743707656860e-01,-1.439525187015533447e-02,2.241274155676364899e-02,-6.536632031202316284e-02,5.192269384860992432e-02,-3.477033227682113647e-02,-2.669319510459899902e-01,-7.815282344818115234e-01,-3.640538156032562256e-01,-9.125777482986450195e-01,-1.842088997364044189e-01,2.445863634347915649e-01,1.260119974613189697e-01,2.617836892604827881e-01,1.767705082893371582e-01,1.894874125719070435e-01,-1.950408332049846649e-02,7.617815583944320679e-02,-5.324104335159063339e-03,1.307246237993240356e-01,1.978871226310729980e-01,2.549616098403930664e-01,-1.833837628364562988e-01,-5.206749215722084045e-02,1.004644706845283508e-01,1.504102945327758789e-01,-5.807304754853248596e-02,1.313563734292984009e-01,3.741218745708465576e-01,-6.184726953506469727e-02,9.387588500976562500e-02,-3.154519945383071899e-02,-1.492225527763366699e-01,-3.223243951797485352e-01,-1.323852241039276123e-01,-4.805389940738677979e-01,-3.457829058170318604e-01,-5.225130319595336914e-01,-4.581047594547271729e-02,8.681204915046691895e-02,-1.077519580721855164e-01,1.142504364252090454e-01,1.556894481182098389e-01,1.849150955677032471e-01,9.830880910158157349e-03,-5.113246291875839233e-02,4.412862658500671387e-02,2.012806236743927002e-01,1.530777215957641602e-01,4.594705626368522644e-02,-2.045945227146148682e-01,-9.247292578220367432e-02,4.725811779499053955e-01,2.302545309066772461e-01,3.041243879124522209e-03,3.314697742462158203e-01,-4.215182736515998840e-02,-2.530509233474731445e-02,5.965762585401535034e-02,-5.448187142610549927e-02,9.520170092582702637e-02,-3.362011909484863281e-01,-4.053133130073547363e-01,-4.399073421955108643e-01,-3.437208235263824463e-01,-3.355042636394500732e-01,-1.364817917346954346e-01,-1.041964441537857056e-02,-1.648289859294891357e-01,-8.323214948177337646e-02,2.338791936635971069e-01,2.292007207870483398e-01,2.761001288890838623e-01,-5.855898559093475342e-02,9.231324493885040283e-02,1.254114061594009399e-01,-4.889841005206108093e-02,-5.618869513273239136e-02,-1.722500473260879517e-01,2.330605685710906982e-01,4.340550899505615234e-01,1.756400167942047119e-01,-2.592935264110565186e-01,2.407075464725494385e-01,-2.296583354473114014e-01,-4.609908536076545715e-02,-4.858262836933135986e-03,-2.035396546125411987e-02,7.907630788395181298e-05,-2.224799096584320068e-01,-3.303431272506713867e-01,-4.267972111701965332e-01,-6.138072609901428223e-01,-8.221253156661987305e-01,-6.793239116668701172e-01,-2.289224863052368164e-01,-1.979342252016067505e-01,2.164656296372413635e-02,3.754580393433570862e-02,1.334107518196105957e-01,2.310284972190856934e-01,1.348923239856958389e-02,1.360560357570648193e-01,-2.579917609691619873e-01,-1.201339438557624817e-01,-2.620884962379932404e-02,8.161477744579315186e-02,8.043017983436584473e-02,2.522555291652679443e-01,-1.717916578054428101e-01,-3.017558753490447998e-01,9.477509558200836182e-02,-1.276526600122451782e-02,6.128754466772079468e-02,7.590011507272720337e-02,-1.643968373537063599e-02,-2.330303192138671875e-03,6.079839915037155151e-02,-3.893854841589927673e-02,-4.234726428985595703e-01,-3.801311850547790527e-01,-8.226442337036132812e-01,-5.135280489921569824e-01,-2.923173010349273682e-01,-1.804696917533874512e-01,-1.364024728536605835e-01,-9.799937158823013306e-02,-2.870411425828933716e-02,4.468620941042900085e-02,-7.171924412250518799e-02,-6.656745672225952148e-01,-1.325169354677200317e-01,-1.600242257118225098e-01,-3.286294937133789062e-01,-1.874591708183288574e-01,-1.820201873779296875e-01,-8.173711597919464111e-02,9.944591671228408813e-02,-1.679129004478454590e-01,-1.429060697555541992e-01,-7.790400832891464233e-02,-1.908943429589271545e-02,3.947585076093673706e-02,2.412191778421401978e-02,4.084218293428421021e-02,-2.243181923404335976e-03,-2.534303665161132812e-01,-1.243661418557167053e-01,-2.270912081003189087e-01,-5.667334794998168945e-01,-7.376968115568161011e-02,-4.087451398372650146e-01,-2.974266409873962402e-01,1.038666442036628723e-02,-3.137333393096923828e-01,-5.727254152297973633e-01,-7.016168832778930664e-01,-6.920787692070007324e-01,-3.280257061123847961e-02,-3.104371428489685059e-01,-3.379016816616058350e-01,-3.856748342514038086e-01,-4.812448024749755859e-01,-5.048311352729797363e-01,-3.673917353153228760e-01,-1.792999953031539917e-01,3.809545934200286865e-02,1.388760656118392944e-02,2.679526060819625854e-02,1.438769698143005371e-02,7.158290594816207886e-02,6.541300565004348755e-02,-4.302412271499633789e-04,5.496834963560104370e-02,-2.967837452888488770e-02,-6.414791941642761230e-02,-5.687512829899787903e-02,1.359679847955703735e-01,1.076983511447906494e-01,-4.429299756884574890e-02,-1.777379065752029419e-01,-2.112940847873687744e-01,-1.340624094009399414e-01,6.183863803744316101e-02,1.483139395713806152e-01,1.908099055290222168e-01,9.919569641351699829e-02,-3.607567548751831055e-01,-6.109753847122192383e-01,-3.225799798965454102e-01,1.407592296600341797e-01,9.220133535563945770e-03,-7.392437756061553955e-02,-2.861549332737922668e-02,-4.266320914030075073e-02,-3.773772343993186951e-02,-6.219311058521270752e-02,-1.807539165019989014e-02
-7.380032539367675781e-02,-2.722994983196258545e-02,-5.629089102149009705e-02,-1.022015511989593506e-02,2.498298883438110352e-03,-2.248924225568771362e-02,3.542459756135940552e-02,1.984612643718719482e-02,-2.820100262761116028e-02,1.535861194133758545e-02,5.834265798330307007e-02,-6.816868484020233154e-02,2.089253254234790802e-02,-1.270133722573518753e-02,-3.936473652720451355e-02,6.047675013542175293e-02,-6.433191150426864624e-02,-3.130789473652839661e-02,1.573655754327774048e-02,2.611868083477020264e-03,1.439429819583892822e-03,-4.691183567047119141e-03,-2.609527483582496643e-02,-4.192688316106796265e-02,4.740434139966964722e-02,2.012434601783752441e-02,-4.088984802365303040e-02,2.930759638547897339e-02,7.732985168695449829e-02,2.233068645000457764e-02,4.845642298460006714e-02,-1.310587674379348755e-02,2.211210504174232483e-02,8.241987228393554688e-02,1.541135013103485107e-01,1.543333977460861206e-01,1.409529000520706177e-01,1.406038105487823486e-01,-5.367479752749204636e-03,9.234429150819778442e-02,1.761874109506607056e-01,2.356356978416442871e-01,4.588671922683715820e-01,3.341855108737945557e-01,4.535602033138275146e-01,3.708012700080871582e-01,1.690977960824966431e-01,3.733225762844085693e-01,3.099813163280487061e-01,1.747101545333862305e-01,1.858270615339279175e-01,1.033523082733154297e-01,-1.647663861513137817e-02,-1.768735051155090332e-02,-4.010322317481040955e-02,-7.778073102235794067e-02,6.245721131563186646e-02,7.296175509691238403e-02,1.590272411704063416e-03,-2.475916408002376556e-02,1.211126968264579773e-01,1.814245134592056274e-01,1.121593266725540161e-01,1.192755252122879028e-01,3.596383333206176758e-01,5.492168664932250977e-01,3.014625608921051025e-01,4.825179874897003174e-01,1.868396550416946411e-01,2.046332061290740967e-01,4.633295834064483643e-01,9.988470673561096191e-01,6.124532818794250488e-01,5.037192702293395996e-01,2.966566979885101318e-01,4.993442296981811523e-01,5.472506880760192871e-01,5.722115039825439453e-01,4.870492517948150635e-01,1.623056083917617798e-01,2.296124398708343506e-01,-2.609761804342269897e-02,-7.950433343648910522e-02,8.065316826105117798e-02,-7.833370566368103027e-02,-5.766535922884941101e-02,4.641509801149368286e-02,4.323766753077507019e-02,1.948375254869461060e-02,2.431950718164443970e-01,4.030379652976989746e-01,5.212969779968261719e-01,-2.956093251705169678e-01,-2.968397140502929688e-01,-7.045769691467285156e-02,-1.209706515073776245e-01,-3.332027792930603027e-01,-5.173472315073013306e-02,3.749709427356719971e-01,-4.245945438742637634e-02,-1.193076446652412415e-01,-5.332929641008377075e-02,-1.405067890882492065e-01,1.765224784612655640e-01,-5.138698499649763107e-03,-1.340176463127136230e-01,-3.758761286735534668e-02,3.722422122955322266e-01,5.339272618293762207e-01,-2.533936202526092529e-01,-1.829418689012527466e-01,3.464545309543609619e-02,6.599868088960647583e-02,1.916597411036491394e-02,7.803123444318771362e-02,2.558552622795104980e-01,1.859437674283981323e-01,1.405484974384307861e-01,6.810148805379867554e-02,-3.821856975555419922e-01,-1.391588151454925537e-01,-7.757980376482009888e-02,7.260213792324066162e-02,1.229298766702413559e-02,-2.563062310218811035e-01,-2.407876588404178619e-02,-1.530828326940536499e-01,-1.682257801294326782e-01,-2.224943935871124268e-01,-2.896996140480041504e-01,-1.691745817661285400e-01,-6.993339955806732178e-02,-1.950075924396514893e-01,-4.596691727638244629e-01,-4.246190488338470459e-01,1.669011078774929047e-02,3.509194254875183105e-01,-1.293395906686782837e-01,-2.360100299119949341e-01,1.927610635757446289e-01,-3.536495566368103027e-02,1.847264170646667480e-02,2.571178376674652100e-01,-2.387350983917713165e-02,2.453451454639434814e-01,-8.464059978723526001e-02,-1.798319816589355469e-01,-1.524117141962051392e-01,-7.396948337554931641e-02,-3.721999824047088623e-01,-2.397495061159133911e-01,-9.585831314325332642e-03,-3.095385432243347168e-02,-3.186804428696632385e-02,-1.831984519958496094e-01,1.752619594335556030e-01,1.064373254776000977e-01,-8.375084400177001953e-02,-8.491363376379013062e-03,-1.335846185684204102e-01,-1.909988522529602051e-01,-2.227124273777008057e-01,-1.742983236908912659e-02,3.939788937568664551e-01,3.237306475639343262e-01,-1.047302782535552979e-02,6.690088659524917603e-02,2.594408206641674042e-02,7.192075997591018677e-02,7.787252776324748993e-03,2.751453220844268799e-01,1.000765562057495117e-01,2.975879013538360596e-01,-1.413500010967254639e-01,-3.317171037197113037e-01,-1.577606499195098877e-01,1.696055568754673004e-02,1.146302651613950729e-02,2.600065805017948151e-02,1.057959813624620438e-02,-5.692417547106742859e-02,1.978831365704536438e-02,-2.497509866952896118e-01,-1.020663753151893616e-01,-5.266616493463516235e-02,-5.782414600253105164e-02,-7.846425473690032959e-02,-5.041514988988637924e-03,-3.617441058158874512e-01,-2.785353064537048340e-01,-1.653818972408771515e-02,-4.186883196234703064e-02,1.080515794456005096e-02,-6.816025078296661377e-02,-6.372684240341186523e-02,5.848018452525138855e-02,-7.046077866107225418e-03,3.723646700382232666e-01,3.280579447746276855e-01,2.104441821575164795e-01,3.013671338558197021e-01,2.013844549655914307e-01,-1.142942160367965698e-01,2.812277078628540039e-01,-1.792862638831138611e-02,2.258726209402084351e-01,1.584162563085556030e-01,1.263455599546432495e-01,-1.122414972633123398e-02,-9.528369456529617310e-02,9.167659096419811249e-03,-1.962061524391174316e-01,-1.613214612007141113e-02,1.124429032206535339e-01,-7.440831512212753296e-02,-8.586971461772918701e-02,-3.212951719760894775e-01,-1.457501500844955444e-01,-1.475064009428024292e-01,-2.273388206958770752e-01,-9.809945523738861084e-02,3.678216040134429932e-02,-3.185601672157645226e-04,2.290640920400619507e-01,4.402778297662734985e-02,2.270983159542083740e-01,2.051798105239868164e-01,2.325796522200107574e-02,1.918218582868576050e-01,2.412219941616058350e-01,-2.209400832653045654e-01,1.721344292163848877e-01,-3.783189225941896439e-03,2.287458777427673340e-01,3.310310840606689453e-01,1.380454301834106445e-01,-2.655395567417144775e-01,-3.529091775417327881e-01,4.975192621350288391e-02,2.423732578754425049e-01,8.885623514652252197e-02,5.270810797810554504e-02,-1.596991568803787231e-01,-1.443965137004852295e-01,-3.200179934501647949e-01,-2.379908114671707153e-01,-2.662085592746734619e-01,-4.323829412460327148e-01,-3.219651579856872559e-01,-3.574073016643524170e-01,-7.672084867954254150e-02,-7.088536769151687622e-02,1.539629548788070679e-01,2.486610859632492065e-01,2.761702835559844971e-01,2.451186478137969971e-01,3.049394488334655762e-01,2.552910745143890381e-01,1.646305322647094727e-01,4.473752975463867188e-01,2.531925439834594727e-01,1.488563269376754761e-01,-2.390196174383163452e-01,-2.380857765674591064e-01,-2.988011538982391357e-01,-1.435286998748779297e-01,2.117578536272048950e-01,3.117108047008514404e-01,1.754905283451080322e-01,-6.655656546354293823e-02,-4.413937218487262726e-03,-4.731275141239166260e-02,-1.069482639431953430e-01,-1.573376953601837158e-01,-3.877084255218505859e-01,-3.505698740482330322e-01,-1.826076805591583252e-01,-1.417680680751800537e-01,-5.523588974028825760e-03,2.298149615526199341e-01,6.126514822244644165e-02,1.294838786125183105e-01,5.008342266082763672e-01,1.439822316169738770e-01,1.568526923656463623e-01,3.390913084149360657e-02,1.002354174852371216e-01,8.658420294523239136e-02,-1.814287602901458740e-01,-6.235538125038146973e-01,-7.051813602447509766e-01,-6.486541032791137695e-01,-3.408987224102020264e-01,-2.579438500106334686e-02,2.426941543817520142e-01,3.074700534343719482e-01,1.443105638027191162e-01,-8.620044589042663574e-02,1.381894387304782867e-02,-1.801834702491760254e-01,-2.152493596076965332e-01,-2.969227135181427002e-01,-4.465024173259735107e-01,-4.874960482120513916e-01,-4.427708387374877930e-01,-3.449024260044097900e-01,-1.314151287078857422e-01,8.989351987838745117e-02,3.504958748817443848e-02,1.017224267125129700e-01,-1.159150376915931702e-01,-9.004146605730056763e-02,-1.393464207649230957e-02,-2.156341224908828735e-01,-4.684315025806427002e-01,-5.210228562355041504e-01,-7.544314861297607422e-01,-9.373874068260192871e-01,-3.870511353015899658e-01,-3.384704887866973877e-01,5.682481080293655396e-02,3.307943642139434814e-01,3.397189080715179443e-01,7.650824636220932007e-02,-1.928160935640335083e-01,-2.129179090261459351e-01,-1.126035004854202271e-01,-8.098813705146312714e-03,8.096032589673995972e-02,-7.047294080257415771e-02,-3.830363601446151733e-02,-1.755837798118591309e-01,-5.825123190879821777e-01,-3.980686962604522705e-01,-5.313953757286071777e-01,2.279655784368515015e-01,-1.576671563088893890e-02,9.057106822729110718e-02,-2.780199348926544189e-01,-1.721865832805633545e-01,-3.280109465122222900e-01,-5.965498685836791992e-01,-8.145120739936828613e-01,-1.073639154434204102e+00,-7.635789513587951660e-01,-7.899081110954284668e-01,-1.331117600202560425e-01,2.158250659704208374e-01,5.055280327796936035e-01,3.533668816089630127e-01,1.682973206043243408e-01,-1.615253239870071411e-01,-1.125580817461013794e-02,-2.057068943977355957e-01,-1.213627010583877563e-01,-4.867106303572654724e-02,8.696282655000686646e-02,8.187789469957351685e-02,4.985835552215576172e-01,7.210947573184967041e-02,-2.101989090442657471e-01,1.065544262528419495e-01,-2.429878860712051392e-01,3.107078075408935547e-01,2.002400532364845276e-02,-2.414082549512386322e-02,2.169671803712844849e-01,-1.985784024000167847e-01,-6.623992919921875000e-01,-5.602838993072509766e-01,-3.346633613109588623e-01,-6.198261976242065430e-01,-2.238806784152984619e-01,-1.471333354711532593e-01,4.440878927707672119e-01,3.627991974353790283e-01,3.592260181903839111e-01,5.096105160191655159e-04,-1.242576688528060913e-01,-2.521191537380218506e-01,3.624075651168823242e-02,4.852430894970893860e-02,1.195217669010162354e-01,1.066298484802246094e-01,4.662654548883438110e-02,1.931260377168655396e-01,5.390748754143714905e-02,1.972556710243225098e-01,-3.247370123863220215e-01,-1.068294197320938110e-01,-1.291324198246002197e-01,1.687087677419185638e-02,-8.039581030607223511e-02,-7.675233483314514160e-02,1.394852697849273682e-01,-2.286490947008132935e-01,-3.557166159152984619e-01,-3.629488050937652588e-01,-2.103954851627349854e-01,-6.507887691259384155e-02,3.481136262416839600e-01,3.512185811996459961e-01,4.601863920688629150e-01,3.980393111705780029e-01,2.316741347312927246e-01,1.047000475227832794e-02,2.038166485726833344e-02,-1.124464571475982666e-01,-1.228449959307909012e-02,6.231313198804855347e-02,4.631801042705774307e-03,2.025013417005538940e-01,1.016538664698600769e-01,2.283418923616409302e-01,8.942405879497528076e-02,1.691416054964065552e-01,1.666314750909805298e-01,9.489279240369796753e-02,3.421528041362762451e-01,1.405426561832427979e-01,7.431385666131973267e-02,5.557278543710708618e-02,3.222452476620674133e-02,-3.097938895225524902e-01,-1.204982548952102661e-01,8.926061913371086121e-03,-9.062034077942371368e-03,8.250627666711807251e-02,-8.230466395616531372e-02,2.737317383289337158e-01,4.261367022991180420e-01,2.977740466594696045e-01,3.277984857559204102e-01,5.367437377572059631e-02,-1.553734689950942993e-01,-3.150026500225067139e-01,-5.853237956762313843e-02,-8.860053122043609619e-02,-6.461410224437713623e-02,1.953994184732437134e-01,-5.722763016819953918e-02,8.706197142601013184e-02,1.896709650754928589e-01,3.868186771869659424e-01,3.920100927352905273e-01,1.966893523931503296e-01,-5.151386931538581848e-02,3.057843744754791260e-01,4.394260793924331665e-02,8.084414899349212646e-02,4.084133729338645935e-02,-5.861727595329284668e-01,-2.410424053668975830e-01,-1.848158985376358032e-01,1.910633444786071777e-01,3.154358565807342529e-01,-7.600891590118408203e-02,2.357462495565414429e-01,2.197705805301666260e-01,3.135696947574615479e-01,2.966872751712799072e-01,-2.758859656751155853e-02,-8.350601047277450562e-02,-1.476889997720718384e-01,-3.280235081911087036e-02,-6.253562867641448975e-02,6.527019292116165161e-02,3.237125575542449951e-01,-5.082959681749343872e-02,1.968386024236679077e-01,3.711855411529541016e-01,1.585402637720108032e-01,3.118542432785034180e-01,1.716969162225723267e-01,3.503818511962890625e-01,1.407565921545028687e-01,-7.341348379850387573e-02,1.255224198102951050e-01,-2.872660756111145020e-01,-5.419008135795593262e-01,-6.336123347282409668e-01,-3.302534818649291992e-01,4.367923364043235779e-02,-2.178288437426090240e-02,-2.056555002927780151e-01,-2.564682066440582275e-01,1.411213725805282593e-01,5.473979189991950989e-02,1.607231646776199341e-01,1.334656774997711182e-01,1.794763058423995972e-01,-6.282134354114532471e-02,5.275952816009521484e-02,1.413936913013458252e-02,2.549803815782070160e-02,1.224665567278862000e-01,-3.628442436456680298e-02,3.177745640277862549e-01,4.689851403236389160e-01,1.750731170177459717e-01,3.018316440284252167e-02,2.000064551830291748e-01,2.979569435119628906e-01,-3.122018873691558838e-01,3.740346804261207581e-02,1.781986057758331299e-01,-2.784816026687622070e-01,-4.451094865798950195e-01,-5.026080012321472168e-01,-6.639707684516906738e-01,-6.267729215323925018e-03,-2.887487113475799561e-01,-3.656526505947113037e-01,-1.910569369792938232e-01,-9.239843115210533142e-03,-2.105876356363296509e-01,6.224354356527328491e-02,1.876898705959320068e-01,1.017166078090667725e-01,2.305924147367477417e-01,2.042864561080932617e-01,2.421812266111373901e-01,1.976438611745834351e-01,1.591256121173501015e-03,2.769613265991210938e-02,3.283177912235260010e-01,3.611638247966766357e-01,6.909845024347305298e-02,-4.105097427964210510e-02,4.620448350906372070e-01,7.991641759872436523e-01,2.306812852621078491e-01,-4.286117479205131531e-02,2.662687189877033234e-02,2.972869277000427246e-01,-1.983107924461364746e-01,-5.801662206649780273e-01,-5.134612321853637695e-01,-2.093186825513839722e-01,-3.470844924449920654e-01,-3.616140782833099365e-01,-1.604247987270355225e-01,-2.543624639511108398e-01,2.554514817893505096e-02,1.512960940599441528e-01,2.583967745304107666e-01,2.210450917482376099e-01,2.875276207923889160e-01,1.390801668167114258e-01,1.018245145678520203e-01,4.481437802314758301e-02,-2.004228234291076660e-01,-1.232948526740074158e-01,2.424215525388717651e-02,1.969130486249923706e-01,1.422933787107467651e-01,1.665770262479782104e-01,2.543628811836242676e-01,-4.420920461416244507e-02,2.084664255380630493e-01,6.413967162370681763e-02,-2.571425139904022217e-01,8.867412060499191284e-02,3.079274892807006836e-01,-4.063792228698730469e-01,-3.941404521465301514e-01,-2.086531668901443481e-01,-5.463405326008796692e-02,-1.168377697467803955e-01,-3.759624436497688293e-02,-2.974648177623748779e-01,-1.610498279333114624e-01,1.325116604566574097e-01,1.704555898904800415e-01,2.934080064296722412e-01,1.417719572782516479e-01,-1.149138584733009338e-01,-4.115545749664306641e-02,1.915632635354995728e-01,-9.392485767602920532e-02,-4.951482638716697693e-02,8.266843855381011963e-02,1.456476747989654541e-01,6.418897770345211029e-03,-8.563853055238723755e-02,2.579691708087921143e-01,-2.434726431965827942e-02,3.415923565626144409e-02,5.260814726352691650e-02,-4.186410456895828247e-02,5.906152725219726562e-01,3.366087675094604492e-01,-2.281028330326080322e-01,-2.335685640573501587e-01,-2.588791251182556152e-01,-1.546955406665802002e-01,2.835402823984622955e-02,-6.854012608528137207e-02,-1.289248317480087280e-01,-9.504663199186325073e-02,6.889677792787551880e-02,-1.821404509246349335e-02,-8.906108886003494263e-02,-2.325264364480972290e-01,-1.937884092330932617e-02,-2.991094887256622314e-01,6.232736632227897644e-02,1.231083273887634277e-02,-3.704799711704254150e-02,9.856737405061721802e-02,6.801490485668182373e-02,1.429792307317256927e-02,1.662336103618144989e-02,-8.979672193527221680e-02,-9.946217387914657593e-02,7.822119444608688354e-02,1.596638560295104980e-02,1.050121113657951355e-01,4.718570709228515625e-01,6.979426741600036621e-02,3.300182819366455078e-01,-1.355094313621520996e-01,-1.338120736181735992e-02,2.113871127367019653e-01,9.295090101659297943e-03,8.356667123734951019e-03,1.004856079816818237e-02,2.724806591868400574e-02,-9.073714166879653931e-02,-1.260383576154708862e-01,-2.891493737697601318e-01,-9.379976987838745117e-02,1.009616255760192871e-01,-2.422826737165451050e-01,-1.401212215423583984e-01,4.055417329072952271e-02,-6.753978878259658813e-02,7.551160641014575958e-03,-9.085694700479507446e-02,-4.588035866618156433e-02,-4.892457723617553711e-01,-3.235208988189697266e-01,1.041817218065261841e-01,-4.473832622170448303e-02,1.370885968208312988e-02,2.334815263748168945e-02,1.142245531082153320e-01,-1.677539795637130737e-01,-2.908235229551792145e-02,-9.459378570318222046e-02,1.549132168292999268e-02,1.955285370349884033e-01,3.605297952890396118e-02,1.414738744497299194e-01,1.361068934202194214e-01,2.462145239114761353e-01,1.684664636850357056e-01,8.684872090816497803e-02,4.956208914518356323e-02,5.030303448438644409e-02,-4.696168750524520874e-02,-1.211777627468109131e-01,-2.856756746768951416e-01,-3.170564770698547363e-01,-1.759097725152969360e-01,-1.539060622453689575e-01,-2.623075842857360840e-01,-4.103460311889648438e-01,-4.592547118663787842e-01,-2.909643352031707764e-01,2.153412252664566040e-01,-6.595742702484130859e-02,-4.568186029791831970e-02,6.544096022844314575e-02,3.138917386531829834e-01,2.037127763032913208e-01,6.117814779281616211e-02,-2.013612389564514160e-01,-5.984938144683837891e-02,1.050923690199851990e-01,-1.987491399049758911e-01,1.324127614498138428e-01,2.440947294235229492e-02,2.727699279785156250e-02,-7.874038070440292358e-02,2.156903035938739777e-02,1.934642940759658813e-01,3.701948001980781555e-02,1.358694732189178467e-01,2.816542685031890869e-01,-1.762484461069107056e-01,-4.853601753711700439e-01,-4.561308622360229492e-01,-2.122820019721984863e-01,-9.629545360803604126e-02,1.229146402329206467e-02,-3.154877126216888428e-01,1.969623267650604248e-01,2.026161104440689087e-01,-4.916146397590637207e-03,4.592628031969070435e-02,2.334170043468475342e-03,-2.760121412575244904e-02,-6.224736943840980530e-02,1.279318332672119141e-01,5.880912765860557556e-03,-6.293132156133651733e-02,-2.453445494174957275e-01,4.021580517292022705e-02,1.150801554322242737e-01,1.939141750335693359e-02,1.648056209087371826e-01,1.268956810235977173e-01,-7.940833270549774170e-02,-2.984243035316467285e-01,-2.319303750991821289e-01,2.547007501125335693e-01,7.121802866458892822e-02,-2.568647451698780060e-02,-2.622313201427459717e-01,-1.495369374752044678e-01,-3.788501024246215820e-01,-2.708389759063720703e-01,5.250467732548713684e-02,-3.297945111989974976e-02,-1.201836466789245605e-01,2.891396731138229370e-02,1.358710974454879761e-02,-2.748274058103561401e-02,-7.501817494630813599e-02,5.400914698839187622e-02,-1.096527352929115295e-01,-3.516538441181182861e-01,-4.206703007221221924e-01,-4.961976110935211182e-01,-3.686038851737976074e-01,6.988276541233062744e-02,2.227092236280441284e-01,3.490233719348907471e-01,2.186770588159561157e-01,1.753063797950744629e-01,1.567355245351791382e-01,1.410671174526214600e-01,3.510884046554565430e-01,1.372540891170501709e-01,-2.531266212463378906e-01,2.838906347751617432e-01,2.558448016643524170e-01,5.602199956774711609e-02,1.064088717103004456e-01,4.448122810572385788e-03,-6.320501863956451416e-02,-1.452582776546478271e-01,-7.229333370923995972e-02,3.989875316619873047e-03,-3.319014981389045715e-02,3.739661723375320435e-02,-6.232312321662902832e-02,3.544046729803085327e-02,-6.735087186098098755e-02,5.158007144927978516e-03,-2.306479774415493011e-02,-1.822741776704788208e-01,-1.374233961105346680e-01,-2.418126463890075684e-01,3.491241857409477234e-02,-2.603558897972106934e-01,-2.644295990467071533e-01,-3.783883452415466309e-01,-4.584656953811645508e-01,-2.216563820838928223e-01,4.821820557117462158e-01,-7.948669604957103729e-03,1.322941482067108154e-01,3.218337148427963257e-02,5.283600836992263794e-02,-6.761729717254638672e-02,-6.783024221658706665e-02,-5.746976286172866821e-02,1.466951519250869751e-02,5.519685894250869751e-02,1.918357610702514648e-02,2.621635794639587402e-03,-3.937014937400817871e-02
6.255667656660079956e-02,6.224257498979568481e-02,2.208431810140609741e-02,7.928942888975143433e-02,-4.132656380534172058e-02,-2.605948224663734436e-02,-2.547790110111236572e-02,1.170773804187774658e-02,-3.932311758399009705e-02,3.056547790765762329e-02,8.066356927156448364e-02,1.094862818717956543e-02,9.398602694272994995e-02,6.160720065236091614e-02,3.532331436872482300e-02,-7.238834351301193237e-02,-6.685936450958251953e-02,-6.744224578142166138e-02,-6.686457246541976929e-02,-7.575757801532745361e-03,-3.901525214314460754e-02,-1.046345382928848267e-02,-3.236572071909904480e-02,-7.581046968698501587e-02,6.886159628629684448e-02,-2.957866340875625610e-02,6.137556582689285278e-02,2.225716412067413330e-02,-1.190316677093505859e-02,-5.091623589396476746e-02,-7.405976951122283936e-02,6.748912483453750610e-02,-6.381262093782424927e-02,3.897420689463615417e-02,6.620300933718681335e-03,9.150700271129608154e-02,9.595568478107452393e-02,1.195460781455039978e-01,1.366569548845291138e-01,3.412133157253265381e-01,4.317553937435150146e-01,3.209157586097717285e-01,-6.410173326730728149e-02,2.331778109073638916e-01,2.331250309944152832e-01,3.652540445327758789e-01,6.039971858263015747e-02,1.432349085807800293e-01,2.079412341117858887e-01,1.617518514394760132e-01,1.013460531830787659e-01,4.953214153647422791e-02,1.401312649250030518e-03,7.560513168573379517e-02,-2.236975356936454773e-02,4.791886359453201294e-02,-7.969470322132110596e-02,-7.081517577171325684e-02,-7.279708236455917358e-02,3.288491070270538330e-01,3.619552850723266602e-01,5.011342838406562805e-02,-2.479575388133525848e-02,1.516624093055725098e-01,5.742257088422775269e-02,-1.077926307916641235e-01,-2.021602541208267212e-01,-1.037020608782768250e-01,-5.742254853248596191e-01,-5.984635353088378906e-01,-4.173513054847717285e-01,-2.540366947650909424e-01,-3.299172222614288330e-01,-2.978636026382446289e-01,-3.475625813007354736e-01,-2.433710396289825439e-01,-3.267411291599273682e-01,-2.443132847547531128e-01,-1.498385239392518997e-02,1.198811233043670654e-01,-2.065542936325073242e-01,-1.003053113818168640e-01,-1.483102887868881226e-02,-5.621917545795440674e-03,-1.159785687923431396e-02,5.836970359086990356e-02,-2.896951735019683838e-01,8.780632168054580688e-02,3.306926190853118896e-01,-7.897925376892089844e-02,-1.386899203062057495e-01,-5.939792394638061523e-01,-2.952302396297454834e-01,3.270735144615173340e-01,3.793244361877441406e-01,2.714430689811706543e-01,-1.206395849585533142e-01,-5.976006388664245605e-02,2.471593581140041351e-02,-1.259220018982887268e-02,1.929763257503509521e-01,7.056347280740737915e-02,7.024054229259490967e-02,-1.197035759687423706e-01,-2.986618876457214355e-01,-5.361616611480712891e-03,1.925347149372100830e-01,3.849987387657165527e-01,-1.583137959241867065e-01,-1.191842928528785706e-01,-5.043001472949981689e-02,-3.846921399235725403e-02,4.936277866363525391e-03,-3.878777474164962769e-02,-1.959032863378524780e-01,-1.594322472810745239e-01,1.678725779056549072e-01,-1.515997946262359619e-01,-1.573953479528427124e-01,6.317753344774246216e-02,-1.354687064886093140e-01,2.584052383899688721e-01,2.512102127075195312e-01,2.129452675580978394e-01,1.615005731582641602e-02,-3.663791120052337646e-01,-3.486154377460479736e-01,-9.922820329666137695e-02,1.202896311879158020e-01,-1.940148174762725830e-01,-2.587870061397552490e-01,-1.656978428363800049e-01,-1.379170119762420654e-01,-3.037418723106384277e-01,-1.805873066186904907e-01,-3.460961952805519104e-02,2.427150458097457886e-01,2.672405540943145752e-01,-5.370066314935684204e-02,8.793957531452178955e-02,2.286346256732940674e-02,-4.446084052324295044e-02,-2.471950948238372803e-01,-2.481970787048339844e-01,-4.503523558378219604e-02,-5.656555891036987305e-01,-1.916285008192062378e-01,1.571541428565979004e-01,2.177112102508544922e-01,5.066646933555603027e-01,4.307433366775512695e-01,5.151736140251159668e-01,1.187511533498764038e-01,9.619698673486709595e-02,2.620680928230285645e-01,1.395756006240844727e-01,-2.069373279809951782e-01,-2.793185412883758545e-01,-3.551277816295623779e-01,-1.558835953474044800e-01,-1.368396580219268799e-01,-1.183874383568763733e-01,8.509726077318191528e-02,-2.045369893312454224e-01,-6.290163844823837280e-02,2.462320029735565186e-01,2.866905629634857178e-01,-1.447718590497970581e-01,-5.666172131896018982e-02,4.596034437417984009e-02,1.560957431793212891e-01,-4.956760108470916748e-01,-6.085881963372230530e-03,-1.796281784772872925e-01,1.042537614703178406e-01,4.218380153179168701e-01,3.869026899337768555e-01,4.130129814147949219e-01,2.780992090702056885e-01,3.518902361392974854e-01,2.217152863740921021e-01,7.366951555013656616e-02,1.124551966786384583e-01,1.064576860517263412e-02,-3.948351740837097168e-02,-1.491351872682571411e-01,-1.650749742984771729e-01,-2.600828409194946289e-01,-1.455602496862411499e-01,-2.052406221628189087e-01,4.824122413992881775e-02,4.928093031048774719e-02,-1.322324424982070923e-01,-1.298743933439254761e-01,1.353862229734659195e-03,-2.685643732547760010e-01,9.684225544333457947e-03,-2.280033081769943237e-01,8.965759724378585815e-02,-2.713351249694824219e-01,-4.474715143442153931e-02,8.187778294086456299e-02,2.982374131679534912e-01,7.921791821718215942e-02,3.425966799259185791e-01,1.235291138291358948e-01,-2.675745449960231781e-02,4.807683173567056656e-03,-7.367289811372756958e-02,-2.248738892376422882e-02,-3.256916105747222900e-01,-1.620667874813079834e-01,-6.483826786279678345e-02,1.661449521780014038e-01,-4.551763460040092468e-02,-4.662255197763442993e-02,-1.054099053144454956e-01,9.496408700942993164e-02,1.712199151515960693e-01,3.802224993705749512e-01,-1.487154364585876465e-01,-3.078145682811737061e-01,-3.449006006121635437e-02,-2.241975963115692139e-01,3.229214847087860107e-01,-1.203609555959701538e-01,2.761059105396270752e-01,3.930905833840370178e-02,-1.519483923912048340e-01,-8.414237946271896362e-02,4.934545457363128662e-01,1.164630651473999023e-01,3.084986507892608643e-01,1.041358336806297302e-01,-1.855871677398681641e-01,-3.583751991391181946e-02,1.572660915553569794e-02,-2.634111046791076660e-02,-8.897585421800613403e-02,-7.365270704030990601e-02,3.543473780155181885e-02,2.274084538221359253e-01,1.307962089776992798e-01,-5.192276462912559509e-02,-1.697420375421643257e-03,2.505719959735870361e-01,1.586048901081085205e-01,-1.119737252593040466e-01,-2.122022807598114014e-01,-7.823403924703598022e-02,1.397102475166320801e-01,9.829143434762954712e-02,-3.986394777894020081e-02,-2.572546303272247314e-01,-1.837931722402572632e-01,-1.746965348720550537e-01,-4.372756779193878174e-01,-4.518483951687812805e-02,1.925286352634429932e-01,1.416491344571113586e-03,2.498886287212371826e-01,2.272493690252304077e-01,9.145135432481765747e-02,-2.085363417863845825e-01,-2.915807068347930908e-01,-7.376616448163986206e-02,-2.596522308886051178e-02,-4.884511232376098633e-02,-9.559765458106994629e-04,1.522219926118850708e-01,-1.657636016607284546e-01,-5.712135508656501770e-02,5.650673061609268188e-02,2.479586005210876465e-01,-1.828055083751678467e-01,-8.795020170509815216e-03,-8.824545890092849731e-02,-3.255501389503479004e-01,-1.429421007633209229e-01,-2.687924206256866455e-01,-9.284693514928221703e-04,-2.332391142845153809e-01,-3.555231094360351562e-01,-4.828980565071105957e-02,8.946152776479721069e-02,7.929613441228866577e-02,4.204388707876205444e-02,-6.284870952367782593e-02,2.541392743587493896e-01,3.789639174938201904e-01,1.199558228254318237e-01,-2.170462161302566528e-01,-4.811604022979736328e-01,-2.200968563556671143e-01,4.463275149464607239e-02,3.437520191073417664e-02,1.068142428994178772e-02,-1.762492954730987549e-02,-1.237635761499404907e-01,-4.503376036882400513e-02,-2.349462509155273438e-01,1.981297694146633148e-02,4.035237804055213928e-02,-1.576771400868892670e-02,-1.654592007398605347e-01,-3.734903633594512939e-01,-3.217612206935882568e-01,-2.191761285066604614e-01,-1.084102392196655273e-01,3.403867483139038086e-01,-3.006722033023834229e-01,5.654290691018104553e-02,-9.322302043437957764e-02,2.331309020519256592e-02,4.202397912740707397e-02,2.799587547779083252e-01,4.165368974208831787e-01,5.641923546791076660e-01,2.784466445446014404e-01,-1.678531318902969360e-01,-7.400131225585937500e-02,-1.416391581296920776e-01,-1.042261943221092224e-01,-8.299592882394790649e-02,1.343804178759455681e-03,1.565309464931488037e-01,2.905570529401302338e-02,-4.099321737885475159e-02,-4.143543913960456848e-02,1.822640895843505859e-01,1.905530989170074463e-01,1.792643219232559204e-01,1.890464574098587036e-01,-2.716722488403320312e-01,1.543130259960889816e-02,-3.162757754325866699e-01,2.782206237316131592e-02,-1.211989820003509521e-01,-3.324264883995056152e-01,2.355856597423553467e-01,2.536286115646362305e-01,1.754745692014694214e-01,2.083714604377746582e-01,1.437537819147109985e-01,3.208653330802917480e-01,3.564431369304656982e-01,1.922380477190017700e-01,-7.732964307069778442e-02,-2.297872304916381836e-01,-2.305381745100021362e-01,-1.980818510055541992e-01,-1.529260277748107910e-01,-1.104625985026359558e-01,3.904194338247179985e-03,-8.921718690544366837e-04,-2.293185330927371979e-02,-3.621773049235343933e-02,1.649685055017471313e-01,1.531286835670471191e-01,4.094604849815368652e-01,3.668658435344696045e-01,-6.825510263442993164e-01,-4.889813661575317383e-01,-5.724755525588989258e-01,1.541525125503540039e-05,-8.737782388925552368e-02,-3.405300676822662354e-01,1.790103018283843994e-01,4.719173908233642578e-01,2.284441888332366943e-01,3.407611325383186340e-02,1.101315021514892578e-01,1.052258387207984924e-01,3.946098685264587402e-01,3.284760713577270508e-01,-6.935130059719085693e-02,-1.916582733392715454e-01,-2.080209851264953613e-01,-1.515088081359863281e-01,-2.387249283492565155e-02,-3.342812061309814453e-01,-3.092391490936279297e-01,-5.823411792516708374e-02,-1.906236074864864349e-02,-3.396197780966758728e-02,7.366342097520828247e-02,3.767873346805572510e-01,2.035393118858337402e-01,-2.686145901679992676e-01,-5.319909453392028809e-01,-4.342456758022308350e-01,-3.852066993713378906e-01,4.149801284074783325e-02,-1.056601181626319885e-01,-6.443510651588439941e-01,-1.869766265153884888e-01,9.111656248569488525e-02,3.310705721378326416e-01,9.870719164609909058e-02,6.761029362678527832e-03,1.003685966134071350e-01,3.492834270000457764e-01,3.563342094421386719e-01,2.422739267349243164e-01,-6.817122548818588257e-02,-3.647309914231300354e-02,-1.697400659322738647e-01,-1.816918998956680298e-01,-2.520305812358856201e-01,-1.913717687129974365e-01,1.276714205741882324e-01,-5.787639692425727844e-02,-2.290420532226562500e-01,1.077265515923500061e-01,2.660841345787048340e-01,-7.294136285781860352e-02,3.628848493099212646e-02,1.060277372598648071e-01,-5.988975167274475098e-01,-1.133886352181434631e-01,-1.030867695808410645e-01,-3.665006905794143677e-02,-3.473904430866241455e-01,-1.373079717159271240e-01,1.708273440599441528e-01,1.542173922061920166e-01,1.977573484182357788e-01,1.437698602676391602e-01,-1.209032256156206131e-03,2.623880505561828613e-01,2.654902040958404541e-01,2.786580622196197510e-01,7.655498106032609940e-03,7.072581350803375244e-02,-2.511374885216355324e-03,-1.759579032659530640e-01,-1.146141365170478821e-01,-1.660422086715698242e-01,-3.515482239890843630e-04,-5.301063880324363708e-02,7.687319815158843994e-02,-1.267968863248825073e-01,-1.088423430919647217e-01,3.118636906147003174e-01,1.458235234022140503e-01,1.985057890415191650e-01,-2.444376945495605469e-01,-4.124650657176971436e-01,-1.025510281324386597e-01,-7.180044054985046387e-02,-2.080290019512176514e-01,-1.096838936209678650e-01,-1.774732917547225952e-01,-1.658677496016025543e-02,1.545905321836471558e-01,-9.855659306049346924e-02,3.042307682335376740e-02,-8.683382533490657806e-03,2.425199002027511597e-01,3.010063767433166504e-01,3.354967534542083740e-01,1.361074596643447876e-01,2.909886464476585388e-02,7.946246117353439331e-02,-3.045309148728847504e-02,-1.469250917434692383e-01,-1.088560908101499081e-03,-9.958070516586303711e-02,1.073751002550125122e-01,-2.485790103673934937e-01,5.168216302990913391e-02,2.379114627838134766e-01,-1.869050711393356323e-01,2.266978174448013306e-01,-5.144113302230834961e-01,-8.147611469030380249e-02,-7.488984614610671997e-02,-6.347974389791488647e-02,1.397554427385330200e-01,-1.893227398395538330e-01,-1.865766346454620361e-01,-8.745375275611877441e-02,-8.087830245494842529e-02,-6.844031810760498047e-02,-2.342111058533191681e-02,-9.189976751804351807e-02,1.985378712415695190e-01,3.758926093578338623e-01,3.310175240039825439e-01,-2.585320360958576202e-02,-1.008577123284339905e-01,-5.123525485396385193e-02,-1.144470274448394775e-01,-9.240838885307312012e-02,-1.637221500277519226e-02,-1.756738498806953430e-02,5.538802593946456909e-02,-2.585969567298889160e-01,1.642074137926101685e-01,4.023652672767639160e-01,5.061344802379608154e-02,-6.804081797599792480e-02,-2.565329372882843018e-01,4.076598882675170898e-01,-1.292728557018563151e-04,5.126572772860527039e-02,-1.493916958570480347e-01,5.867338553071022034e-02,-7.839747518301010132e-02,-1.600978374481201172e-01,-1.386453211307525635e-01,-2.510286867618560791e-01,1.444378308951854706e-02,-5.527079477906227112e-02,3.067356050014495850e-01,4.377734363079071045e-01,4.831750690937042236e-01,-4.451924189925193787e-02,-2.218394577503204346e-01,1.157905980944633484e-01,-1.432511955499649048e-01,-7.424230128526687622e-02,-7.019060105085372925e-02,2.321286350488662720e-01,-6.506025046110153198e-02,-7.077673077583312988e-02,7.443376630544662476e-02,1.525984518229961395e-02,8.906193077564239502e-03,6.027885526418685913e-02,8.297333866357803345e-02,-9.136062860488891602e-02,-3.313900902867317200e-02,2.436075210571289062e-01,-2.056174427270889282e-01,1.868365705013275146e-01,-3.212381303310394287e-01,-2.128660827875137329e-01,-4.178336560726165771e-01,-2.698195874691009521e-01,-8.858022838830947876e-02,-2.609762549400329590e-01,2.666850686073303223e-01,2.294838279485702515e-01,5.039108395576477051e-01,-2.765386402606964111e-01,-3.702234923839569092e-01,3.344281762838363647e-02,-7.249651104211807251e-02,-1.301911007612943649e-02,8.285259455442428589e-02,3.052242100238800049e-01,2.480406910181045532e-01,1.231439486145973206e-01,-3.073446080088615417e-02,-8.201861381530761719e-02,4.524585604667663574e-02,-1.189136877655982971e-01,7.627034932374954224e-02,1.450459659099578857e-02,-4.313616454601287842e-02,4.349134862422943115e-01,3.332609832286834717e-01,4.050391539931297302e-02,-1.770705431699752808e-01,-1.913205236196517944e-01,-4.752676784992218018e-01,-3.098857700824737549e-01,-6.200232356786727905e-02,-4.020557105541229248e-01,1.605685204267501831e-01,2.441550344228744507e-01,2.626416385173797607e-01,-3.054111003875732422e-01,-1.489535868167877197e-01,1.882019639015197754e-01,1.301908791065216064e-01,-1.959799230098724365e-02,8.418401330709457397e-02,3.767446428537368774e-02,1.137608662247657776e-01,-9.778382629156112671e-02,-1.521418802440166473e-02,-1.931935101747512817e-01,-1.558165997266769409e-01,2.531449124217033386e-02,1.718208193778991699e-01,-1.215528771281242371e-01,-8.905137330293655396e-02,-7.333731651306152344e-02,-2.581734769046306610e-02,3.094199672341346741e-02,-4.531790316104888916e-02,-1.217035874724388123e-01,-3.357252776622772217e-01,-7.257180660963058472e-02,-1.502900570631027222e-01,-2.974123656749725342e-01,-7.828220725059509277e-02,1.891287863254547119e-01,-9.419528394937515259e-02,-1.839865446090698242e-01,1.419442594051361084e-01,3.115089833736419678e-01,5.007201060652732849e-02,1.241646707057952881e-01,-1.789470314979553223e-01,-9.819570928812026978e-02,-1.294635832309722900e-01,-4.242390766739845276e-02,9.161875396966934204e-02,-1.120686680078506470e-01,1.283966898918151855e-01,2.178845554590225220e-01,4.883390069007873535e-01,3.421597555279731750e-02,5.361375585198402405e-02,3.512283414602279663e-02,-1.251022964715957642e-01,-1.694515794515609741e-01,5.274512991309165955e-02,-4.365366324782371521e-02,-1.778944730758666992e-01,-8.787294477224349976e-02,-5.002083256840705872e-02,-4.647169709205627441e-01,-3.829157054424285889e-01,-1.491349041461944580e-01,6.619650870561599731e-02,-3.412905335426330566e-02,3.719601631164550781e-01,3.999629914760589600e-01,1.505365818738937378e-01,1.696351766586303711e-01,-4.943590611219406128e-02,-1.359511353075504303e-02,-1.131874099373817444e-01,1.699237823486328125e-01,4.931107461452484131e-01,1.469515711069107056e-01,9.316371381282806396e-02,2.058759629726409912e-01,3.456356227397918701e-01,-3.009980544447898865e-02,-4.121235385537147522e-02,3.447647392749786377e-02,8.127110777422785759e-04,3.010275028645992279e-02,2.395717799663543701e-01,2.764132060110569000e-02,-2.528796494007110596e-01,-3.719609379768371582e-01,1.320358961820602417e-01,-1.616386026144027710e-01,-3.592595756053924561e-01,-5.250823497772216797e-01,6.962255388498306274e-02,3.023329377174377441e-01,2.932377159595489502e-01,1.461578011512756348e-01,5.777727067470550537e-02,1.507775932550430298e-01,2.214643061161041260e-01,4.159836471080780029e-02,1.267978549003601074e-01,1.971528977155685425e-01,6.387389898300170898e-01,6.041525676846504211e-02,-6.474196165800094604e-02,3.572214841842651367e-01,1.453959643840789795e-01,5.993155390024185181e-02,-3.435156866908073425e-02,3.588184714317321777e-02,-2.176301330327987671e-01,1.525254100561141968e-01,3.028222918510437012e-01,1.002601906657218933e-01,-4.718637764453887939e-01,-1.324544250965118408e-01,1.221494004130363464e-02,1.190417259931564331e-01,-6.507211923599243164e-02,-1.356104165315628052e-01,1.877068281173706055e-01,4.343733489513397217e-01,4.157882928848266602e-01,1.943062245845794678e-01,8.122364431619644165e-02,-2.220805436372756958e-01,9.161943942308425903e-02,1.990720778703689575e-01,3.634955585002899170e-01,-5.984600633382797241e-02,2.867662310600280762e-01,1.221555098891258240e-01,-4.214538335800170898e-01,-4.378918111324310303e-01,-1.284487247467041016e-01,2.682437002658843994e-02,4.084494709968566895e-02,3.207452595233917236e-02,8.154734224081039429e-02,-3.510899841785430908e-02,-7.450608909130096436e-02,7.189643103629350662e-03,2.128285169601440430e-01,1.876441687345504761e-01,1.308947801589965820e-01,3.658415079116821289e-01,-4.732250422239303589e-02,-3.010344803333282471e-01,-5.850412845611572266e-01,-2.319588512182235718e-01,-3.627485930919647217e-01,-2.001015283167362213e-02,-5.189627781510353088e-02,9.925570338964462280e-02,8.283603936433792114e-02,3.099224567413330078e-01,1.055437251925468445e-01,6.360710412263870239e-02,7.349365949630737305e-02,7.549885660409927368e-02,-1.218154430389404297e-01,-1.359077543020248413e-01,-1.128903999924659729e-01,-7.068521529436111450e-02,3.595761954784393311e-03,1.911298930644989014e-02,-2.354515343904495239e-02,-6.164286285638809204e-03,2.091050595045089722e-01,1.808557957410812378e-01,1.111256480216979980e-01,2.567576467990875244e-01,4.272416532039642334e-01,3.064780309796333313e-02,-1.124571785330772400e-01,-2.094065397977828979e-02,1.135800033807754517e-01,-6.117264181375503540e-02,1.086503341794013977e-01,-1.212683990597724915e-01,-1.098473221063613892e-01,1.388252079486846924e-01,7.120200246572494507e-02,-6.417824327945709229e-02,8.274623006582260132e-02,-1.217329055070877075e-01,-3.004506826400756836e-01,4.219026491045951843e-02,2.049941122531890869e-01,-1.489097625017166138e-02,-3.877199441194534302e-02,7.871937006711959839e-02,-7.782454788684844971e-02,-1.253318786621093750e-02,-3.303354978561401367e-02,-4.296372830867767334e-02,-7.719810307025909424e-02,-1.533187329769134521e-01,1.108122523874044418e-02,2.203070819377899170e-01,2.193870991468429565e-01,-3.216407820582389832e-02,-3.559109568595886230e-01,-3.742033615708351135e-02,5.210702121257781982e-02,-1.993690803647041321e-02,-7.921475172042846680e-02,8.647121489048004150e-02,-1.628267019987106323e-01,-2.791763842105865479e-01,2.975400909781455994e-02,9.357021749019622803e-02,-1.291849762201309204e-01,-3.322097659111022949e-01,-2.189187109470367432e-01,-1.891967803239822388e-01,4.332032799720764160e-02,-7.364931702613830566e-02,-4.083231836557388306e-02,-2.844315767288208008e-02
