-1.490000016701742425e-07,-1.490000016701742425e-07,1.490000016701742425e-07,0.000000000000000000e+00,-1.490000016701742425e-07,-1.490000016701742425e-07,0.000000000000000000e+00,-3.490000040073937271e-07,-1.490000016701742425e-07,-1.490000016701742425e-07,0.000000000000000000e+00,-1.490000016701742425e-07,-3.490000040073937271e-07,-3.490000040073937271e-07,-1.490000016701742425e-07,-1.490000016701742425e-07,1.490000016701742425e-07,-1.490000016701742425e-07,1.490000016701742425e-07,0.000000000000000000e+00,-1.490000016701742425e-07,3.490000040073937271e-07,-3.490000040073937271e-07,1.490000016701742425e-07,1.490000016701742425e-07,1.490000016701742425e-07,-1.490000016701742425e-07,-1.490000016701742425e-07,-1.490000016701742425e-07,3.490000040073937271e-07,3.490000040073937271e-07,0.000000000000000000e+00,1.490000016701742425e-07,1.490000016701742425e-07,-5.890000238650827669e-07,-5.890000238650827669e-07,-8.989999855657515582e-07,-5.890000238650827669e-07,-2.778999942165683024e-06,2.138999889211845584e-06,2.138999889211845584e-06,1.638999947317643091e-06,-4.369000180304283276e-06,2.138999889211845584e-06,1.638999947317643091e-06,2.138999889211845584e-06,-3.488999936962500215e-06,-2.778999942165683024e-06,-2.138999889211845584e-06,-8.989999855657515582e-07,-5.890000238650827669e-07,-1.490000016701742425e-07,-1.490000016701742425e-07,1.490000016701742425e-07,-1.490000016701742425e-07,0.000000000000000000e+00,1.490000016701742425e-07,1.490000016701742425e-07,-1.490000016701742425e-07,2.138999889211845584e-06,1.638999947317643091e-06,-1.228999963132082485e-06,-2.138999889211845584e-06,-5.890000238650827669e-07,-2.778999942165683024e-06,-4.369000180304283276e-06,-8.549000085622537881e-06,-2.138999889211845584e-06,-2.778999942165683024e-06,-4.369000180304283276e-06,-6.848999873909633607e-06,-8.549000085622537881e-06,-3.488999936962500215e-06,-8.549000085622537881e-06,-8.549000085622537881e-06,-4.369000180304283276e-06,-6.848999873909633607e-06,-6.848999873909633607e-06,-5.468999916047323495e-06,-3.488999936962500215e-06,-2.778999942165683024e-06,-3.490000040073937271e-07,1.490000016701742425e-07,0.000000000000000000e+00,3.490000040073937271e-07,1.490000016701742425e-07,-3.490000040073937271e-07,1.638999947317643091e-06,-1.228999963132082485e-06,-1.228999963132082485e-06,-2.778999942165683024e-06,-3.488999936962500215e-06,-5.890000238650827669e-07,-1.229100007549277507e-06,-5.923000117036281154e-07,-3.540000079738092609e-07,-9.039499673235695809e-07,3.457000161688483786e-07,5.823000037707970478e-07,-3.538499981914355885e-07,3.449000018918013666e-07,-3.000000026176508072e-09,-1.641999915591441095e-06,-1.641049948375439271e-06,-8.989999855657515582e-07,-2.778999942165683024e-06,-2.138999889211845584e-06,-8.989999855657515582e-07,-8.989999855657515582e-07,8.989999855657515582e-07,-1.638999947317643091e-06,1.490000016701742425e-07,1.490000016701742425e-07,1.490000016701742425e-07,-1.228999963132082485e-06,-1.228999963132082485e-06,-2.778999942165683024e-06,-4.369000180304283276e-06,-3.488999936962500215e-06,-9.006499794850242324e-07,1.440500057015015045e-07,5.845500368195644114e-07,-3.585000172279251274e-07,1.220949911839852575e-06,-1.236800017068162560e-06,5.721500428990111686e-07,-6.140999175840988755e-07,5.609000481854309328e-07,-6.171000563881534617e-07,3.278499889347585849e-07,3.332500000396976247e-07,-1.445000030741994124e-08,-5.099999977886682245e-09,-8.995999678518273868e-07,3.490000040073937271e-07,-1.490000016701742425e-07,-1.228999963132082485e-06,-1.228999963132082485e-06,-2.778999942165683024e-06,-1.638999947317643091e-06,1.490000016701742425e-07,1.490000016701742425e-07,-2.778999942165683024e-06,-2.138999889211845584e-06,-2.778999942165683024e-06,-4.369300313555868343e-06,-3.579500003070279490e-07,-1.629000081493359176e-07,1.335499888455160544e-07,1.310000072862749221e-07,8.675499998389568646e-07,3.131000028133712476e-07,-9.412999588676029816e-07,5.429001248558051884e-07,8.492501137880026363e-07,9.725000182925214176e-08,1.063999945927207591e-07,5.502001840795855969e-07,5.549001684812537860e-07,3.286500032118055969e-07,-9.095999757846584544e-07,-3.539500141869211802e-07,-1.500499990925163729e-07,-1.638999947317643091e-06,-2.138999889211845584e-06,-5.468999916047323495e-06,-5.468999916047323495e-06,-2.138999889211845584e-06,-1.490000016701742425e-07,-8.989999855657515582e-07,-2.138999889211845584e-06,-5.468999916047323495e-06,-3.488999936962500215e-06,-3.501000094274786534e-07,3.301499873487045988e-07,5.674500016539241187e-07,-6.109999617365247104e-07,-2.171549340346246026e-06,-4.039000600641884375e-07,-4.121000642953731585e-07,-6.542999813063943293e-07,1.164449827228963841e-06,5.251501420389104169e-07,-4.141000147228623973e-07,5.298000473885622341e-07,5.338001187737972941e-07,8.512000135851849336e-07,-3.265000003693785402e-08,3.306499536392948357e-07,1.218549982695549261e-06,1.220150011249643285e-06,-5.902000452806532849e-07,-4.369000180304283276e-06,-8.549000085622537881e-06,-6.848999873909633607e-06,-3.488999936962500215e-06,3.490000040073937271e-07,-3.488999936962500215e-06,-2.778999942165683024e-06,-2.778999942165683024e-06,-4.369000180304283276e-06,-1.515499974402700900e-07,5.757999588240636513e-07,-1.708000070266280090e-07,-1.662399995439045597e-06,3.133500285912305117e-07,8.645000804108349257e-08,2.717499967275216477e-07,-4.291000550438184291e-07,5.040001269662752748e-07,2.683999014152504969e-07,-6.494999382766764029e-08,-5.559999394222359115e-08,1.164649916063353885e-06,1.160749661721638404e-06,5.375000000640284270e-07,-1.817499679646061850e-07,-1.658499968471005559e-07,-6.036500508344033733e-07,8.909000257517618593e-07,-5.955999995421734639e-07,-5.472099928738316521e-06,-6.848999873909633607e-06,-2.778999942165683024e-06,2.138999889211845584e-06,-2.778999942165683024e-06,1.228999963132082485e-06,2.138999889211845584e-06,-4.369000180304283276e-06,-5.937999958405271173e-07,-1.592499927483004285e-07,-3.705499693751335144e-07,-1.857499825064223842e-07,1.167899881693301722e-06,-4.181500514732761076e-07,-4.260000707745348336e-07,5.026000735597335733e-07,-9.795000721624091966e-08,7.983501859598618466e-07,8.207499604395707138e-07,1.566349965287372470e-06,1.147299713011307176e-06,5.036500283495115582e-07,-4.229000580835418077e-07,5.340501161299471278e-07,5.530000635189935565e-07,5.671000167239981238e-07,1.628099880690569989e-06,3.409500095585826784e-07,-8.553950465284287930e-06,-8.549000085622537881e-06,-4.369000180304283276e-06,-5.890000238650827669e-07,-2.138999889211845584e-06,2.138999889211845584e-06,1.228999963132082485e-06,-3.497000022889551474e-07,-3.527499927713506622e-07,-1.235749891748127993e-06,-9.214999749929120298e-07,-3.973499929088575300e-07,-2.187499887895683059e-07,8.255000807366741356e-07,-4.241000226556934649e-07,-2.377499868089216761e-07,7.973499691615870688e-07,-9.895000374626761186e-08,-9.825999995882739313e-07,5.014500175093417056e-07,1.131099566009652335e-06,8.023001214496616740e-07,1.144849534284730908e-06,5.211000484450778458e-07,-6.266999434956233017e-07,-1.245300040864094626e-06,5.823000606142159086e-07,1.225800019710732158e-06,-5.471699751069536433e-06,-8.549000085622537881e-06,-4.369000180304283276e-06,-5.890000238650827669e-07,-1.228999963132082485e-06,2.138999889211845584e-06,1.638999947317643091e-06,-3.533500034791359212e-07,1.224550032929982990e-06,-5.976000352347909939e-07,-6.102000611463154200e-07,-6.274000838857318740e-07,9.785000543161004316e-08,-6.635501677010324784e-07,2.636999738570011687e-07,-2.395999842974561034e-07,4.915000886285270099e-07,6.834999766169858049e-08,-9.823501159189618193e-07,2.677499537639960181e-07,1.131999738390732091e-06,8.097500199255591724e-07,-6.224999538062547799e-08,2.945999710846081143e-07,3.212500132576678880e-07,5.845500368195644114e-07,1.225949972649686970e-06,8.989999855657515582e-07,-4.369000180304283276e-06,-6.848999873909633607e-06,-2.138999889211845584e-06,-3.490000040073937271e-07,2.138999889211845584e-06,-3.488999936962500215e-06,-3.490000040073937271e-07,-2.783949867080082186e-06,-1.648549869059934281e-06,3.315500407552463003e-07,1.189500338227844622e-07,-3.605000031825511542e-08,-1.279250113839225378e-06,-6.700999506392690819e-07,-9.035001369284145767e-08,-1.319000375588075258e-06,-2.536500005589914508e-07,-1.734450279400334693e-06,-2.873599441954866052e-06,-2.213498873970820569e-06,6.700000199089117814e-08,-1.296150230700732209e-06,9.579999726838650531e-08,8.540999374417879153e-07,1.611749667063122615e-06,1.223599838340305723e-06,5.876000841453787871e-07,5.890000238650827669e-07,-3.488999936962500215e-06,-6.848999873909633607e-06,-1.228999963132082485e-06,-3.490000040073937271e-07,8.989999855657515582e-07,-1.638999947317643091e-06,-1.229049985340679996e-06,-2.146899987565120682e-06,-6.096000220168207306e-07,8.718499771021015476e-07,-3.889999788952991366e-08,-6.335999955808802042e-07,-4.024500128707586555e-07,-4.276500078503886471e-07,-4.368500299278821331e-07,2.604000144401652506e-07,-9.480000784378717071e-08,-2.225549678769311868e-06,-3.584249270716100000e-06,-2.881949285438167863e-06,-6.780998660360637587e-07,-4.150500672039925121e-07,2.950499435883102706e-07,1.088000161075797223e-07,3.275500262134301011e-07,8.885499482857994735e-07,9.020000106829684228e-07,2.778999942165683024e-06,-5.890000238650827669e-07,-5.468999916047323495e-06,-2.778999942165683024e-06,-1.490000016701742425e-07,1.228999963132082485e-06,1.228999963132082485e-06,-5.907000399929529522e-07,8.920500249587348662e-07,-6.072999099160369951e-07,8.741499755160475615e-07,8.573999821237521246e-07,1.001999976324441377e-07,-5.704999495037554880e-08,2.817500330820621457e-07,-2.193000057104654843e-07,-2.146500008848306607e-07,-2.849199972843052819e-06,-2.861499524442479014e-06,-3.586398634070064873e-06,-2.243398739665281028e-06,-9.923999186867149547e-07,-2.194999950688725221e-07,-6.415999678210937418e-07,-1.269800009140453767e-06,-6.113000381446909159e-07,3.332500000396976247e-07,1.227350026056228671e-06,1.639799961594690103e-06,1.228999963132082485e-06,-3.488999936962500215e-06,-2.778999942165683024e-06,-1.638999947317643091e-06,-1.638999947317643091e-06,-2.138999889211845584e-06,-3.492250016279285774e-06,-9.061999435289180838e-07,8.885999704943969846e-07,3.400500077077595051e-07,1.618149894966336433e-06,8.597999681114742998e-07,8.507000188728852663e-07,-4.029000422178796725e-07,5.316500164553872310e-07,8.338000725416350178e-07,-6.722998477926012129e-07,-3.574649099391535856e-06,-3.586898856156039983e-06,-3.589348807508940808e-06,-6.808498937971307896e-07,-4.148000982695521088e-07,-4.083000817445281427e-07,-1.851000064334584749e-07,5.692999707207491156e-07,-1.619999956403717079e-08,8.944500109464570414e-07,2.139549906132742763e-06,3.490000040073937271e-07,-5.468999916047323495e-06,-2.778999942165683024e-06,-1.228999963132082485e-06,0.000000000000000000e+00,-4.369000180304283276e-06,-3.490700009933789261e-06,1.225250002789834980e-06,1.226449967361986637e-06,-1.229350004905427340e-06,1.625999857424176298e-06,8.706500125299498904e-07,8.550999837098061107e-07,8.554000601179723162e-07,-3.955000238420325331e-07,9.064999773045201437e-08,-2.224649506388232112e-06,-4.467399776331149042e-06,-2.241548827441874892e-06,-2.237949047412257642e-06,-1.308849959968938492e-06,-6.469999789260327816e-07,-9.533497973279736470e-07,8.685999546287348494e-07,-1.794999882065440033e-08,-1.240000013780218069e-08,1.228849896506289952e-06,1.640150003368034959e-06,1.490000016701742425e-07,-4.369800080894492567e-06,-3.488999936962500215e-06,-8.989999855657515582e-07,-5.890000238650827669e-07,-4.369000180304283276e-06,-2.142749963240930811e-06,5.847500119671167340e-07,1.229100121236115228e-06,3.502499907881428953e-07,8.907999813345668372e-07,1.198050085804425180e-06,8.508499718118400779e-07,5.480001163959968835e-07,8.584000283917703200e-07,-1.292400270358484704e-06,-4.454348982108058408e-06,-2.876599410228664055e-06,-1.319150442213867791e-06,-1.316700149800453801e-06,-2.229499784789368277e-07,-5.924999868511804380e-08,9.285002278147658217e-08,5.518501211554394104e-07,3.272499782269733259e-07,-1.429999940683046589e-08,-4.049999891009292696e-09,-1.508000053718205891e-07,-2.778999942165683024e-06,-5.468999916047323495e-06,5.890000238650827669e-07,3.490000040073937271e-07,-1.638999947317643091e-06,-3.488999936962500215e-06,-9.025499707604467403e-07,3.424000283303030301e-07,8.911000577427330427e-07,5.829000429002917372e-07,1.341999933401893941e-07,-1.815499928170538624e-07,1.190849843624164350e-06,1.197549750031612348e-06,2.984500042657600716e-07,-2.182999878641567193e-07,-3.574348966139950790e-06,-2.861949042198830284e-06,-1.313350139753310941e-06,-9.657001101004425436e-07,5.195499852561624721e-07,-6.423999252547218930e-07,-5.484999476834673260e-08,8.543000831195968203e-07,-3.732000379841338145e-07,3.350999975282320520e-07,-5.911500124966551084e-07,-3.512499802127422299e-07,-8.989999855657515582e-07,-5.468999916047323495e-06,1.638999947317643091e-06,-1.638999947317643091e-06,-5.890000238650827669e-07,-4.369000180304283276e-06,-3.489250048005487770e-06,-3.541499893344735028e-07,-9.141999157691316213e-07,-1.535000038188627514e-08,-3.660999823296151590e-07,1.211349967888963874e-06,1.207899799737788271e-06,1.605500187906727660e-06,-5.724999851963730180e-08,-9.802500926525681280e-07,-3.576999233700917102e-06,-1.726650111777416896e-06,-9.739998176883091219e-07,-4.090500169695587829e-07,-4.074499884154647589e-07,-2.015499802610065672e-07,-2.066999797989410581e-07,-9.448000923839572351e-07,-6.153500180516857654e-07,8.850499852997018024e-07,-6.599999657908028894e-09,-9.032499974637175910e-07,-1.228999963132082485e-06,-2.778999942165683024e-06,-2.778999942165683024e-06,1.490000016701742425e-07,2.138999889211845584e-06,-1.638999947317643091e-06,-2.138999889211845584e-06,-5.940000278314983007e-07,-3.603500431381689850e-07,3.292499854978814255e-07,8.799499369160912465e-07,5.616000748887017835e-07,-3.399999570774525637e-08,5.368500524127739482e-07,8.253000487457029521e-07,8.130999162858643103e-07,-6.742999971720564645e-07,-1.306550075241830200e-06,-1.311650180468859617e-06,-9.677000889496412128e-07,-5.569999572685446765e-08,-6.059999435592544614e-08,-9.624499170968192630e-07,9.409997403508896241e-08,1.235000155475063366e-07,8.896499252841749694e-07,-3.568499948869430227e-07,3.486499906557583017e-07,-4.369000180304283276e-06,-3.488999936962500215e-06,-1.638999947317643091e-06,-3.490000040073937271e-07,2.138999889211845584e-06,-1.638999947317643091e-06,-1.228999963132082485e-06,8.956000101534300484e-07,5.836500349687412381e-07,-1.619999920876580290e-07,-3.681000180222326890e-07,3.236999646105687134e-07,-4.729999503183535126e-08,1.161749764833075460e-06,1.149949639511760324e-06,2.063150532194413245e-06,8.081000260062864982e-07,-2.460999724007706391e-07,5.969997829424755764e-08,-6.670499033134547062e-07,-4.052000122101162560e-07,-4.131999560286203632e-07,-4.088500418220064603e-07,-6.327000505734758917e-07,-1.569999952266698529e-08,3.450000178872869583e-07,-1.643949985918879975e-06,-1.228999963132082485e-06,-5.468999916047323495e-06,-1.228999963132082485e-06,1.490000016701742425e-07,-3.490000040073937271e-07,-1.228999963132082485e-06,-1.638999947317643091e-06,-1.490000016701742425e-07,-8.999999749903508928e-07,1.444000048422822147e-07,-1.125000004265075404e-08,-1.639999958058524498e-08,-3.741000114132475574e-07,-1.961499975777769578e-07,8.254000931628979743e-07,1.142499627349025104e-06,8.158000355251715519e-07,5.099999000890420575e-08,-6.786498261135420762e-07,-8.779999660646353732e-08,-7.394999812504465808e-08,-1.296700133934791666e-06,-9.571498367222375236e-07,-1.689799887572007719e-06,-9.256500561605207622e-07,-3.550000258201180259e-07,-5.916000418437761255e-07,-1.232700014952570200e-06,-2.778999942165683024e-06,-4.369000180304283276e-06,1.638999947317643091e-06,1.228999963132082485e-06,-3.490000040073937271e-07,0.000000000000000000e+00,-2.778999942165683024e-06,-2.778999942165683024e-06,-2.778999942165683024e-06,-6.499999982700899182e-10,3.374499897290661465e-07,-9.165999017568537965e-07,3.227999911814549705e-07,3.090000006977788871e-07,2.856499747849738924e-07,5.118999979458749294e-07,5.003000183023686986e-07,1.549999751659925096e-06,5.064001129539974499e-07,2.866999579964613076e-07,-5.374999645368916390e-08,9.420001134685662691e-08,-9.486998919783218298e-07,-1.833500249404096394e-07,-6.052500225450785365e-07,-5.940499931966769509e-07,1.226749986926733982e-06,-4.999999858590342683e-10,-2.138999889211845584e-06,-2.138999889211845584e-06,2.138999889211845584e-06,8.989999855657515582e-07,0.000000000000000000e+00,-1.490000016701742425e-07,-2.138999889211845584e-06,-4.369000180304283276e-06,-4.369000180304283276e-06,-8.996499900604248978e-07,-3.551500071807822678e-07,1.342500155487869051e-07,3.243999913138395641e-07,8.597500595897145104e-07,1.179000264528440312e-06,1.593049773873644881e-06,8.482999760417442303e-07,8.446500032732728869e-07,5.441000894279568456e-07,3.105500070432754001e-07,-3.495000200359754672e-08,5.583000870501564350e-07,-1.662650220168870874e-06,-1.660850102780386806e-06,-2.154449930458213203e-06,-5.976500574433885049e-07,0.000000000000000000e+00,-2.138999889211845584e-06,-3.488999936962500215e-06,-2.138999889211845584e-06,-2.138999889211845584e-06,0.000000000000000000e+00,-1.490000016701742425e-07,3.490000040073937271e-07,-1.638999947317643091e-06,-2.778999942165683024e-06,-5.890000238650827669e-07,-5.890000238650827669e-07,-2.139099933629040606e-06,-1.651249931455822662e-06,-1.665499951286619762e-07,5.740000119658361655e-07,3.255000251556339208e-07,-6.139500783319817856e-07,8.696999884705292061e-07,8.716500019545492250e-07,1.215499878526316024e-07,3.313499803425656864e-07,-3.587999799492536113e-07,1.397000062297593104e-07,-1.244550048795645125e-06,-3.508999498080811463e-06,-4.380950031190877780e-06,-4.372600415081251413e-06,-4.369000180304283276e-06,-5.468999916047323495e-06,-3.488999936962500215e-06,-8.989999855657515582e-07,1.490000016701742425e-07,0.000000000000000000e+00,1.490000016701742425e-07,0.000000000000000000e+00,-8.989999855657515582e-07,-1.638999947317643091e-06,-2.778999942165683024e-06,-6.849049896118231118e-06,-5.473200417327461764e-06,-3.502300160107552074e-06,-3.500599859762587585e-06,-3.498199930618284270e-06,-5.472349585033953190e-06,-2.787850235108635388e-06,-5.479699666466331109e-06,-4.382699898997088894e-06,-5.479349965753499418e-06,-5.469049938255921006e-06,-5.468999916047323495e-06,-5.469849838846130297e-06,-6.861849669803632423e-06,-8.559451089240610600e-06,-5.469699772220337763e-06,-6.848999873909633607e-06,-4.369000180304283276e-06,-4.369000180304283276e-06,-4.369000180304283276e-06,1.490000016701742425e-07,-1.490000016701742425e-07,1.490000016701742425e-07,-3.490000040073937271e-07,1.490000016701742425e-07,3.490000040073937271e-07,1.490000016701742425e-07,-5.890000238650827669e-07,-3.491400093480478972e-06,-3.497999841783894226e-06,-4.378950052341679111e-06,-6.853649665572447702e-06,-6.849249984952621162e-06,-6.848999873909633607e-06,-8.549000085622537881e-06,-8.549100130039732903e-06,-5.469099960464518517e-06,-4.369000180304283276e-06,-5.468999916047323495e-06,-6.848999873909633607e-06,-5.469849838846130297e-06,-5.476899787026923150e-06,-6.854799721622839570e-06,-2.778999942165683024e-06,-4.369000180304283276e-06,-2.138999889211845584e-06,-2.138999889211845584e-06,-1.490000016701742425e-07,1.490000016701742425e-07,-1.490000016701742425e-07,0.000000000000000000e+00,-1.490000016701742425e-07,-1.490000016701742425e-07,-3.490000040073937271e-07,0.000000000000000000e+00,-3.490000040073937271e-07,-3.450000063409675022e-09,-9.029499778989702463e-07,-1.229350004905427340e-06,-2.138999889211845584e-06,-1.638999947317643091e-06,-2.778999942165683024e-06,-2.778999942165683024e-06,-3.488999936962500215e-06,-2.778999942165683024e-06,-4.369000180304283276e-06,-4.369000180304283276e-06,-3.488999936962500215e-06,-3.489250048005487770e-06,-2.783350055324262939e-06,-2.141149934686836787e-06,-1.638999947317643091e-06,-2.778999942165683024e-06,-2.138999889211845584e-06,-2.138999889211845584e-06,-1.490000016701742425e-07,0.000000000000000000e+00,-1.490000016701742425e-07,-1.490000016701742425e-07
3.490000040073937271e-07,-1.490000016701742425e-07,-3.490000040073937271e-07,-3.490000040073937271e-07,-1.490000016701742425e-07,1.490000016701742425e-07,0.000000000000000000e+00,0.000000000000000000e+00,0.000000000000000000e+00,1.490000016701742425e-07,-3.490000040073937271e-07,-1.490000016701742425e-07,0.000000000000000000e+00,-3.490000040073937271e-07,0.000000000000000000e+00,-3.490000040073937271e-07,1.490000016701742425e-07,-1.490000016701742425e-07,1.490000016701742425e-07,0.000000000000000000e+00,0.000000000000000000e+00,-1.490000016701742425e-07,1.490000016701742425e-07,1.490000016701742425e-07,0.000000000000000000e+00,-1.490000016701742425e-07,-3.490000040073937271e-07,-1.490000016701742425e-07,-1.490000016701742425e-07,-1.490000016701742425e-07,0.000000000000000000e+00,-3.490000040073937271e-07,0.000000000000000000e+00,0.000000000000000000e+00,1.490000016701742425e-07,-5.890000238650827669e-07,-2.138999889211845584e-06,-2.138999889211845584e-06,-2.138999889211845584e-06,-1.228999963132082485e-06,-2.138999889211845584e-06,-3.488999936962500215e-06,2.778999942165683024e-06,1.638999947317643091e-06,-4.369000180304283276e-06,-3.488999936962500215e-06,-2.138999889211845584e-06,0.000000000000000000e+00,-1.490000016701742425e-07,-3.490000040073937271e-07,0.000000000000000000e+00,-3.490000040073937271e-07,-1.490000016701742425e-07,1.490000016701742425e-07,-1.490000016701742425e-07,1.490000016701742425e-07,-1.490000016701742425e-07,-3.490000040073937271e-07,-1.490000016701742425e-07,0.000000000000000000e+00,-3.490000040073937271e-07,-3.490000040073937271e-07,-5.890000238650827669e-07,-2.778999942165683024e-06,-2.778999942165683024e-06,-2.778999942165683024e-06,-4.369000180304283276e-06,-3.488999936962500215e-06,-1.228999963132082485e-06,2.778999942165683024e-06,1.228999963132082485e-06,2.778999942165683024e-06,2.778999942165683024e-06,1.490000016701742425e-07,-3.490000040073937271e-07,8.989999855657515582e-07,-1.490000016701742425e-07,-4.369000180304283276e-06,-2.778999942165683024e-06,-2.778999942165683024e-06,-1.638999947317643091e-06,-8.989999855657515582e-07,-1.490000016701742425e-07,0.000000000000000000e+00,-1.490000016701742425e-07,3.490000040073937271e-07,2.138999889211845584e-06,2.138999889211845584e-06,-1.228999963132082485e-06,-3.488999936962500215e-06,-4.369000180304283276e-06,-5.468999916047323495e-06,-4.369000180304283276e-06,-2.139099933629040606e-06,-3.492300038487883285e-06,-4.374000127427279949e-06,-9.039499673235695809e-07,-1.498000017363665393e-07,-1.638299863770953380e-06,-5.911500693400739692e-07,5.849000217494904064e-07,-1.231999931405880488e-06,-2.781999910439481027e-06,-5.910500249228789471e-07,-1.228999963132082485e-06,-2.138999889211845584e-06,-2.778999942165683024e-06,-4.369000180304283276e-06,-6.848999873909633607e-06,-2.138999889211845584e-06,-2.138999889211845584e-06,-1.490000016701742425e-07,-1.490000016701742425e-07,1.490000016701742425e-07,2.138999889211845584e-06,-3.490000040073937271e-07,5.890000238650827669e-07,8.989999855657515582e-07,3.490000040073937271e-07,-1.227349912369390950e-06,9.039499673235695809e-07,-5.883500193704094272e-07,1.398000080143901869e-07,-1.647049998609873001e-06,-9.041999646797194146e-07,5.816500561195425689e-07,-1.519999948129679979e-08,-1.839999796970914758e-08,-1.747000197838133317e-07,-3.692500172292056959e-07,-9.089499712899851147e-07,5.836500349687412381e-07,-1.527000108580978122e-07,1.484000051732436987e-07,-1.638999947317643091e-06,-1.638999947317643091e-06,-5.468999916047323495e-06,-5.468999916047323495e-06,-4.369000180304283276e-06,-2.138999889211845584e-06,-1.490000016701742425e-07,3.490000040073937271e-07,2.138999889211845584e-06,2.138999889211845584e-06,3.488999936962500215e-06,2.138699755960260518e-06,1.633250008126196917e-06,-5.935000331191986334e-07,-2.784650178000447340e-06,-2.147200120816705748e-06,-1.665449985921441112e-06,-2.813799710565945134e-06,-2.172599579353118315e-06,-6.236999752218252979e-07,-9.366499398311134428e-07,1.063500008058326785e-07,-9.462998491471807938e-07,-1.669900029810378328e-06,-9.231998774339444935e-07,-9.081499001695192419e-07,-3.550999849721847568e-07,1.224349944095592946e-06,8.979499739325547125e-07,8.989999855657515582e-07,-3.490000040073937271e-07,-6.848999873909633607e-06,-3.488999936962500215e-06,-2.138999889211845584e-06,0.000000000000000000e+00,-3.490000040073937271e-07,-2.778999942165683024e-06,1.228999963132082485e-06,2.778999942165683024e-06,-3.501000094274786534e-07,3.369499950167664792e-07,-1.652450009714812040e-06,-2.159299810955417342e-06,-2.170149628000217490e-06,-1.277600063076533843e-06,-6.393999001375050284e-07,-1.285799953620880842e-06,-1.283150027120427694e-06,-1.279650064134330023e-06,-1.682199922470317688e-06,-1.682199922470317688e-06,-1.678000103311205748e-06,-3.829999855042842682e-07,-1.252550077879277524e-06,-1.514999858898136154e-08,-3.584500234410370467e-07,-3.575499931685044430e-07,5.878000024495122489e-07,-5.890000238650827669e-07,-8.549000085622537881e-06,-3.488999936962500215e-06,-1.638999947317643091e-06,0.000000000000000000e+00,-2.138999889211845584e-06,-2.778999942165683024e-06,-4.369000180304283276e-06,5.890000238650827669e-07,-2.781549937935778871e-06,-3.503399739201995544e-06,-6.117999760135717224e-07,-2.802499921017442830e-06,-9.319498985860263929e-07,-4.024499844490492251e-07,-1.296650111726194154e-06,-2.182999736533020041e-07,-1.295800302614225075e-06,-6.421998932637507096e-07,-1.672349981163279153e-06,-1.257799908671586309e-06,-9.496499728811613750e-07,-9.475499496147676837e-07,1.149000397049348976e-07,5.636500191030791029e-07,-1.634500108593783807e-07,-6.019499778631143272e-07,-9.070999453797412571e-07,-4.375600383355049416e-06,-8.552099643566180021e-06,-2.778999942165683024e-06,-2.138999889211845584e-06,-3.490000040073937271e-07,-2.138999889211845584e-06,-2.138999889211845584e-06,-3.488999936962500215e-06,-3.490000040073937271e-07,-3.493800022624782287e-06,-2.793849944282555953e-06,-6.189500254549784586e-07,-1.673850192673853599e-06,-2.183899596275296062e-06,-9.561499609844759107e-07,-9.609998414816800505e-07,-4.108000837277359096e-07,8.095002357322300668e-08,7.414999458887905348e-08,-5.764999855273345020e-08,-9.593500180926639587e-07,2.815000073042028816e-07,-4.146500032220501453e-07,-2.063999886559031438e-07,-1.274650003324495628e-06,-1.266900198970688507e-06,-9.235000106855295599e-07,-2.789899781419080682e-06,-5.477049853652715683e-06,-8.553950465284287930e-06,-5.468999916047323495e-06,-2.138999889211845584e-06,-8.989999855657515582e-07,-1.638999947317643091e-06,-2.138999889211845584e-06,-2.778999942165683024e-06,-1.639699917177495081e-06,-4.372750026959693059e-06,-2.153250079572899267e-06,5.583000302067375742e-07,1.053499900649512711e-07,-1.281650270357204136e-06,-6.363999318637070246e-07,-2.034999795341718709e-07,-6.540500976370822173e-07,8.035001997086510528e-08,5.084500003249559086e-07,1.569900177855743095e-06,5.112500502946204506e-07,-2.300999710769247031e-07,-4.258999979356303811e-07,-1.297450239690078888e-06,-2.201199322371394373e-06,-9.418999411536788102e-07,-9.233000355379772373e-07,-3.495999862934695557e-06,-4.372200237412471324e-06,-6.851699708931846544e-06,-2.778999942165683024e-06,-2.778999942165683024e-06,-8.989999855657515582e-07,-3.490000040073937271e-07,-2.138999889211845584e-06,-2.778999942165683024e-06,-1.643349946789385285e-06,-5.475750185723882169e-06,-3.507499741317587905e-06,-1.257100166185409762e-06,-1.812999954609040287e-07,-1.674050167821405921e-06,9.544999102217843756e-08,8.620000357950630132e-08,-2.164999699516556575e-07,1.163199726761376951e-06,2.080950707750162110e-06,3.420150505917263217e-06,1.567649860589881428e-06,2.715999869451479753e-07,-1.299350174122082535e-06,-9.497499036115186755e-07,-2.193299451391794719e-06,1.191500089703367848e-07,-1.242650114363641478e-06,-3.495149940135888755e-06,-8.549000085622537881e-06,-2.138999889211845584e-06,-2.138999889211845584e-06,2.138999889211845584e-06,-3.490000040073937271e-07,1.638999947317643091e-06,1.228999963132082485e-06,-2.778999942165683024e-06,-9.039499673235695809e-07,-2.790849976008757949e-06,-4.396149961394257843e-06,-2.807049668263061903e-06,-2.165149908250896260e-06,-2.179349621656001545e-06,-9.650999572841101326e-07,-6.627499260503100231e-07,-9.693000038168975152e-07,1.160449642156891059e-06,2.711550223466474563e-06,2.701900029933312908e-06,8.401000854973972309e-07,-6.512999561891774647e-07,-5.424999471870251000e-08,-6.390999942595954053e-07,-3.938999952879385091e-07,-9.262499247597588692e-07,-1.649500063649611548e-06,-1.238199956787866540e-06,-6.848999873909633607e-06,-1.228999963132082485e-06,-2.138999889211845584e-06,2.138999889211845584e-06,3.490000040073937271e-07,-1.638999947317643091e-06,-2.138999889211845584e-06,-5.890500460736802779e-07,8.911000008993141819e-07,-1.661700025579193607e-06,-1.800500086801548605e-07,1.191000080780213466e-07,-1.266600179405941162e-06,-1.987499871347608860e-07,-1.713350002319202758e-06,-1.710250217001885176e-06,-6.889999326631368604e-08,1.170300265584955923e-06,3.432049652474233881e-06,2.070350092253647745e-06,2.720499310271407012e-07,7.349999719963307143e-08,-6.024999521514473599e-08,-1.692949922471598256e-06,-6.291999739005404990e-07,1.275500096653559012e-07,1.355500103272788692e-07,8.936999620345886797e-07,-5.468999916047323495e-06,-1.228999963132082485e-06,-2.778999942165683024e-06,8.989999855657515582e-07,1.638999947317643091e-06,-5.890000238650827669e-07,-2.138999889211845584e-06,2.137299816240556538e-06,1.632049816180369817e-06,-1.670999978387044393e-07,-1.730499974428312271e-07,-1.263700028175662737e-06,3.007000088928180048e-07,-4.060500202740513487e-07,-3.556149522410123609e-06,-2.840299430317827500e-06,-6.325500407911022194e-07,8.668000077705073636e-07,2.086299900838639587e-06,1.569999881212424953e-06,5.074000455351779237e-07,1.145899773291603196e-06,-1.708300032987608574e-06,-2.191599378420505673e-06,-9.397999178872851189e-07,-3.712999898652924458e-07,-2.797349907268653624e-06,-3.500350203466950916e-06,-6.850299996585818008e-06,-2.138999889211845584e-06,-2.778999942165683024e-06,-2.138999889211845584e-06,-3.490000040073937271e-07,-1.490000016701742425e-07,1.638999947317643091e-06,2.775749862848897465e-06,2.771799927359097637e-06,3.405000086331710918e-07,-2.153249852199223824e-06,-3.509349880914669484e-06,1.189800059364642948e-06,-1.277300043511786498e-06,-3.542899548847344704e-06,-2.827949401762452908e-06,1.052000158097143867e-07,1.183199856313876808e-06,2.723950274230446666e-06,1.567599838381283917e-06,5.084500571683747694e-07,6.994999779408317409e-08,-2.204799102401011623e-06,-2.198299625888466835e-06,-9.350999903290357906e-07,-1.248699845746159554e-06,-1.619999956403717079e-08,-6.027499921401613392e-07,-1.506500098003016319e-07,-5.890000238650827669e-07,1.228999963132082485e-06,-8.989999855657515582e-07,-1.490000016701742425e-07,-1.490000016701742425e-07,2.778999942165683024e-06,2.777299869194393978e-06,2.135249815182760358e-06,-4.373850060801487416e-06,-4.378550329420249909e-06,-3.619999802140227985e-07,8.706500125299498904e-07,-1.272899908144609071e-06,-2.821399675667635165e-06,-9.313000077781907748e-07,8.626500402897363529e-07,1.586249823049001861e-06,2.717100187510368414e-06,7.204999974419479258e-08,1.559749762236606330e-06,-2.209749482062761672e-06,-2.834199904100387357e-06,-5.523349955183221027e-06,-4.399400040711043403e-06,-1.656949962125509046e-06,-2.154399680875940248e-06,-3.499149897834286094e-06,-1.640150003368034959e-06,-2.778999942165683024e-06,-1.639799961594690103e-06,-2.778999942165683024e-06,-3.490000040073937271e-07,1.638999947317643091e-06,2.778999942165683024e-06,-1.642749907659890596e-06,3.447499921094276942e-07,-2.141199956895434298e-06,-2.147549821529537439e-06,-9.096999633584346157e-07,-9.299499765802465845e-07,3.008500186751916772e-07,-9.379999141856387723e-07,-6.129999974291422404e-07,-3.889000197432324057e-07,1.582749746376066469e-06,2.717100414884043857e-06,-9.683500366008956917e-07,-4.231000900745129911e-07,-4.433149570104433224e-06,-2.829649702107417397e-06,-3.541249952832004055e-06,-1.265750142920296639e-06,-6.107499643803748768e-07,-2.156300070055294782e-06,-4.382849965622881427e-06,-1.529000002165048500e-07,-4.369000180304283276e-06,-1.228999963132082485e-06,-2.778999942165683024e-06,-1.490000016701742425e-07,2.138999889211845584e-06,1.228999963132082485e-06,-3.492549922157195397e-06,1.423999975713741151e-07,-2.789199925246066414e-06,-2.795000000332947820e-06,-9.179999551633954979e-07,-3.815500235759827774e-07,-1.267150082640000619e-06,-3.784499540415708907e-07,-1.677649947851023171e-06,-4.579999668408163416e-08,1.583049652253976092e-06,2.079849991787341423e-06,-2.136499688276671804e-07,-2.192899728470365517e-06,-3.548349241100368090e-06,-1.677100044616963714e-06,-3.910500367965141777e-07,-3.880000463141186628e-07,-1.731999930143501842e-07,5.694000719813629985e-07,-5.994500611450348515e-07,-2.249999964121229823e-09,-3.488999936962500215e-06,-3.490000040073937271e-07,-3.488999936962500215e-06,-8.989999855657515582e-07,2.138999889211845584e-06,-2.138999889211845584e-06,-5.469250027090311050e-06,-6.854149887658422813e-06,-5.484299435920547694e-06,-5.492249783856095746e-06,-2.163400040444685146e-06,-1.775000058046316553e-08,-3.701000252931407886e-07,-1.260499743693799246e-06,-1.276250031878589652e-06,-4.062500238433131017e-07,2.956000173526263097e-07,5.395500011218246073e-07,-1.281299887523346115e-06,-2.828149945344193839e-06,-9.438498977942799684e-07,3.161499648740573321e-07,-3.908000394403643440e-07,5.506999514182098210e-07,-2.644999952394755383e-08,-9.202499313687440008e-07,-1.243399992745253257e-06,-3.532500159053597599e-07,-1.490000016701742425e-07,1.228999963132082485e-06,2.138999889211845584e-06,1.638999947317643091e-06,1.228999963132082485e-06,-1.490000016701742425e-07,-2.138999889211845584e-06,-5.473999863170320168e-06,-8.560349670005962253e-06,-1.663350076341885142e-06,3.200500202638068004e-07,-6.185999268382147420e-07,3.149999940887937555e-07,-3.991499966105038766e-07,-9.617999694455647841e-07,-9.612000440029078163e-07,3.001999857588089071e-07,-6.337500053632538766e-07,-4.085499938355496852e-07,1.176799742097500712e-06,-6.249001103242335375e-07,1.096999895366934652e-07,1.185249857371672988e-06,3.055999968637479469e-07,-3.782000419505493483e-07,-3.682499709611875005e-07,-1.235000013366516214e-08,1.228649921358737629e-06,2.138999889211845584e-06,1.228999963132082485e-06,2.778999942165683024e-06,3.490000040073937271e-07,-8.989999855657515582e-07,-3.488999936962500215e-06,-1.490000016701742425e-07,-1.642399979573383462e-06,-5.474350018630502746e-06,-9.126000009018753190e-07,-1.772999951299425447e-07,5.550000992116110865e-07,5.412001087279350031e-07,8.347500966010557022e-07,5.278502612782176584e-07,5.340501161299471278e-07,-6.434999590965162497e-07,-2.163999823778794962e-07,-6.570000010697185644e-08,1.171049802906054538e-06,8.674000469000020530e-07,2.102600547004840337e-06,1.181649736281542573e-06,1.147999952877398755e-07,-1.729999965505157888e-08,-3.609999623677140335e-07,-9.042499868883169256e-07,5.890000238650827669e-07,1.228999963132082485e-06,1.638999947317643091e-06,1.638999947317643091e-06,2.138999889211845584e-06,1.228999963132082485e-06,-1.228999963132082485e-06,1.638999947317643091e-06,2.137999899787246250e-06,2.774399945337790996e-06,1.633049919291806873e-06,5.771000246568291914e-07,5.582000426329614129e-07,2.978499651362653822e-07,1.582899699315021280e-06,-4.126000305859633954e-07,-6.482000003416032996e-07,-9.667999165685614571e-07,5.290501121635315940e-07,5.309998982738761697e-07,3.034500650755944662e-07,1.067000070520407462e-07,1.597249706719594542e-06,5.473999635796644725e-07,1.614849907127791084e-06,2.129899939973256551e-06,-2.146499809896340594e-06,-2.142699941032333300e-06,2.138999889211845584e-06,1.638999947317643091e-06,-3.490000040073937271e-07,-1.490000016701742425e-07,2.138999889211845584e-06,1.228999963132082485e-06,-8.989999855657515582e-07,3.490000040073937271e-07,1.638999947317643091e-06,5.468350082082906738e-06,1.634149953133601230e-06,5.813000711896165740e-07,3.287999845724698389e-07,3.090000006977788871e-07,-6.388501105902832933e-07,-1.690099793449917343e-06,-2.198999709435156547e-06,-1.708300032987608574e-06,-4.079999769146525068e-07,-3.789999780678954266e-08,-1.841500250066019362e-07,1.194799779113964178e-06,1.599499796611780766e-06,1.196150151372421533e-06,2.122649902958073653e-06,8.941499913817096967e-07,-2.781250032057869248e-06,-1.229499957844382152e-06,2.138999889211845584e-06,2.138999889211845584e-06,2.778999942165683024e-06,0.000000000000000000e+00,3.490000040073937271e-07,1.490000016701742425e-07,-3.488999936962500215e-06,-3.488999936962500215e-06,-3.488999936962500215e-06,1.228350015480828006e-06,8.932499895308865234e-07,-3.596500164348981343e-07,-6.068000288905750494e-07,-1.805500033924545278e-07,-9.377000083077291492e-07,-6.249499620025744662e-07,8.579000336794706527e-07,-4.054500379879755201e-07,-9.476999025537224952e-07,8.578500114708731417e-07,3.180499845711892704e-07,1.614900043023226317e-06,-1.255050165127613582e-06,3.276499569437874015e-07,-3.606500058594974689e-07,-1.641849962652486283e-06,-2.138999889211845584e-06,-5.468999916047323495e-06,-2.778999942165683024e-06,1.490000016701742425e-07,3.488999936962500215e-06,0.000000000000000000e+00,1.490000016701742425e-07,1.490000016701742425e-07,-5.890000238650827669e-07,-2.778999942165683024e-06,-5.468999916047323495e-06,-1.228999963132082485e-06,-5.891000114388589282e-07,-9.112499697039311286e-07,-1.246549913958006073e-06,-1.639999993585661286e-07,-6.026999699315638281e-07,-9.163499612441228237e-07,-9.245000001101288944e-07,-1.667749984335387126e-06,-1.670049982749333140e-06,-6.165499257804185618e-07,-3.506699840727378614e-06,3.391999996438244125e-07,8.792500238996581174e-07,8.775999731369665824e-07,1.370500086750325863e-07,-5.926000312683754601e-07,-1.638999947317643091e-06,-3.488999936962500215e-06,-2.138999889211845584e-06,1.638999947317643091e-06,2.138999889211845584e-06,-1.490000016701742425e-07,3.490000040073937271e-07,-1.490000016701742425e-07,1.490000016701742425e-07,-2.778999942165683024e-06,-6.848999873909633607e-06,-5.469049938255921006e-06,-4.373200681584421545e-06,-5.482299911818699911e-06,-2.150599812011932954e-06,-2.788199935821467079e-06,-6.852349542896263301e-06,-8.557850378565490246e-06,-2.789699692584690638e-06,-2.792699888232164085e-06,-2.789349991871858947e-06,-4.369050202512880787e-06,-8.549000085622537881e-06,-8.549850463168695569e-06,-1.075185082299867645e-05,-8.559451089240610600e-06,-6.849699730082647875e-06,-5.468999916047323495e-06,-3.488999936962500215e-06,-2.138999889211845584e-06,-1.638999947317643091e-06,-8.989999855657515582e-07,-5.890000238650827669e-07,0.000000000000000000e+00,-1.490000016701742425e-07,3.490000040073937271e-07,0.000000000000000000e+00,-1.638999947317643091e-06,-2.778999942165683024e-06,-5.471400072565302253e-06,-3.497999841783894226e-06,-3.498949808999896049e-06,-6.853649665572447702e-06,-6.849249984952621162e-06,-3.488999936962500215e-06,-5.468999916047323495e-06,-8.549100130039732903e-06,-6.849099918326828629e-06,-5.468999916047323495e-06,-2.138999889211845584e-06,-2.778999942165683024e-06,-6.849849796708440408e-06,-3.496899807942099869e-06,-4.374800028017489240e-06,-5.468999916047323495e-06,-3.488999936962500215e-06,-2.778999942165683024e-06,-2.138999889211845584e-06,-1.490000016701742425e-07,1.490000016701742425e-07,3.490000040073937271e-07,-3.490000040073937271e-07,-3.490000040073937271e-07,0.000000000000000000e+00,0.000000000000000000e+00,0.000000000000000000e+00,1.490000016701742425e-07,-3.450000063409675022e-09,-3.529499963406124152e-07,-1.493500008109549526e-07,-5.890000238650827669e-07,-1.490000016701742425e-07,-2.138999889211845584e-06,-3.488999936962500215e-06,-2.138999889211845584e-06,-3.488999936962500215e-06,-4.369000180304283276e-06,-2.138999889211845584e-06,-1.638999947317643091e-06,-2.139250000254833139e-06,-2.143350002370425500e-06,-2.141149934686836787e-06,-5.890000238650827669e-07,-5.890000238650827669e-07,-1.490000016701742425e-07,-1.490000016701742425e-07,1.490000016701742425e-07,3.490000040073937271e-07,-3.490000040073937271e-07,1.490000016701742425e-07
0.000000000000000000e+00,0.000000000000000000e+00,-3.490000040073937271e-07,0.000000000000000000e+00,-1.490000016701742425e-07,0.000000000000000000e+00,-1.490000016701742425e-07,3.490000040073937271e-07,1.490000016701742425e-07,-1.490000016701742425e-07,0.000000000000000000e+00,-1.490000016701742425e-07,-1.638999947317643091e-06,-1.228999963132082485e-06,1.638999947317643091e-06,5.890000238650827669e-07,-1.490000016701742425e-07,1.490000016701742425e-07,3.490000040073937271e-07,-1.490000016701742425e-07,-1.490000016701742425e-07,3.490000040073937271e-07,0.000000000000000000e+00,1.490000016701742425e-07,1.490000016701742425e-07,-1.490000016701742425e-07,0.000000000000000000e+00,-1.490000016701742425e-07,3.490000040073937271e-07,1.490000016701742425e-07,1.490000016701742425e-07,1.490000016701742425e-07,-5.890000238650827669e-07,-1.228999963132082485e-06,-2.778999942165683024e-06,-2.138999889211845584e-06,-8.989999855657515582e-07,-5.890000238650827669e-07,-8.989999855657515582e-07,-2.138999889211845584e-06,-4.369000180304283276e-06,-2.778999942165683024e-06,-1.490000016701742425e-07,5.890000238650827669e-07,3.488999936962500215e-06,1.490000016701742425e-07,-4.369000180304283276e-06,-5.468999916047323495e-06,-4.369000180304283276e-06,-2.778999942165683024e-06,-2.138999889211845584e-06,-1.638999947317643091e-06,0.000000000000000000e+00,0.000000000000000000e+00,1.490000016701742425e-07,1.490000016701742425e-07,-1.490000016701742425e-07,-3.490000040073937271e-07,0.000000000000000000e+00,-1.638999947317643091e-06,-3.488999936962500215e-06,1.490000016701742425e-07,5.890000238650827669e-07,-3.490000040073937271e-07,1.638999947317643091e-06,2.778999942165683024e-06,5.890000238650827669e-07,1.638999947317643091e-06,1.638999947317643091e-06,-1.490000016701742425e-07,-1.490000016701742425e-07,5.890000238650827669e-07,3.490000040073937271e-07,-3.490000040073937271e-07,-3.490000040073937271e-07,-1.638999947317643091e-06,-8.989999855657515582e-07,-5.890000238650827669e-07,-4.369000180304283276e-06,1.638999947317643091e-06,2.138999889211845584e-06,2.138999889211845584e-06,-1.490000016701742425e-07,0.000000000000000000e+00,0.000000000000000000e+00,0.000000000000000000e+00,-1.638999947317643091e-06,-3.488999936962500215e-06,-2.778999942165683024e-06,-1.228999963132082485e-06,-3.490000040073937271e-07,8.989999855657515582e-07,-1.490000016701742425e-07,2.778899897748488002e-06,1.225699975293537136e-06,1.633999886507808696e-06,8.940500038079335354e-07,1.635699959479097743e-06,8.922999654714658391e-07,3.441500098233518656e-07,5.849000217494904064e-07,5.859999987478659023e-07,-1.231999931405880488e-06,-9.010499866235477384e-07,-1.638999947317643091e-06,-5.890000238650827669e-07,-8.989999855657515582e-07,-6.848999873909633607e-06,3.490000040073937271e-07,2.138999889211845584e-06,-1.638999947317643091e-06,3.490000040073937271e-07,-3.490000040073937271e-07,-1.638999947317643091e-06,-3.488999936962500215e-06,-2.778999942165683024e-06,-2.778999942165683024e-06,1.490000016701742425e-07,3.488999936962500215e-06,3.473500100881210528e-07,3.440499938278662739e-07,1.224549919243145268e-06,5.795000106445513666e-07,8.909499911169405095e-07,8.918999583329423331e-07,3.357500020229053916e-07,1.209199808727134950e-06,5.676000682797166519e-07,1.291000017999976990e-07,1.311500028577938792e-07,3.332500000396976247e-07,-3.634500274074525805e-07,-3.540999955475854222e-07,-1.639599986447137780e-06,-2.778999942165683024e-06,-4.369000180304283276e-06,-4.369000180304283276e-06,1.228999963132082485e-06,-2.138999889211845584e-06,-2.138999889211845584e-06,-1.490000016701742425e-07,0.000000000000000000e+00,8.989999855657515582e-07,-3.490000040073937271e-07,8.989999855657515582e-07,-1.492999928132121568e-07,-8.949999852347900742e-09,-3.624000157742557349e-07,3.380500004368514055e-07,-1.270000016262429199e-08,-1.575000041498242354e-08,5.740000688092550263e-07,5.658000077346514445e-07,3.185999446486675879e-07,3.136499628908495652e-07,1.035500147850143549e-07,8.624000997770053800e-07,5.502001840795855969e-07,1.108000091676331067e-07,-1.778499978399850079e-07,1.352000111864981591e-07,1.440500057015015045e-07,1.479500042478321120e-07,0.000000000000000000e+00,-2.778999942165683024e-06,-3.490000040073937271e-07,-2.778999942165683024e-06,-2.138999889211845584e-06,-3.490000040073937271e-07,-2.138999889211845584e-06,-5.890000238650827669e-07,-5.890000238650827669e-07,8.989999855657515582e-07,-3.501000094274786534e-07,3.313500087642751168e-07,5.746500164605095051e-07,1.288000106569597847e-07,3.179499969974131091e-07,5.506000206878525205e-07,-3.837000122075551189e-07,-1.908000086814354290e-07,-2.075499736520214356e-07,-6.104999528133703279e-08,2.877999634165462339e-07,5.426000484476389829e-07,-3.928001035546913045e-07,-1.885999978412655764e-07,-6.280500883804052137e-07,-6.169499329189420678e-07,-6.024500294188328553e-07,-9.078499942916096188e-07,-3.490200015221489593e-06,-3.488999936962500215e-06,-2.138999889211845584e-06,-4.369000180304283276e-06,-2.778999942165683024e-06,3.490000040073937271e-07,-4.369000180304283276e-06,1.228999963132082485e-06,-1.490000016701742425e-07,1.638999947317643091e-06,3.487500066512438934e-07,5.813000143461977132e-07,-3.685999843128229259e-07,3.222999964691553032e-07,-3.913499995178426616e-07,-4.050500024277425837e-07,2.920500321579311276e-07,-4.129000217290013097e-07,8.219000733333814424e-07,7.429999726582536823e-08,-6.492499551313812844e-07,-1.987999951325036818e-07,-1.685150095909193624e-06,-3.974499520609242609e-07,-1.965999558706243988e-07,-6.304500175247085281e-07,-1.740500010782852769e-07,5.734500518883578479e-07,-3.497099896776489913e-06,-4.375600383355049416e-06,-9.020999982567445841e-07,-4.369000180304283276e-06,-3.488999936962500215e-06,-2.138999889211845584e-06,1.638999947317643091e-06,-1.490000016701742425e-07,-8.989999855657515582e-07,1.228999963132082485e-06,1.517999947964199237e-07,-3.534500194746215129e-07,-1.658499968471005559e-07,1.156499962462476105e-07,-1.969999914308573352e-07,5.367500648389977869e-07,2.908999192641203990e-07,-6.529000984301092103e-07,-4.274500611245457549e-07,6.184999534752932959e-08,2.806500276619772194e-07,-2.122499722645443399e-07,-2.125999998270344804e-07,-6.545500923493818846e-07,5.245001375442370772e-07,9.275000678599099047e-08,-3.941000557006191229e-07,-1.773999827037187060e-07,8.881000326255161781e-07,-6.857049811515025795e-06,-8.553950465284287930e-06,-4.369000180304283276e-06,-2.778999942165683024e-06,0.000000000000000000e+00,-4.369000180304283276e-06,-1.638999947317643091e-06,5.890000238650827669e-07,1.483000033886128222e-07,1.226749986926733982e-06,-9.046500508702592924e-07,-6.072000360290985554e-07,-6.217500185812241398e-07,2.972500396936084144e-07,5.397000677476171404e-07,-6.411999038391513750e-07,-6.904999594326000079e-08,-4.321500171045045136e-07,2.646499979164218530e-07,8.258998605015221983e-07,5.208499942455091514e-07,7.430000437125272583e-08,-2.260999849568179343e-07,-7.645000721367978258e-08,-2.168999628793244483e-07,-6.320999546005623415e-07,-3.732999687144911150e-07,-1.560000129074978759e-07,-6.852199931017821655e-06,-5.471699751069536433e-06,-1.228999963132082485e-06,-3.488999936962500215e-06,0.000000000000000000e+00,-2.778999942165683024e-06,-1.228999963132082485e-06,1.638999947317643091e-06,-9.033499850374937523e-07,1.633149850022164173e-06,1.628499830985674635e-06,-3.671999593279906549e-07,-1.776999880576113355e-07,-6.320500460788025521e-07,-4.127499551032087766e-07,-2.215000023397806217e-07,-7.219999531571374973e-08,-9.714000270832912065e-07,-2.160499406045346404e-07,-6.583500749002269004e-07,-5.625000198961060960e-08,5.188999239180702716e-07,7.674999125129033928e-08,-4.108500206712051295e-07,-6.433999146793212276e-07,-6.188500947246211581e-07,-6.026500045663851779e-07,-1.235149966305471025e-06,-5.468999916047323495e-06,-2.778999942165683024e-06,-1.490000016701742425e-07,-4.369000180304283276e-06,-5.890000238650827669e-07,-4.369000180304283276e-06,-3.488999936962500215e-06,-1.228999963132082485e-06,-5.939500056229007896e-07,1.222849959958693944e-06,1.315499957854626700e-07,-1.256350060430122539e-06,-2.173549546569120139e-06,-2.189249471484799869e-06,-3.568299462131108157e-06,-2.862649125745519996e-06,-2.855499133147532120e-06,-4.449149400898022577e-06,-2.857349500118289143e-06,-2.204699285357492045e-06,-9.429999749954731669e-07,-1.695399987511336803e-06,-6.486500296887243167e-07,8.458000024802458938e-07,-3.938999952879385091e-07,3.217499511265486944e-07,-5.995000265102135018e-07,-9.081999792215356138e-07,-2.138999889211845584e-06,3.490000040073937271e-07,-1.228999963132082485e-06,-2.778999942165683024e-06,-5.890000238650827669e-07,-2.138999889211845584e-06,-4.369000180304283276e-06,-3.489049959171097726e-06,-1.236899947798519861e-06,-2.152899924112716690e-06,-3.516649940138449892e-06,-4.408000222611008212e-06,-2.183599463023710996e-06,-2.192449301219312474e-06,-2.217649580416036770e-06,-2.866748900487436913e-06,-2.220299393229652196e-06,-1.718799921945901588e-06,-2.208249270552187227e-06,-2.202049472543876618e-06,-1.301449856327963062e-06,-1.296200252909329720e-06,-1.293250079470453784e-06,5.350501055545464624e-07,-3.892000393079797504e-07,-3.704499818013573531e-07,-3.624500095611438155e-07,-2.144299969586427324e-06,8.989999855657515582e-07,2.778999942165683024e-06,2.778999942165683024e-06,5.890000238650827669e-07,-8.989999855657515582e-07,-2.778999942165683024e-06,-1.228999963132082485e-06,-2.780700015136972070e-06,-5.475949819810921326e-06,-4.384599833429092541e-06,-4.396350050228647888e-06,-3.530099320414592512e-06,-1.687800136096484493e-06,-1.286049723603355233e-06,-1.296250161431089509e-06,-7.030000404029124184e-08,-9.577498758517322131e-07,-5.669999580959483865e-08,-2.060999690911557991e-07,-1.294099888582422864e-06,-9.766999937710352242e-07,-6.691998919450270478e-07,-9.694998652776121162e-07,-9.515999295217625331e-07,-9.397999178872851189e-07,-1.712999875280729611e-07,-9.173499506687221583e-07,-6.003500061524391640e-07,3.487699814286315814e-06,4.369000180304283276e-06,6.848999873909633607e-06,2.778999942165683024e-06,-1.638999947317643091e-06,-2.778999942165683024e-06,-2.778999942165683024e-06,-1.642249912947590929e-06,-2.786199956972268410e-06,-3.501699893604381941e-06,-1.247050022357143462e-06,1.281500203731411602e-07,-3.882000498833804158e-07,-9.472999522586178500e-07,-4.029000422178796725e-07,-2.053499912335610134e-07,-4.046000299240404274e-07,2.836999613009538734e-07,-2.074499718673905591e-07,-9.642000122767058201e-07,-6.736499926773831248e-07,-1.313950065195967909e-06,-2.147999822454949026e-07,-4.083000817445281427e-07,-1.851000064334584749e-07,-1.248699845746159554e-06,-9.152000188805686776e-07,1.352500191842409549e-07,3.473500100881210528e-07,2.138999889211845584e-06,5.468999916047323495e-06,2.778999942165683024e-06,-1.638999947317643091e-06,-2.138999889211845584e-06,-2.778999942165683024e-06,8.972999694378813729e-07,8.952499683800851926e-07,1.634149839446763508e-06,1.219449927702953573e-06,-6.020000000717118382e-07,-1.773500031276853406e-07,-4.389999830323176866e-08,-1.874000048474044888e-07,-1.860999816472030943e-07,-3.897499993854580680e-07,5.333500894266762771e-07,-2.193999506516775000e-07,7.514999111890574568e-08,-8.335000245551782427e-08,-9.703499017632566392e-07,-9.491998866906214971e-07,-4.694999944376831991e-08,-1.255800043509225361e-06,-3.633500114119669888e-07,-1.652799937801319174e-06,-1.239149924003868364e-06,2.137849833161453716e-06,2.138999889211845584e-06,4.368200279714073986e-06,4.369000180304283276e-06,3.490000040073937271e-07,-2.778999942165683024e-06,-1.490000016701742425e-07,3.485249862933414988e-06,1.634749992263095919e-06,8.967999747255817056e-07,1.220449917127552908e-06,1.383000096666364698e-07,-9.299499765802465845e-07,3.008500186751916772e-07,8.660001071802980732e-07,5.597000836132792756e-07,1.197799861074599903e-06,1.175649686047108844e-06,5.209001301409443840e-07,-6.576499913535371888e-07,7.669999035897490103e-08,1.164949821941263508e-06,-4.484999394094302261e-08,-3.774999512984322791e-08,-9.247499406228598673e-07,1.217149929289007559e-06,8.913000328902853653e-07,5.844500492457882501e-07,1.640799951019289438e-06,5.468999916047323495e-06,5.468999916047323495e-06,5.468999916047323495e-06,1.490000016701742425e-07,-2.778999942165683024e-06,1.228999963132082485e-06,2.135449904017150402e-06,5.823999913445732091e-07,1.218799866364861373e-06,1.213000018651655409e-06,3.300000059880403569e-07,-3.254999825230697752e-08,8.608499797446711455e-07,1.198949917124991771e-06,8.745498689677333459e-07,1.199299845211498905e-06,1.177949798147892579e-06,-4.114500029572809581e-07,5.244500584922207054e-07,-2.058000063698273152e-07,-6.507500529551180080e-07,1.089000107867832412e-07,-3.905500420842145104e-07,-3.833999926428077742e-07,3.323999919757625321e-07,3.370000456470734207e-07,-5.947500198999478016e-07,3.512499802127422299e-07,5.468999916047323495e-06,3.488999936962500215e-06,5.468999916047323495e-06,-2.138999889211845584e-06,-2.778999942165683024e-06,-5.890000238650827669e-07,5.887500265089329332e-07,8.938499718169623520e-07,1.623699972697068006e-06,3.257499940900743240e-07,1.204600039272918366e-06,-1.775000058046316553e-08,-1.700999945342118735e-07,8.717000810065655969e-07,5.566500362874648999e-07,1.596549509486067109e-06,8.402000730711733922e-07,2.872499749173584860e-07,-3.997000419531104853e-07,2.987500238305074163e-07,1.179449668597953860e-06,3.108499981863133144e-07,8.558000104130769614e-07,-3.170000084651292127e-08,3.309500584691704717e-07,8.858499995767488144e-07,1.632899966352852061e-06,2.783250010907067917e-06,4.369000180304283276e-06,-3.490000040073937271e-07,3.488999936962500215e-06,-1.638999947317643091e-06,-2.778999942165683024e-06,-8.989999855657515582e-07,-1.638999947317643091e-06,5.840000198986672331e-07,1.376500051719631301e-07,-1.733500027967238566e-07,8.700499734004552010e-07,8.694000825926195830e-07,8.665000450491788797e-07,8.589500453126674984e-07,5.421999844656966161e-07,5.383999450714327395e-07,1.582100026098487433e-06,5.427500582300126553e-07,8.453501436633814592e-07,1.177199919766280800e-06,8.591998721385607496e-07,3.080999988469557138e-07,-6.326499715214595199e-07,1.138999863314893446e-07,8.823999451124109328e-07,1.217649924001307227e-06,8.912500106816878542e-07,1.493500008109549526e-07,4.369000180304283276e-06,2.778999942165683024e-06,2.138999889211845584e-06,-1.490000016701742425e-07,-2.138999889211845584e-06,1.228999963132082485e-06,0.000000000000000000e+00,8.956000101534300484e-07,5.836500349687412381e-07,8.853999702296277974e-07,1.610699996490438934e-06,5.550000992116110865e-07,5.493000685419247020e-07,8.463501330879807938e-07,1.176049863715888932e-06,8.523500127921579406e-07,2.932999905169708654e-07,-2.159999468176465598e-07,2.810999433222605148e-07,2.902500000345753506e-07,-6.306999011940206401e-07,9.830000635702162981e-08,1.182649725706141908e-06,8.677999403516878374e-07,1.207999844154983293e-06,8.869999419403029606e-07,1.437500003476088750e-07,1.228999963132082485e-06,1.638999947317643091e-06,-3.490000040073937271e-07,-2.138999889211845584e-06,-2.138999889211845584e-06,8.989999855657515582e-07,1.228999963132082485e-06,5.890000238650827669e-07,-3.499999934319930617e-07,-1.535999984980662703e-07,3.377500092938134912e-07,1.292000177954832907e-07,-6.201999553923087660e-07,8.542500040675804485e-07,5.276000933918112423e-07,2.878000202599650947e-07,-2.027999954634651658e-07,5.171001475900993682e-07,7.394996259790787008e-08,-6.672000267826661002e-07,5.287500925987842493e-07,1.179199784928641748e-06,1.182949858957726974e-06,1.597500045136257540e-06,-2.744999783033108542e-08,3.332000062528095441e-07,1.221500042447587475e-06,2.135299837391357869e-06,8.989999855657515582e-07,1.638999947317643091e-06,-5.890000238650827669e-07,-3.490000040073937271e-07,-1.638999947317643091e-06,-1.228999963132082485e-06,1.638999947317643091e-06,1.228999963132082485e-06,1.228999963132082485e-06,5.883500193704094272e-07,8.874499712874239776e-07,1.211399876410723664e-06,1.206299884870531969e-06,1.598999801899481099e-06,5.263499360808054917e-07,5.222000254434533417e-07,2.762000121947494335e-07,-7.860000295067948173e-08,-2.235999687627554522e-07,-6.491000021924264729e-07,-4.454999569247775071e-08,-1.889000031951582059e-07,8.684000363246013876e-07,3.228500133900524816e-07,8.773500894676544704e-07,3.374499897290661465e-07,5.867500476597342640e-07,1.485000069578745752e-07,8.989999855657515582e-07,1.490000016701742425e-07,-2.138999889211845584e-06,-5.890000238650827669e-07,0.000000000000000000e+00,0.000000000000000000e+00,-1.490000016701742425e-07,-8.989999855657515582e-07,5.890000238650827669e-07,-1.496500061648475821e-07,3.428500008340051863e-07,5.742500661654048599e-07,3.274000164310564287e-07,3.174500022851134418e-07,-3.975000026912312023e-07,2.965500698337564245e-07,8.423999702245055232e-07,-6.426500362977094483e-07,-1.916999821105491719e-07,-1.837499894463689998e-07,-3.174999818611468072e-08,-3.742000558304425795e-07,1.206849901791429147e-06,1.618249825696693733e-06,1.217149929289007559e-06,2.135250042556435801e-06,1.638999947317643091e-06,1.638999947317643091e-06,1.638999947317643091e-06,5.890000238650827669e-07,-2.138999889211845584e-06,3.490000040073937271e-07,1.490000016701742425e-07,-1.490000016701742425e-07,-2.778999942165683024e-06,-5.468999916047323495e-06,-2.778999942165683024e-06,-3.488999936962500215e-06,-2.139099933629040606e-06,-1.241249947270262055e-06,-3.665499832550267456e-07,3.340000205298565561e-07,-9.224999644175113644e-07,-1.761500101338242530e-07,5.538999516829790082e-07,-3.830500361345912097e-07,1.198649783873406705e-06,-3.670500348107452737e-07,-6.012999733684409875e-07,5.740000119658361655e-07,1.209449919770122506e-06,3.375000403593730880e-07,3.469500029495975468e-07,1.642099960008636117e-06,-1.490000016701742425e-07,-1.490000016701742425e-07,5.468999916047323495e-06,4.369000180304283276e-06,2.138999889211845584e-06,3.490000040073937271e-07,1.490000016701742425e-07,0.000000000000000000e+00,-1.228999963132082485e-06,-2.138999889211845584e-06,-5.468999916047323495e-06,-1.073904968507122248e-05,-1.233199895978032146e-06,-2.792300165310734883e-06,-5.480599611473735422e-06,-6.858200322312768549e-06,-4.372349849290912971e-06,-3.497850229905452579e-06,-1.649700038797163870e-06,-1.242700022885401268e-06,3.386500111446366645e-07,8.989499633571540471e-07,0.000000000000000000e+00,-3.498500120713288197e-07,-1.651849970585317351e-06,-2.789449808915378526e-06,-2.779700025712372735e-06,-2.138999889211845584e-06,-5.468999916047323495e-06,-4.369000180304283276e-06,-2.778999942165683024e-06,1.638999947317643091e-06,1.638999947317643091e-06,0.000000000000000000e+00,-1.490000016701742425e-07,-1.490000016701742425e-07,-3.490000040073937271e-07,-8.989999855657515582e-07,-2.778999942165683024e-06,-4.371400336822262034e-06,-4.378000085125677288e-06,-6.858949745947029442e-06,-5.473649707710137591e-06,-4.369250291347270831e-06,-8.549000085622537881e-06,-3.488999936962500215e-06,-1.073909970727982000e-05,-8.549100130039732903e-06,-8.549000085622537881e-06,-6.848999873909633607e-06,-6.848999873909633607e-06,-4.369850103103090078e-06,-6.856899744889233261e-06,-1.074479951057583094e-05,-6.848999873909633607e-06,-5.468999916047323495e-06,-5.468999916047323495e-06,-2.778999942165683024e-06,-3.490000040073937271e-07,-1.490000016701742425e-07,0.000000000000000000e+00,3.490000040073937271e-07,3.490000040073937271e-07,0.000000000000000000e+00,-3.490000040073937271e-07,-1.490000016701742425e-07,3.490000040073937271e-07,1.455500040492552216e-07,-5.929500161983014550e-07,-1.229350004905427340e-06,-1.228999963132082485e-06,-1.228999963132082485e-06,-2.778999942165683024e-06,-3.488999936962500215e-06,-3.488999936962500215e-06,-4.369000180304283276e-06,-4.369000180304283276e-06,-4.369000180304283276e-06,-3.488999936962500215e-06,-2.779250053208670579e-06,-3.493350050121080130e-06,-2.141149934686836787e-06,-2.138999889211845584e-06,-3.488999936962500215e-06,-2.138999889211845584e-06,-1.638999947317643091e-06,1.490000016701742425e-07,-3.490000040073937271e-07,1.490000016701742425e-07,-1.490000016701742425e-07
3.490000040073937271e-07,-3.490000040073937271e-07,1.490000016701742425e-07,3.490000040073937271e-07,3.490000040073937271e-07,-3.490000040073937271e-07,1.490000016701742425e-07,-1.490000016701742425e-07,-1.490000016701742425e-07,-1.490000016701742425e-07,-1.490000016701742425e-07,-1.490000016701742425e-07,-1.228999963132082485e-06,-1.638999947317643091e-06,-5.890000238650827669e-07,-1.490000016701742425e-07,-3.490000040073937271e-07,0.000000000000000000e+00,1.490000016701742425e-07,-3.490000040073937271e-07,1.490000016701742425e-07,0.000000000000000000e+00,-1.490000016701742425e-07,1.490000016701742425e-07,1.490000016701742425e-07,1.490000016701742425e-07,0.000000000000000000e+00,0.000000000000000000e+00,0.000000000000000000e+00,-1.490000016701742425e-07,-1.490000016701742425e-07,-3.490000040073937271e-07,-3.490000040073937271e-07,-1.490000016701742425e-07,-5.890000238650827669e-07,-5.890000238650827669e-07,-1.638999947317643091e-06,-1.228999963132082485e-06,-2.778999942165683024e-06,-2.778999942165683024e-06,-3.488999936962500215e-06,-4.369000180304283276e-06,-2.778999942165683024e-06,-3.488999936962500215e-06,-5.468999916047323495e-06,-3.488999936962500215e-06,-2.138999889211845584e-06,-2.138999889211845584e-06,-2.778999942165683024e-06,-8.989999855657515582e-07,-5.890000238650827669e-07,-1.490000016701742425e-07,3.490000040073937271e-07,-1.490000016701742425e-07,-1.490000016701742425e-07,1.490000016701742425e-07,1.490000016701742425e-07,-3.490000040073937271e-07,1.490000016701742425e-07,-3.490000040073937271e-07,-5.890000238650827669e-07,-2.138999889211845584e-06,-2.138999889211845584e-06,-2.778999942165683024e-06,-4.369000180304283276e-06,-6.848999873909633607e-06,-8.989999855657515582e-07,1.490000016701742425e-07,5.890000238650827669e-07,-8.989999855657515582e-07,-5.890000238650827669e-07,-2.138999889211845584e-06,-1.228999963132082485e-06,-1.638999947317643091e-06,-2.138999889211845584e-06,-3.488999936962500215e-06,-3.488999936962500215e-06,-4.369000180304283276e-06,-4.369000180304283276e-06,-3.488999936962500215e-06,-1.638999947317643091e-06,0.000000000000000000e+00,3.490000040073937271e-07,1.490000016701742425e-07,1.490000016701742425e-07,3.490000040073937271e-07,-2.138999889211845584e-06,-2.778999942165683024e-06,-2.778999942165683024e-06,2.138999889211845584e-06,8.989999855657515582e-07,8.989999855657515582e-07,2.778999942165683024e-06,-3.490999915811698884e-07,8.956999977272062097e-07,2.133999942088848911e-06,2.134049964297446422e-06,5.857000360265374184e-07,1.632299927223357372e-06,1.224149968948040623e-06,1.224899961016490124e-06,5.859999987478659023e-07,1.225999994858284481e-06,5.869500228072865866e-07,2.778999942165683024e-06,-1.638999947317643091e-06,-4.369000180304283276e-06,-4.369000180304283276e-06,-2.778999942165683024e-06,-8.989999855657515582e-07,0.000000000000000000e+00,3.490000040073937271e-07,-1.490000016701742425e-07,1.228999963132082485e-06,5.890000238650827669e-07,2.138999889211845584e-06,1.228999963132082485e-06,2.778999942165683024e-06,1.228999963132082485e-06,5.873500299458100926e-07,1.224049924530845601e-06,3.445500169618753716e-07,1.219499949911551084e-06,8.909499911169405095e-07,8.911999884730903432e-07,1.213049927173415199e-06,5.702000862584100105e-07,8.776999607107427437e-07,8.778999927017139271e-07,-1.495000034879012674e-08,8.888500246939656790e-07,3.350499753196345409e-07,-5.941000154052744620e-07,-1.229600002261577174e-06,-1.490000016701742425e-07,-6.848999873909633607e-06,-8.549000085622537881e-06,-5.468999916047323495e-06,-1.638999947317643091e-06,-8.989999855657515582e-07,0.000000000000000000e+00,3.490000040073937271e-07,-8.989999855657515582e-07,2.138999889211845584e-06,2.138999889211845584e-06,1.638799972170090768e-06,1.224750008077535313e-06,5.830000304740678985e-07,3.434500115417904453e-07,3.409000441934040282e-07,5.675500460711191408e-07,3.210000443232274847e-07,3.165999942211783491e-07,3.117999369806057075e-07,1.030500129672873300e-07,5.371501288209401537e-07,8.549000654056726489e-07,-3.883000090354471467e-07,1.149000183886528248e-07,5.651500600833969656e-07,-3.627999944910698105e-07,-3.539500141869211802e-07,-3.500500156405905727e-07,-2.138999889211845584e-06,-3.488999936962500215e-06,-1.073899966286262497e-05,-4.369000180304283276e-06,-8.989999855657515582e-07,-3.490000040073937271e-07,1.638999947317643091e-06,3.490000040073937271e-07,1.638999947317643091e-06,-1.490000016701742425e-07,-1.483000033886128222e-07,1.227449956786585972e-06,3.408500219848065171e-07,3.293999668585456675e-07,8.684500016897800379e-07,1.184299776468833443e-06,3.102999812654161360e-07,-4.479999660134126316e-08,8.410501095568179153e-07,2.819499513861956075e-07,2.831999665886542061e-07,8.409000429310253821e-07,-5.129999536279683525e-08,8.548999517188349273e-07,-9.359500268146803137e-07,-2.794999964805811032e-08,1.355500103272788692e-07,-9.078499942916096188e-07,-5.902000452806532849e-07,-1.228999963132082485e-06,-1.383899962092982605e-05,-5.468999916047323495e-06,-8.989999855657515582e-07,-3.490000040073937271e-07,3.488999936962500215e-06,-1.638999947317643091e-06,0.000000000000000000e+00,8.989999855657515582e-07,1.229249960488232318e-06,3.473000163012329722e-07,1.298000142924138345e-07,1.265999856059352169e-07,1.173500265849725110e-07,-5.254999635440071870e-08,-4.051500752666470362e-07,5.273001875139016192e-07,-2.155999681008324842e-07,8.357001775038952474e-07,5.344501232684706338e-07,-1.946999930169113213e-07,2.998500008288829122e-07,-3.985499859027186176e-07,3.012000036051176721e-07,-1.904499669080905733e-07,-1.254050062016176526e-06,-1.244549935108807404e-06,-9.070999453797412571e-07,-2.145599864888936281e-06,-1.384209917887346819e-05,-5.468999916047323495e-06,-2.778999942165683024e-06,-1.228999963132082485e-06,-8.989999855657515582e-07,-1.228999963132082485e-06,1.490000016701742425e-07,8.989999855657515582e-07,-3.518000255553488387e-07,-1.544499923511466477e-07,1.290499938022549031e-07,-6.150499416435195599e-07,-6.315999598882626742e-07,9.074999951508289087e-08,7.979999594454056933e-08,7.539997426420086413e-08,8.035003418171982048e-08,2.756499100087239640e-07,5.285499469209753443e-07,2.975500592583557591e-07,8.709998411404740182e-08,8.296499345306074247e-07,2.845999631517770467e-07,3.019499672518577427e-07,-6.277999773374176584e-07,1.202399857902491931e-06,-2.789899781419080682e-06,-6.857049811515025795e-06,-1.384395000059157610e-05,-5.468999916047323495e-06,-1.638999947317643091e-06,-2.138999889211845584e-06,-2.138999889211845584e-06,1.228999963132082485e-06,8.989999855657515582e-07,2.138299805665155873e-06,-3.749999866187181397e-09,5.761500574408273678e-07,5.640999916067812592e-07,3.170500235682993662e-07,9.714999293919390766e-08,-4.198999477011966519e-07,-1.717900317999010440e-06,-9.833502190303988755e-07,-6.710499746986897662e-07,8.204500545616610907e-07,1.159300154540687799e-06,8.326500733346620109e-07,5.149999537934490945e-07,2.650999704201240093e-07,5.147501269675558433e-07,1.170999894384294748e-06,5.558000566452392377e-07,1.213899963659059722e-06,-9.041999646797194146e-07,-1.384220013278536499e-05,-2.781700004561571404e-06,-6.848999873909633607e-06,-2.138999889211845584e-06,-2.138999889211845584e-06,-2.778999942165683024e-06,-5.890000238650827669e-07,2.138999889211845584e-06,3.446500045356515329e-07,-9.057499710252159275e-07,3.305000291220494546e-07,-1.770999915606807917e-07,-1.263900003323215060e-06,-2.187549625887186266e-06,-2.209449576184852049e-06,-2.215099129898590036e-06,-2.221099748567212373e-06,5.949998893584051984e-08,2.761498478776047705e-07,2.776501162315980764e-07,5.232500939200690482e-07,8.149999644047056790e-07,5.091500270282267593e-07,5.284500730340369046e-07,8.512000704286037944e-07,-1.689499953272388666e-07,8.952499683800851926e-07,1.232049953614478000e-06,-1.073899966286262497e-05,-3.490000040073937271e-07,-6.848999873909633607e-06,-2.138999889211845584e-06,-2.778999942165683024e-06,-2.778999942165683024e-06,0.000000000000000000e+00,4.369000180304283276e-06,1.634049908716406208e-06,-1.240849996975157410e-06,-9.263499123335350305e-07,-2.172649828935391270e-06,-2.175049758079694584e-06,-1.682450033513305243e-06,-1.709499997559760232e-06,-9.782501138033694588e-07,-6.694999683531932533e-07,5.294998217664215190e-08,2.634499480791419046e-07,6.430000354384901584e-08,-2.195999826426486834e-07,5.164000640434096567e-07,9.184998361888574436e-08,2.997000194682186702e-07,8.578999199926329311e-07,-6.063499995434540324e-07,5.883999847355880775e-07,-3.500999810057692230e-07,-8.549000085622537881e-06,8.989999855657515582e-07,-4.369000180304283276e-06,-2.138999889211845584e-06,-1.638999947317643091e-06,-2.778999942165683024e-06,-4.369000180304283276e-06,5.889500016564852558e-07,-9.068999702321889345e-07,-1.251900130228023045e-06,-2.175549752791994251e-06,-1.678099806667887606e-06,-1.677800014476815704e-06,-9.362499326925899368e-07,8.915000648812565487e-08,-9.749501259648241103e-07,-7.870000473531035823e-08,6.409999286915990524e-08,1.152350023403414525e-06,6.365000615460303379e-08,2.548499651311431080e-07,-7.220000242114110733e-08,5.383499797062540893e-07,-3.930500440674222773e-07,-1.792999881899959291e-07,-2.790550070130848326e-06,-2.782749788821092807e-06,-3.493500116746872663e-06,-6.848999873909633607e-06,1.638999947317643091e-06,-4.369000180304283276e-06,-2.138999889211845584e-06,-1.228999963132082485e-06,-2.138999889211845584e-06,-4.369000180304283276e-06,1.472999997531587724e-07,-2.145950020349118859e-06,-9.195998700306518003e-07,-1.261350007553119212e-06,-1.671600216468505096e-06,-9.371999567520106211e-07,-6.269499976951919962e-07,-9.464499157729733270e-07,-9.498999702373112086e-07,-4.022500377232063329e-07,5.227999508861103095e-07,5.090002446195285302e-07,-6.801000154155190103e-07,-9.179999693742502131e-08,-6.570000010697185644e-08,3.074000289871037239e-07,-6.249999842111719772e-07,-1.669899916123540606e-06,-2.151400167349493131e-06,-4.379150141176069155e-06,-2.150350155716296285e-06,-1.640299956306989770e-06,5.890000238650827669e-07,-5.468999916047323495e-06,-2.778999942165683024e-06,-2.138999889211845584e-06,1.228999963132082485e-06,-8.989999855657515582e-07,-3.250000046861600822e-09,-1.646199962124228477e-06,-2.791699898807564750e-06,-2.153949708372238092e-06,-1.649949922466475982e-06,-6.197000175234279595e-07,-1.896999748396410723e-07,-6.322998729046958033e-07,-9.464499157729733270e-07,5.403000500336929690e-07,-6.670000374242590624e-08,7.675000546214505448e-08,-4.373000876967125805e-07,-4.342500403708982049e-07,-2.186499727940827142e-07,-1.927999875306340982e-07,-9.387999853061046451e-07,-1.252599986401037313e-06,-1.519999948129679979e-08,-2.154199819415225647e-06,-6.027499921401613392e-07,-5.906500177843554411e-07,-2.778999942165683024e-06,-4.369000180304283276e-06,-2.138999889211845584e-06,-2.778999942165683024e-06,1.638999947317643091e-06,2.138999889211845584e-06,-5.907000399929529522e-07,-9.027500027514179237e-07,-5.938500180491246283e-07,-5.985500024507928174e-07,-1.651000047786510549e-06,-1.666849925641145092e-06,-1.272899908144609071e-06,-9.425999110135308001e-07,-3.938000077141623478e-07,-4.364999739436825621e-08,-6.604999924775256659e-08,7.040000582492211834e-08,5.102501177134399768e-07,-4.236499648868630175e-07,-6.502499445559806190e-07,-6.382000492521910928e-07,-4.125000074850504461e-08,8.751999303058255464e-07,3.310499891995277721e-07,1.213599944094312377e-06,1.628849986445857212e-06,1.637849891267251223e-06,-1.073899966286262497e-05,1.638199933040596079e-06,-2.778999942165683024e-06,-8.989999855657515582e-07,2.778999942165683024e-06,2.138999889211845584e-06,3.452500152434367919e-07,1.634749992263095919e-06,3.467999931672238745e-07,-9.075499747268622741e-07,-1.649700038797163870e-06,-2.169949539165827446e-06,-3.971499893395957770e-07,-6.299999313341686502e-07,-3.895999896030843956e-07,-5.719999762732186355e-08,8.226501790886686649e-07,-2.297999373013226432e-07,-9.630500699131516740e-07,-1.699400058896571863e-06,-4.068500061293889303e-07,8.429500439888215624e-07,1.180950107482203748e-06,3.210499812666967046e-07,1.274500220915797399e-07,3.316999936942011118e-07,1.625149934625369497e-06,3.485100023681297898e-06,-6.848999873909633607e-06,-3.488999936962500215e-06,-2.778999942165683024e-06,-1.490000016701742425e-07,3.488999936962500215e-06,-1.490000016701742425e-07,1.635449962122947909e-06,1.635799890209455043e-06,3.456999877471389482e-07,-3.646999857664923184e-07,-3.680000020267470973e-07,-1.261549982700671535e-06,-2.817149834299925715e-06,-2.168250148315564729e-06,-2.183049218729138374e-06,-1.294500293624878395e-06,-9.762500212673330680e-07,-2.213049128840793855e-06,-1.299150198974530213e-06,-1.985999915632419288e-07,5.377499974201782607e-07,-4.429999833632791706e-08,1.186449821943824645e-06,-1.837999974441117956e-07,3.250999895954009844e-07,5.694000719813629985e-07,8.885499482857994735e-07,-1.231249939337430988e-06,-6.848999873909633607e-06,-6.848999873909633607e-06,-3.488999936962500215e-06,-3.488999936962500215e-06,2.778999942165683024e-06,5.890000238650827669e-07,2.778749831122695468e-06,4.500000372331669496e-10,5.812000836158404127e-07,3.259499692376266466e-07,-9.233999662683345377e-07,-3.667499868242884986e-07,-1.660000066294742282e-06,-2.166600324926548637e-06,-1.682550191617337987e-06,-2.210449338235775940e-06,-1.307800403083092533e-06,-1.313250209022953641e-06,5.210999916016589850e-07,1.178949901259329636e-06,5.420500883701606654e-07,3.063499889321974479e-07,5.483000222739065066e-07,3.128000116703333333e-07,8.726499913791485596e-07,1.207749846798833460e-06,3.346000028159323847e-07,-2.783250010907067917e-06,-8.549000085622537881e-06,-4.369000180304283276e-06,-2.138999889211845584e-06,-8.989999855657515582e-07,-1.490000016701742425e-07,-2.138999889211845584e-06,2.138999889211845584e-06,5.940000278314983007e-07,1.637549985389341600e-06,1.250500076821481343e-07,-3.779499877509806538e-07,-3.786000490890728543e-07,-1.791999864053650526e-07,-3.927499960809655022e-07,-1.298800498261698522e-06,-9.769998996489448473e-07,-2.240999918967645499e-07,-6.554999743002554169e-08,2.833500332144467393e-07,5.329999339664936997e-07,8.463998710794840008e-07,5.385000463320466224e-07,5.450500566439586692e-07,-4.179999635312015016e-08,8.698000328877242282e-07,-1.682500112565321615e-07,1.366500015365090803e-07,-8.993499704956775531e-07,-1.383899962092982605e-05,-5.468999916047323495e-06,-2.138999889211845584e-06,0.000000000000000000e+00,-1.638999947317643091e-06,-2.138999889211845584e-06,1.638999947317643091e-06,9.023999609780730680e-07,9.035499601850460749e-07,1.221700017595139798e-06,3.247000108785869088e-07,5.560000886362104211e-07,8.587001047999365255e-07,-4.086500666744541377e-07,-6.670497896266169846e-07,-2.213449079135898501e-06,-4.303000764593889471e-07,2.715998732583102537e-07,-2.185999790071946336e-07,8.805000106804072857e-08,5.366001687434618361e-07,8.453998816548846662e-07,3.089500069108908065e-07,1.197299866362300236e-06,-2.300000012667169358e-08,-6.010000674905313645e-07,1.223750018652935978e-06,-8.989999855657515582e-07,-1.073899966286262497e-05,5.890000238650827669e-07,-8.989999855657515582e-07,-1.638999947317643091e-06,1.228999963132082485e-06,8.989999855657515582e-07,1.228999963132082485e-06,3.499999934319930617e-07,-3.445999823270540219e-07,5.875500619367812760e-07,5.791000035060278606e-07,3.240000410187349189e-07,-9.374498972647415940e-07,-6.434999590965162497e-07,-4.191000186892779311e-07,-2.202999809242101037e-07,-4.371000841274508275e-07,-4.279500558368454222e-07,7.810003666008924483e-08,5.296501512930262834e-07,-4.939999342923329095e-08,8.561499384995840956e-07,8.632000003672146704e-07,-1.736500081506164861e-07,-1.243500037162448280e-06,-5.965000582364154980e-07,-9.026999805428204127e-07,-4.369000180304283276e-06,-1.073899966286262497e-05,-1.228999963132082485e-06,0.000000000000000000e+00,-1.228999963132082485e-06,0.000000000000000000e+00,3.490000040073937271e-07,2.138999889211845584e-06,1.490000016701742425e-07,-5.896500283597561065e-07,3.439499778323806822e-07,-7.699999748922436993e-09,-3.692000234423176153e-07,-3.719999952522812237e-08,9.445000870300646056e-08,2.878999794120318256e-07,-4.194999974060920067e-07,-6.614999961129797157e-07,-4.187000115507544251e-07,1.049000246666764724e-07,1.171499732777192548e-07,5.579000230682140682e-07,-3.010000071412832767e-08,3.201500078375829617e-07,3.327500053273979574e-07,-5.951500270384713076e-07,8.967500093604030553e-07,-1.494999963824739098e-07,-5.468999916047323495e-06,-3.488999936962500215e-06,1.228999963132082485e-06,1.490000016701742425e-07,0.000000000000000000e+00,0.000000000000000000e+00,3.488999936962500215e-06,4.369000180304283276e-06,2.778999942165683024e-06,8.983499810710782185e-07,1.224849938807892613e-06,1.218749844156263862e-06,-2.019999989499865478e-08,3.120499911801744020e-07,8.458999332106031943e-07,8.498500960740784649e-07,-6.428999768104404211e-07,5.330500130185100716e-07,-1.915999661150635802e-07,1.183500089041444880e-07,-9.242498890671413392e-07,1.282000141600292409e-07,1.216149939864408225e-06,-1.608499928806850221e-07,-1.586500104622245999e-07,-9.028499334817752242e-07,-2.138999889211845584e-06,-2.138999889211845584e-06,-2.138999889211845584e-06,-2.138999889211845584e-06,2.138999889211845584e-06,3.490000040073937271e-07,-1.490000016701742425e-07,3.490000040073937271e-07,1.638999947317643091e-06,3.488999936962500215e-06,3.488999936962500215e-06,0.000000000000000000e+00,1.228899918714887463e-06,1.626749963179463521e-06,3.314500247597607085e-07,3.340000205298565561e-07,1.205499870593484957e-06,1.201849840981594753e-06,5.536999765354266856e-07,1.192049921883153729e-06,8.616501077085558791e-07,1.214500144897101563e-07,8.801999911156599410e-07,5.745000066781358328e-07,-9.024499831866705790e-07,-1.230699922416533809e-06,-5.909500373491027858e-07,1.459000031900359318e-07,0.000000000000000000e+00,-8.989999855657515582e-07,-3.488999936962500215e-06,-2.778999942165683024e-06,-1.638999947317643091e-06,-1.490000016701742425e-07,1.490000016701742425e-07,1.490000016701742425e-07,3.488999936962500215e-06,-2.778999942165683024e-06,-2.138999889211845584e-06,5.889500016564852558e-07,2.134799842679058202e-06,2.765699719020631164e-06,3.477400014162412845e-06,2.769799948509898968e-06,2.135649765477865003e-06,8.901500336833123583e-07,2.768300191746675409e-06,2.125299943145364523e-06,8.886499358595756348e-07,3.489500102205056464e-07,1.228999963132082485e-06,1.481500078170938650e-07,5.860500209564634133e-07,2.137549927283544093e-06,7.000000024071084681e-10,-2.138999889211845584e-06,-8.989999855657515582e-07,-6.848999873909633607e-06,-2.778999942165683024e-06,-8.989999855657515582e-07,-1.490000016701742425e-07,0.000000000000000000e+00,0.000000000000000000e+00,1.490000016701742425e-07,0.000000000000000000e+00,-1.638999947317643091e-06,-1.228999963132082485e-06,2.136599732693866827e-06,5.800000053568510339e-07,1.390500017350859707e-07,-9.036500046022410970e-07,-1.639249944673792925e-06,1.490000016701742425e-07,-3.490000040073937271e-07,-1.229100007549277507e-06,1.488999998855433660e-07,1.490000016701742425e-07,0.000000000000000000e+00,8.989999855657515582e-07,3.481499959434586344e-07,1.411000027928821510e-07,-3.547999938291468425e-07,8.989999855657515582e-07,-5.890000238650827669e-07,-8.989999855657515582e-07,-4.369000180304283276e-06,-1.490000016701742425e-07,0.000000000000000000e+00,0.000000000000000000e+00,0.000000000000000000e+00,-1.490000016701742425e-07,-3.490000040073937271e-07,3.490000040073937271e-07,0.000000000000000000e+00,-3.490000040073937271e-07,-3.524500016283127479e-07,-2.142949824701645412e-06,-3.489349865049007349e-06,-5.468999916047323495e-06,-5.468999916047323495e-06,-5.468999916047323495e-06,-6.848999873909633607e-06,-8.549000085622537881e-06,-8.549000085622537881e-06,-6.848999873909633607e-06,-1.073899966286262497e-05,-5.468999916047323495e-06,-6.849249984952621162e-06,-3.493350050121080130e-06,-3.491149982437491417e-06,-4.369000180304283276e-06,-4.369000180304283276e-06,-3.488999936962500215e-06,-8.989999855657515582e-07,-1.490000016701742425e-07,0.000000000000000000e+00,1.490000016701742425e-07,3.490000040073937271e-07
