-3.100255876779556274e-02,-4.878200963139533997e-02,4.188589006662368774e-02,-2.436615526676177979e-03,-3.618561848998069763e-02,-5.844439566135406494e-02,3.266282379627227783e-03,-7.984329015016555786e-02,-4.583956673741340637e-02,-3.564913943409919739e-02,1.209477335214614868e-02,-6.081099808216094971e-02,-1.014961004257202148e-01,-7.804474234580993652e-02,-5.167492479085922241e-02,-5.155269429087638855e-02,2.751849591732025146e-02,-5.557898804545402527e-02,2.815721929073333740e-02,-1.474519073963165283e-02,-2.380833774805068970e-02,7.018779963254928589e-02,-8.108092844486236572e-02,4.954991489648818970e-02,4.577159136533737183e-02,2.324041724205017090e-02,-4.758946597576141357e-02,-6.260825693607330322e-02,-3.692093864083290100e-02,8.365889638662338257e-02,8.186528831720352173e-02,-1.410077512264251709e-02,4.662529751658439636e-02,2.410233207046985626e-02,-1.274770647287368774e-01,-1.355528831481933594e-01,-2.243071645498275757e-01,-1.830577850341796875e-01,-7.154729962348937988e-01,5.470823645591735840e-01,5.703434348106384277e-01,4.492563605308532715e-01,-1.125392675399780273e+00,5.228564739227294922e-01,4.712896943092346191e-01,5.420897603034973145e-01,-8.996902704238891602e-01,-7.044892311096191406e-01,-5.019585490226745605e-01,-2.347816675901412964e-01,-1.235754489898681641e-01,-6.281927227973937988e-02,-3.829423338174819946e-02,3.527344763278961182e-02,-2.482200413942337036e-02,-1.685182005167007446e-02,4.047244042158126831e-02,4.414602369070053101e-02,-3.930058330297470093e-02,5.322597622871398926e-01,4.517855644226074219e-01,-2.956891059875488281e-01,-5.610473155975341797e-01,-1.258826851844787598e-01,-8.093525171279907227e-01,-1.227084398269653320e+00,-2.486680984497070312e+00,-5.537859201431274414e-01,-6.994318962097167969e-01,-1.029650568962097168e+00,-1.725488662719726562e+00,-2.208660125732421875e+00,-9.077775478363037109e-01,-2.324629545211791992e+00,-2.186620950698852539e+00,-1.218595623970031738e+00,-1.709674715995788574e+00,-1.774704337120056152e+00,-1.387478113174438477e+00,-9.161485433578491211e-01,-7.431783080101013184e-01,-7.992141693830490112e-02,3.386123478412628174e-02,-1.651602238416671753e-02,8.210375159978866577e-02,4.141334444284439087e-02,-8.807111531496047974e-02,3.952458500862121582e-01,-3.502661585807800293e-01,-3.454665541648864746e-01,-6.948061585426330566e-01,-9.150656461715698242e-01,-1.436284780502319336e-01,-2.986814975738525391e-01,-1.795865893363952637e-01,-1.109381243586540222e-01,-2.115053385496139526e-01,7.503169775009155273e-02,1.854901313781738281e-01,-9.149194508790969849e-02,8.165996521711349487e-02,1.339779794216156006e-02,-3.979277610778808594e-01,-4.118054509162902832e-01,-2.082122266292572021e-01,-7.666556239128112793e-01,-6.005784273147583008e-01,-2.724920809268951416e-01,-2.485749125480651855e-01,2.474171966314315796e-01,-4.401986896991729736e-01,2.561357617378234863e-02,3.856559842824935913e-02,5.012838169932365417e-02,-3.549101650714874268e-01,-3.322791159152984619e-01,-6.650792956352233887e-01,-1.176042318344116211e+00,-8.499614596366882324e-01,-2.274983972311019897e-01,5.678698047995567322e-02,1.870671361684799194e-01,-1.065913811326026917e-01,2.907670736312866211e-01,-2.830236852169036865e-01,1.745538264513015747e-01,-1.531102657318115234e-01,1.617015898227691650e-01,-1.664281636476516724e-01,1.030143573880195618e-01,7.703007757663726807e-02,-5.377753172069787979e-03,1.496940944343805313e-02,-2.152721732854843140e-01,1.177475377917289734e-01,-3.686111420392990112e-02,-3.652424812316894531e-01,-3.312826156616210938e-01,-7.023488879203796387e-01,-4.217143952846527100e-01,4.533266276121139526e-02,4.235423356294631958e-02,-7.616850137710571289e-01,-5.232728719711303711e-01,-6.822451353073120117e-01,-1.073963046073913574e+00,-9.778764098882675171e-02,-6.123887002468109131e-02,5.566867440938949585e-02,1.953484863042831421e-02,2.505762279033660889e-01,1.072315722703933716e-01,-2.209506183862686157e-01,1.335443705320358276e-01,2.328217625617980957e-01,3.203333541750907898e-02,2.430690638720989227e-02,1.372049003839492798e-01,1.765601336956024170e-01,9.182787686586380005e-02,-2.433464825153350830e-01,-7.327049225568771362e-02,-2.488633617758750916e-02,-4.353997111320495605e-01,-5.529016852378845215e-01,-1.276657581329345703e+00,-1.468558788299560547e+00,-6.150448322296142578e-01,-5.046803131699562073e-02,-2.624744176864624023e-01,-6.094153523445129395e-01,-1.385475754737854004e+00,-8.885511755943298340e-01,-7.362495362758636475e-02,7.019899040460586548e-02,1.444758176803588867e-01,-1.740372180938720703e-01,-5.644972324371337891e-01,-1.045743823051452637e-01,-6.626594066619873047e-02,-1.664104163646697998e-01,3.197088837623596191e-01,1.806467026472091675e-01,-6.820951402187347412e-02,1.262573003768920898e-01,1.517409086227416992e-01,2.364074587821960449e-01,1.186612807214260101e-02,8.190228790044784546e-02,2.856509983539581299e-01,3.372483253479003906e-01,-1.369710713624954224e-01,-1.041310429573059082e+00,-2.027574777603149414e+00,-1.879841685295104980e+00,-8.486355543136596680e-01,7.879700511693954468e-02,-9.608429670333862305e-01,-6.699880957603454590e-01,-7.591199278831481934e-01,-1.104242324829101562e+00,-2.204288542270660400e-02,1.712682843208312988e-01,-3.181168437004089355e-02,-4.121941924095153809e-01,9.977207332849502563e-02,4.655401036143302917e-02,8.601279556751251221e-02,-9.514876455068588257e-02,1.738652139902114868e-01,7.520420849323272705e-02,6.282475311309099197e-03,2.215619664639234543e-03,2.840302884578704834e-01,2.974802553653717041e-01,1.800639927387237549e-01,-3.864785283803939819e-02,-4.533890262246131897e-02,-1.310189217329025269e-01,2.611208856105804443e-01,-1.337444782257080078e-01,-1.570170879364013672e+00,-1.981774926185607910e+00,-6.717549562454223633e-01,6.098810434341430664e-01,-7.873505353927612305e-01,3.014984130859375000e-01,4.988329410552978516e-01,-1.092743515968322754e+00,-1.595615148544311523e-01,-4.895060136914253235e-02,-7.366053760051727295e-02,-4.166740551590919495e-02,2.795808315277099609e-01,-8.128030598163604736e-02,-7.996533066034317017e-02,1.489837318658828735e-01,1.312728039920330048e-02,2.130736559629440308e-01,2.718412280082702637e-01,4.556053876876831055e-01,2.971429526805877686e-01,1.436123549938201904e-01,-6.694071739912033081e-02,1.877067387104034424e-01,1.268297582864761353e-01,1.336074620485305786e-01,3.797087967395782471e-01,9.021992981433868408e-02,-2.262821674346923828e+00,-2.068769216537475586e+00,-1.268318653106689453e+00,-1.699248701333999634e-01,-4.995293915271759033e-01,6.044611930847167969e-01,2.911549210548400879e-01,-1.204712763428688049e-01,-1.155209764838218689e-01,-2.870527505874633789e-01,-2.030935585498809814e-01,-8.841659128665924072e-02,-3.576532006263732910e-02,2.605612874031066895e-01,-8.380796760320663452e-02,-3.476810455322265625e-02,2.626906931400299072e-01,1.326240971684455872e-02,-2.283464670181274414e-01,1.756132394075393677e-01,2.917569875717163086e-01,2.483951747417449951e-01,3.379637300968170166e-01,1.900938004255294800e-01,-1.882082074880599976e-01,-3.111445903778076172e-01,1.286682188510894775e-01,2.846743464469909668e-01,-1.527506589889526367e+00,-2.084908008575439453e+00,-1.072959899902343750e+00,-1.526088863611221313e-01,-3.582505881786346436e-01,5.287160277366638184e-01,4.545426070690155029e-01,-8.801563829183578491e-02,3.246380388736724854e-01,-1.646754890680313110e-01,-1.645452380180358887e-01,-1.268536150455474854e-01,4.382078722119331360e-02,-1.729466319084167480e-01,7.803916186094284058e-02,-2.745145000517368317e-02,1.216854304075241089e-01,5.225302651524543762e-02,-2.191445380449295044e-01,8.215633779764175415e-02,3.501911163330078125e-01,2.577814161777496338e-01,5.315850023180246353e-03,6.682932376861572266e-02,7.195997983217239380e-02,1.879383176565170288e-01,3.146242797374725342e-01,2.106567025184631348e-01,-1.092587351799011230e+00,-1.937394976615905762e+00,-5.284360051155090332e-01,-1.085605621337890625e-01,5.516010522842407227e-01,-8.254542946815490723e-01,-8.165536075830459595e-02,-7.009058594703674316e-01,-4.048691391944885254e-01,1.183868199586868286e-01,3.348390385508537292e-02,5.809044523630291224e-05,-2.947117090225219727e-01,-1.556236296892166138e-01,7.860344834625720978e-03,-3.179585635662078857e-01,-5.717470869421958923e-02,-4.783788621425628662e-01,-7.549454569816589355e-01,-6.372295022010803223e-01,4.605465009808540344e-02,-3.292997181415557861e-01,2.151901833713054657e-02,2.383532375097274780e-01,3.789835274219512939e-01,3.608410358428955078e-01,1.274392008781433105e-01,1.762199252843856812e-01,-8.689631819725036621e-01,-1.842437982559204102e+00,-3.201334774494171143e-01,-6.595622748136520386e-02,2.730297744274139404e-01,-4.699035286903381348e-01,-2.884987294673919678e-01,-4.954806864261627197e-01,-1.316682547330856323e-01,2.593704164028167725e-01,-2.565697766840457916e-03,-1.550992131233215332e-01,-7.177180796861648560e-02,-7.369428873062133789e-02,-1.153025105595588684e-01,8.572199195623397827e-02,-1.932920329272747040e-02,-6.378469467163085938e-01,-9.337605237960815430e-01,-6.812905073165893555e-01,-1.417431831359863281e-01,-9.434761852025985718e-02,8.428287506103515625e-02,5.552332848310470581e-02,1.041925400495529175e-01,1.981377005577087402e-01,2.105688899755477905e-01,7.162905335426330566e-01,-1.612391620874404907e-01,-1.399027824401855469e+00,-7.356548309326171875e-01,-3.272541239857673645e-02,3.701993227005004883e-01,3.637706637382507324e-01,-1.337931156158447266e-01,2.693267762660980225e-01,-1.577597558498382568e-01,2.465919852256774902e-01,2.594383358955383301e-01,5.280072614550590515e-02,1.674732193350791931e-03,9.331693500280380249e-02,-4.175836592912673950e-02,-5.396424233913421631e-02,-6.971732378005981445e-01,-8.092772960662841797e-01,-9.123771786689758301e-01,-5.644308328628540039e-01,-2.438270002603530884e-01,-4.788764193654060364e-02,-1.273629069328308105e-01,-3.559695184230804443e-01,-1.664444804191589355e-01,1.027165874838829041e-01,3.402158617973327637e-01,4.644831717014312744e-01,3.265739679336547852e-01,-9.340004324913024902e-01,-6.885277628898620605e-01,-3.899285793304443359e-01,-4.372096061706542969e-01,-6.039294004440307617e-01,-8.921304941177368164e-01,-2.263482362031936646e-01,2.669222652912139893e-01,1.056798994541168213e-01,4.552656710147857666e-01,1.983892619609832764e-01,1.956698894500732422e-01,-9.424504637718200684e-02,1.423339247703552246e-01,2.381205856800079346e-01,-1.753330081701278687e-01,-9.545789957046508789e-01,-8.575724363327026367e-01,-9.785125255584716797e-01,-1.431441903114318848e-01,-1.112440600991249084e-01,-1.079674586653709412e-01,-5.045132339000701904e-02,1.910654008388519287e-01,-1.103575713932514191e-02,2.400503009557723999e-01,5.258027911186218262e-01,8.629377186298370361e-02,-1.357264876365661621e+00,-7.890725135803222656e-01,-3.718345761299133301e-01,1.688846945762634277e-02,-1.211190581321716309e+00,-9.476952552795410156e-01,3.321452736854553223e-01,2.801969945430755615e-01,-2.895023226737976074e-01,4.151496589183807373e-01,2.510926723480224609e-01,2.056594341993331909e-01,2.025296688079833984e-01,-8.559407293796539307e-02,4.421950876712799072e-02,-5.792574882507324219e-01,-1.263802886009216309e+00,-6.330737471580505371e-01,-5.431731939315795898e-01,-3.684313893318176270e-01,-1.587637662887573242e-01,-2.137688845396041870e-01,2.084686756134033203e-01,1.403717417269945145e-02,1.374908443540334702e-02,2.891674637794494629e-01,3.907237648963928223e-01,2.787146344780921936e-02,-1.254541516304016113e+00,-9.315447211265563965e-01,-2.540979683399200439e-01,-1.331356018781661987e-01,-1.129342913627624512e+00,-6.090114116668701172e-01,1.709147840738296509e-01,2.967052161693572998e-01,1.074093207716941833e-01,2.523299157619476318e-01,3.294830620288848877e-01,2.140007019042968750e-01,1.743001788854598999e-01,2.316389977931976318e-01,-3.242132663726806641e-01,-1.150859951972961426e+00,-7.749826312065124512e-01,-3.688548505306243896e-01,-3.501878082752227783e-01,-2.979846671223640442e-02,1.874610409140586853e-02,3.242592141032218933e-02,1.472554057836532593e-01,7.509232312440872192e-02,3.864554222673177719e-03,1.716992072761058807e-02,-2.111851051449775696e-02,-6.928738355636596680e-01,-1.427859902381896973e+00,1.284458786249160767e-01,8.471503108739852905e-02,-3.807891905307769775e-01,-9.888333082199096680e-01,-2.539050281047821045e-01,8.645282685756683350e-02,1.938852518796920776e-01,1.245791465044021606e-01,3.310943394899368286e-02,-5.326771363615989685e-02,3.582201302051544189e-01,3.591173887252807617e-01,7.504608482122421265e-02,-6.379141658544540405e-02,-8.234827518463134766e-01,-6.761702895164489746e-01,-3.680634796619415283e-01,-2.168203592300415039e-01,1.529047787189483643e-01,-1.453867256641387939e-01,2.722212579101324081e-03,2.248316407203674316e-01,-7.706399261951446533e-02,8.689879626035690308e-02,-1.258397102355957031e-01,-1.166777685284614563e-01,-2.088972628116607666e-01,-1.533678293228149414e+00,4.139232933521270752e-01,-4.517666101455688477e-01,-1.537727266550064087e-01,-1.077971339225769043e+00,-8.239328861236572266e-01,-7.288992404937744141e-02,-2.671422064304351807e-01,-1.735359616577625275e-02,-7.490798830986022949e-02,2.854854762554168701e-01,2.946514487266540527e-01,4.146741330623626709e-01,1.860250718891620636e-02,-2.709083557128906250e-01,-8.457822799682617188e-01,-4.433603584766387939e-01,-1.991951167583465576e-01,-1.171612963080406189e-01,-7.076649367809295654e-02,-2.876479551196098328e-02,-4.975714161992073059e-02,-2.024368941783905029e-01,-1.488897800445556641e-01,2.051640599966049194e-01,1.863972842693328857e-02,-2.066389620304107666e-01,-3.419610261917114258e-01,-6.942877769470214844e-01,-7.551889419555664062e-01,2.783300168812274933e-02,5.370079278945922852e-01,-3.899603188037872314e-01,-6.053701639175415039e-01,-1.402452439069747925e-01,-1.131156608462333679e-01,1.123847290873527527e-01,2.254994064569473267e-01,1.430963426828384399e-01,-1.590761006809771061e-03,1.663466542959213257e-01,2.547430396080017090e-01,2.261493504047393799e-01,-1.443786323070526123e-01,-2.946265041828155518e-01,-2.792064249515533447e-01,-2.229330837726593018e-01,1.556025445461273193e-02,-5.459631327539682388e-03,-2.207522094249725342e-01,4.515735432505607605e-02,4.212137311697006226e-02,2.635709345340728760e-01,-1.189057528972625732e-01,8.867175877094268799e-02,-1.040436029434204102e+00,-1.008534312248229980e+00,-4.442555010318756104e-01,-7.410699874162673950e-02,5.602739453315734863e-01,-4.063940346240997314e-01,-3.206782937049865723e-01,2.478621602058410645e-01,1.445728242397308350e-01,-3.609281033277511597e-02,-8.907333016395568848e-02,1.092336997389793396e-01,-4.574539780151098967e-04,3.172546327114105225e-01,3.488608598709106445e-01,5.091465711593627930e-01,2.110355794429779053e-01,-6.127518415451049805e-02,4.542028531432151794e-02,-1.671407669782638550e-01,-8.975801616907119751e-02,-8.063998818397521973e-02,-1.114712134003639221e-01,-1.681764572858810425e-01,-9.548021480441093445e-03,9.114148467779159546e-02,-4.525972902774810791e-01,-3.678684830665588379e-01,-1.379241108894348145e+00,-3.233646154403686523e-01,2.025880664587020874e-02,-8.681659400463104248e-02,-3.497245311737060547e-01,-4.420695602893829346e-01,-5.225336179137229919e-02,-1.997845768928527832e-01,5.539628118276596069e-02,-1.119336020201444626e-02,2.206103410571813583e-03,-1.121003478765487671e-01,-5.685319006443023682e-02,2.225174009799957275e-01,2.998833358287811279e-01,2.385628819465637207e-01,3.055980429053306580e-02,-1.248939111828804016e-01,1.179550774395465851e-02,4.942812025547027588e-03,-3.135870695114135742e-01,-2.757085859775543213e-01,-4.125068187713623047e-01,-2.490079402923583984e-01,-1.062635406851768494e-01,-1.261135488748550415e-01,-2.852457761764526367e-01,-6.511127948760986328e-01,-1.050368666648864746e+00,4.695476591587066650e-01,2.841724157333374023e-01,-7.135874778032302856e-02,1.813583448529243469e-02,-7.024863958358764648e-01,-6.466726660728454590e-01,-7.913465499877929688e-01,1.890347455628216267e-03,7.923969626426696777e-02,-2.369012087583541870e-01,7.542662322521209717e-02,1.123318672180175781e-01,1.018498167395591736e-01,1.381354033946990967e-01,1.664936542510986328e-01,4.352505803108215332e-01,1.234292909502983093e-01,7.528918981552124023e-02,-8.485710248351097107e-03,2.688102982938289642e-02,-2.068224847316741943e-01,-3.441246971487998962e-02,-1.500015556812286377e-01,-1.627131551504135132e-01,3.533647954463958740e-01,1.792742870748043060e-03,-6.220454573631286621e-01,-6.226025223731994629e-01,5.197633504867553711e-01,2.407613247632980347e-01,-1.313713937997817993e-02,-2.995071932673454285e-02,-6.033746004104614258e-01,-1.183367490768432617e+00,-1.025675415992736816e+00,-2.652873396873474121e-01,-7.866427302360534668e-02,5.657112225890159607e-02,9.348692744970321655e-02,2.513507306575775146e-01,2.909320592880249023e-01,4.342223703861236572e-01,1.980539858341217041e-01,2.278658002614974976e-01,1.765449345111846924e-01,1.190548837184906006e-01,-7.436940912157297134e-03,1.599625647068023682e-01,-4.182172119617462158e-01,-4.752557277679443359e-01,-5.127211213111877441e-01,-1.299899369478225708e-01,-1.370996423065662384e-02,-5.192056298255920410e-01,-9.453124403953552246e-01,-6.274818181991577148e-01,-6.121188998222351074e-01,-4.429444670677185059e-04,-5.417893454432487488e-02,7.837244123220443726e-02,-4.453299641609191895e-01,-7.067332267761230469e-01,-1.783057153224945068e-01,-1.454452574253082275e-01,-5.845564603805541992e-01,-4.456667900085449219e-01,-3.920577466487884521e-02,1.646106243133544922e-01,1.012957692146301270e-01,-1.713029891252517700e-01,2.700962126255035400e-01,2.044709771871566772e-01,6.438354402780532837e-02,1.097388863563537598e-01,-1.205694228410720825e-01,3.146470710635185242e-02,-2.837480902671813965e-01,-8.784760236740112305e-01,-1.125464439392089844e+00,-1.229240894317626953e+00,-1.066124081611633301e+00,-1.474581599235534668e+00,-8.138297200202941895e-01,-2.642395198345184326e-01,3.713974356651306152e-02,-8.438438177108764648e-03,4.432631283998489380e-02,-1.125967502593994141e-02,-1.961081773042678833e-01,-4.081065952777862549e-01,-7.428144216537475586e-01,-1.598256111145019531e+00,-1.386539340019226074e+00,-9.766947031021118164e-01,-9.675536751747131348e-01,-9.658348560333251953e-01,-1.296538233757019043e+00,-7.761408090591430664e-01,-1.316583633422851562e+00,-1.130734682083129883e+00,-1.424268722534179688e+00,-1.510868906974792480e+00,-1.474169731140136719e+00,-1.488036990165710449e+00,-1.727471709251403809e+00,-2.142045497894287109e+00,-1.335162878036499023e+00,-1.598967790603637695e+00,-1.211608052253723145e+00,-1.139384150505065918e+00,-1.132075786590576172e+00,3.254545480012893677e-02,-4.919647797942161560e-02,5.156760662794113159e-02,-7.283268868923187256e-02,5.088531225919723511e-02,8.529105037450790405e-02,3.241097927093505859e-02,-1.227514147758483887e-01,-8.678309321403503418e-01,-1.015683412551879883e+00,-1.079858183860778809e+00,-1.997157454490661621e+00,-1.757324218750000000e+00,-1.961578011512756348e+00,-2.119885444641113281e+00,-2.174098491668701172e+00,-1.480660796165466309e+00,-1.188760161399841309e+00,-1.574756383895874023e+00,-1.627514600753784180e+00,-1.293862819671630859e+00,-1.471539974212646484e+00,-1.743450164794921875e+00,-7.084944844245910645e-01,-1.210922479629516602e+00,-6.332047581672668457e-01,-6.173600554466247559e-01,-5.474166572093963623e-02,3.975919261574745178e-02,-3.836051374673843384e-02,6.879128515720367432e-03,-1.994926482439041138e-02,-4.438322782516479492e-02,-6.575275212526321411e-02,-1.291406899690628052e-02,-7.326401025056838989e-02,-3.994379076175391674e-04,-2.330688685178756714e-01,-2.901537120342254639e-01,-5.033513903617858887e-01,-4.775252044200897217e-01,-7.774928212165832520e-01,-7.395417094230651855e-01,-9.245706200599670410e-01,-7.783594727516174316e-01,-1.074682593345642090e+00,-1.195120930671691895e+00,-8.824954032897949219e-01,-8.184269666671752930e-01,-6.435034871101379395e-01,-5.523987412452697754e-01,-4.694459438323974609e-01,-7.231930494308471680e-01,-5.945835709571838379e-01,-6.291633844375610352e-01,-2.086811512708663940e-02,-3.748126327991485596e-03,-5.165956169366836548e-02,-6.453216075897216797e-02
7.870847731828689575e-02,-4.384388774633407593e-02,-6.977932155132293701e-02,-8.631972223520278931e-02,-4.477257654070854187e-02,5.665961652994155884e-02,-1.866725087165832520e-02,-1.198250055313110352e-02,-1.219905912876129150e-03,2.256610989570617676e-02,-6.551751494407653809e-02,-2.505066618323326111e-02,-1.368653774261474609e-02,-9.499998390674591064e-02,-1.220411900430917740e-02,-8.263950794935226440e-02,4.349217563867568970e-02,-2.283297479152679443e-02,5.833374708890914917e-02,-1.203203201293945312e-02,-1.791743934154510498e-02,-3.665807843208312988e-02,3.855130821466445923e-02,3.285942226648330688e-02,-1.474796980619430542e-02,-5.892222002148628235e-02,-6.868848204612731934e-02,-3.485077247023582458e-02,-2.370251715183258057e-02,-2.490718662738800049e-02,1.572890579700469971e-02,-6.587913632392883301e-02,-1.521079894155263901e-02,-3.786675399169325829e-03,3.084840439260005951e-02,-1.567634046077728271e-01,-5.867884159088134766e-01,-5.152769684791564941e-01,-5.784851908683776855e-01,-2.780840396881103516e-01,-5.196669101715087891e-01,-9.937095046043395996e-01,6.483365297317504883e-01,3.927412331104278564e-01,-1.152175188064575195e+00,-1.003161430358886719e+00,-5.845048427581787109e-01,-1.844744943082332611e-02,-3.146968036890029907e-02,-6.799042224884033203e-02,7.348184008151292801e-03,-9.183462709188461304e-02,-5.942013114690780640e-02,4.534745961427688599e-02,-2.958729863166809082e-02,5.023827403783798218e-02,-3.855628892779350281e-02,-7.393568754196166992e-02,-2.081428654491901398e-02,-8.377776481211185455e-03,-1.051277592778205872e-01,-7.544091343879699707e-02,-1.889322549104690552e-01,-7.040181159973144531e-01,-7.163455486297607422e-01,-6.984925270080566406e-01,-1.127910494804382324e+00,-1.018813848495483398e+00,-3.512575924396514893e-01,6.730301976203918457e-01,3.669188022613525391e-01,7.303453087806701660e-01,7.488284111022949219e-01,2.422625385224819183e-02,-8.650860935449600220e-02,2.176620066165924072e-01,-4.550127685070037842e-02,-1.086189746856689453e+00,-7.584783434867858887e-01,-7.030026316642761230e-01,-4.743196368217468262e-01,-2.038742303848266602e-01,-3.073219582438468933e-02,6.495855748653411865e-03,-3.650487586855888367e-02,6.826419383287429810e-02,5.545901060104370117e-01,5.376546382904052734e-01,-2.989879548549652100e-01,-8.529025316238403320e-01,-1.088756918907165527e+00,-1.377874612808227539e+00,-1.237490892410278320e+00,-6.037690043449401855e-01,-9.273705482482910156e-01,-1.161001086235046387e+00,-2.003111243247985840e-01,-5.494235828518867493e-02,-4.759339988231658936e-01,-1.458283960819244385e-01,1.219366192817687988e-01,-2.770815789699554443e-01,-7.008150815963745117e-01,-1.833807229995727539e-01,-3.171879947185516357e-01,-5.070715546607971191e-01,-7.362350225448608398e-01,-1.094583153724670410e+00,-1.628300786018371582e+00,-6.350958943367004395e-01,-6.014876365661621094e-01,-3.872310742735862732e-02,-5.922551825642585754e-02,3.703976795077323914e-02,6.013779044151306152e-01,-9.393962472677230835e-02,1.801229268312454224e-01,2.544463276863098145e-01,1.200779825448989868e-01,-2.819930016994476318e-01,2.603932023048400879e-01,-1.729999929666519165e-01,3.096540831029415131e-02,-3.881233632564544678e-01,-2.340493947267532349e-01,1.325871646404266357e-01,1.233451068401336670e-03,4.310300573706626892e-03,-6.278415024280548096e-02,-1.100904494524002075e-01,-2.154683172702789307e-01,1.781823039054870605e-01,-3.216065093874931335e-02,6.145465373992919922e-02,-4.513711631298065186e-01,-3.880792260169982910e-01,-1.285014748573303223e+00,-1.341768741607666016e+00,-1.191802501678466797e+00,-6.105356216430664062e-01,-2.533106505870819092e-02,6.552395969629287720e-02,5.639897584915161133e-01,5.857761502265930176e-01,8.240996003150939941e-01,5.068489313125610352e-01,4.379629194736480713e-01,-1.914961934089660645e-01,-6.651731133460998535e-01,-5.446518659591674805e-01,-3.725500404834747314e-01,-6.855441331863403320e-01,-5.345236063003540039e-01,-1.461308002471923828e-01,-1.950946301221847534e-01,4.658827185630798340e-02,-2.336460351943969727e-01,-4.886098802089691162e-01,-2.347624897956848145e-01,-2.455430775880813599e-01,-9.607488662004470825e-02,3.036300539970397949e-01,1.940616816282272339e-01,2.360714673995971680e-01,-9.299474954605102539e-02,-1.880471467971801758e+00,-9.518854618072509766e-01,-4.907471537590026855e-01,-1.484535634517669678e-02,-1.036705821752548218e-01,-7.828667759895324707e-01,2.798923552036285400e-01,7.644581794738769531e-01,-1.186695620417594910e-01,8.388121426105499268e-02,-4.114789366722106934e-01,-5.128646492958068848e-01,-5.061402320861816406e-01,-2.761702239513397217e-01,-1.433705687522888184e-01,-2.827869057655334473e-01,-2.958782315254211426e-01,-3.043885231018066406e-01,-4.191566407680511475e-01,-3.756601512432098389e-01,-4.343118369579315186e-01,-9.755235910415649414e-02,-3.110609054565429688e-01,-1.399158220738172531e-02,-1.087379157543182373e-01,-9.273357689380645752e-02,1.748537719249725342e-01,-1.690977960824966431e-01,-2.454712152481079102e+00,-8.711706995964050293e-01,-4.770569503307342529e-01,4.377801902592182159e-03,-5.483879446983337402e-01,-6.806318759918212891e-01,-1.057138562202453613e+00,1.485995501279830933e-01,-6.573620438575744629e-01,-8.258729577064514160e-01,-1.712034344673156738e-01,-7.241329550743103027e-01,-2.639645636081695557e-01,-7.195749878883361816e-02,-3.233418166637420654e-01,-2.023866586387157440e-02,-3.170343339443206787e-01,-1.486378163099288940e-01,-4.569216370582580566e-01,-3.074380457401275635e-01,-2.084772586822509766e-01,-2.709084153175354004e-01,3.021686896681785583e-02,1.338040232658386230e-01,-2.486189454793930054e-02,-1.623537838459014893e-01,-2.578504085540771484e-01,-1.207271933555603027e+00,-2.361346721649169922e+00,-8.110482692718505859e-01,-6.182597875595092773e-01,-6.987204402685165405e-02,-6.362055540084838867e-01,-5.076709985733032227e-01,-8.493370413780212402e-01,-6.908789277076721191e-02,-8.380302190780639648e-01,-7.925077676773071289e-01,-1.625889092683792114e-01,-4.346811473369598389e-01,-6.274903416633605957e-01,-2.030045539140701294e-01,-2.589733302593231201e-01,-7.545950263738632202e-02,5.936475470662117004e-02,3.607277572154998779e-02,-1.902569783851504326e-03,-2.216377407312393188e-01,6.637778878211975098e-02,-1.200456619262695312e-01,-6.382697075605392456e-02,-3.042117655277252197e-01,-3.682605922222137451e-01,-1.942643672227859497e-01,-7.657499909400939941e-01,-1.529572367668151855e+00,-2.226458549499511719e+00,-1.303928136825561523e+00,-5.933646559715270996e-01,-2.520169615745544434e-01,-4.293492734432220459e-01,-6.328715682029724121e-01,-7.545753717422485352e-01,-4.473586380481719971e-01,-1.132348418235778809e+00,-5.407005548477172852e-01,1.643659919500350952e-01,4.343245550990104675e-02,-3.134441077709197998e-01,-1.583542078733444214e-01,-4.809190332889556885e-02,-1.315231770277023315e-01,6.312802433967590332e-02,1.808504015207290649e-01,4.888342320919036865e-01,1.602677106857299805e-01,-1.939746923744678497e-02,-1.153434365987777710e-01,-3.238935172557830811e-01,-5.140844583511352539e-01,-2.623295783996582031e-01,-2.325045615434646606e-01,-9.527506232261657715e-01,-1.049079418182373047e+00,-1.956344366073608398e+00,-7.011699676513671875e-01,-7.155384421348571777e-01,-2.140360623598098755e-01,-1.111321523785591125e-01,-5.496702194213867188e-01,-7.187302708625793457e-01,-4.864858090877532959e-01,-1.367367029190063477e+00,-9.666063785552978516e-01,-3.297963440418243408e-01,-2.037853747606277466e-02,-3.915374279022216797e-01,3.533111885190010071e-02,6.015647202730178833e-02,-3.945085406303405762e-02,3.124741911888122559e-01,5.342160463333129883e-01,8.809284567832946777e-01,3.882579505443572998e-01,1.144829764962196350e-01,-3.007208704948425293e-01,-2.442726492881774902e-01,-5.485991835594177246e-01,3.040124848484992981e-02,-3.023247122764587402e-01,-8.412637114524841309e-01,-2.475445270538330078e+00,-4.945902824401855469e-01,-5.196802616119384766e-01,5.089784860610961914e-01,-8.574130386114120483e-02,4.288754165172576904e-01,3.287551999092102051e-01,-6.601496338844299316e-01,-2.303822636604309082e-01,-6.893271803855895996e-01,-1.231089830398559570e+00,-6.687408685684204102e-01,-4.995770156383514404e-01,-5.160584449768066406e-01,-2.106817513704299927e-01,-1.374282091856002808e-01,-2.507058084011077881e-01,3.510229587554931641e-01,7.645198106765747070e-01,6.716420054435729980e-01,2.141611278057098389e-01,-1.427045315504074097e-01,1.616063527762889862e-02,-1.733436584472656250e-01,-1.137547492980957031e-01,-1.981999725103378296e-01,-4.076551198959350586e-01,-2.993803620338439941e-01,-1.862833142280578613e+00,-2.846734523773193359e-01,-5.038737058639526367e-01,4.952418804168701172e-01,7.016099244356155396e-02,-4.024063646793365479e-01,-6.052955389022827148e-01,-1.499642431735992432e-01,1.982430964708328247e-01,-4.355252981185913086e-01,-3.781663253903388977e-02,4.907814413309097290e-02,-3.595423102378845215e-01,-4.847810417413711548e-02,-4.571178853511810303e-01,-4.652400612831115723e-01,-1.439913641661405563e-02,3.034851849079132080e-01,8.717607855796813965e-01,5.541525483131408691e-01,9.651794284582138062e-02,4.467816278338432312e-02,-1.879772357642650604e-02,-4.087953865528106689e-01,-1.596990078687667847e-01,5.313986912369728088e-02,3.664259240031242371e-02,2.057689875364303589e-01,-1.575826406478881836e+00,-3.225983679294586182e-01,-7.339878082275390625e-01,2.131330668926239014e-01,4.155934751033782959e-01,-1.341312378644943237e-01,-5.902635455131530762e-01,6.008615493774414062e-01,3.749935030937194824e-01,-2.802015468478202820e-02,-3.294844925403594971e-02,-2.944074571132659912e-01,1.052771434187889099e-01,-7.632599771022796631e-02,-8.983518481254577637e-01,-7.368550300598144531e-01,-1.259350031614303589e-01,2.642537355422973633e-01,6.341849565505981445e-01,4.752239286899566650e-01,1.917080134153366089e-01,3.236613869667053223e-01,-4.131007492542266846e-01,-5.607373118400573730e-01,-2.397365570068359375e-01,-8.592052757740020752e-02,-7.565356492996215820e-01,-1.016290187835693359e+00,-1.954988598823547363e+00,-5.627362132072448730e-01,-7.761681675910949707e-01,-5.275730490684509277e-01,-7.967788726091384888e-02,-2.253093942999839783e-02,4.364283978939056396e-01,7.807193398475646973e-01,7.394106984138488770e-01,8.872408419847488403e-02,-6.318020820617675781e-01,-8.810353279113769531e-01,3.089150786399841309e-01,-3.345355093479156494e-01,-9.134991168975830078e-01,-6.589308977127075195e-01,3.947350755333900452e-02,2.954573035240173340e-01,7.146941423416137695e-01,4.877649843692779541e-01,1.914185881614685059e-01,4.008552059531211853e-02,-5.568434596061706543e-01,-5.374594926834106445e-01,-2.375257462263107300e-01,-2.860399782657623291e-01,4.728540778160095215e-03,-1.460041999816894531e-01,-4.395328462123870850e-02,-1.274398118257522583e-01,3.483468294143676758e-01,-2.419984787702560425e-01,-5.860401690006256104e-02,-6.164873391389846802e-02,6.704663038253784180e-01,7.526682615280151367e-01,5.873775482177734375e-01,-1.042439818382263184e+00,-1.266798734664916992e+00,-9.809960424900054932e-02,2.377704679965972900e-01,-3.719022572040557861e-01,-6.934356093406677246e-01,-2.230580598115921021e-01,2.487798035144805908e-01,4.691762030124664307e-01,7.814011573791503906e-01,5.548398941755294800e-02,3.761353492736816406e-01,-4.939651191234588623e-01,-7.618376612663269043e-01,-1.315395951271057129e+00,-1.209005236625671387e+00,-4.495251476764678955e-01,-5.798039436340332031e-01,-1.005990862846374512e+00,-4.194356203079223633e-01,-7.179222106933593750e-01,-4.719414412975311279e-01,-6.643911004066467285e-01,-7.038594037294387817e-02,4.143403470516204834e-01,7.466012239456176758e-01,-4.733603000640869141e-01,9.519317001104354858e-02,-5.703169703483581543e-01,-5.976590514183044434e-01,-2.061143219470977783e-01,-2.137375771999359131e-01,7.665715366601943970e-02,-2.292827069759368896e-01,-1.788670420646667480e-01,-1.158836632966995239e-01,4.656380116939544678e-01,6.592102646827697754e-01,-2.023312449455261230e-01,-7.776722311973571777e-02,-1.131980180740356445e+00,-7.918382883071899414e-01,-8.376371264457702637e-01,-3.573348522186279297e-01,-1.703820824623107910e-01,-5.509636998176574707e-01,-1.049998044967651367e+00,-5.855267494916915894e-02,-1.058717966079711914e+00,-3.201361000537872314e-01,-7.487928271293640137e-01,-3.430544212460517883e-02,6.301071047782897949e-01,3.595064580440521240e-01,-8.712520599365234375e-01,5.849321186542510986e-02,-7.797366380691528320e-01,-6.593338251113891602e-01,-2.128335684537887573e-01,-8.896237611770629883e-02,-3.120398819446563721e-01,-1.143267378211021423e-01,-3.897970616817474365e-01,-5.050757434219121933e-03,4.191942512989044189e-01,5.713216066360473633e-01,-2.851734682917594910e-02,-5.054338574409484863e-01,-8.505425453186035156e-01,-4.133758246898651123e-01,-9.435281902551651001e-02,-1.165956184267997742e-01,-3.782990947365760803e-02,1.676352769136428833e-01,-1.790024340152740479e-01,-1.223322562873363495e-02,-9.081723093986511230e-01,-1.153169348835945129e-01,-9.726737141609191895e-01,-1.985168308019638062e-01,5.799455642700195312e-01,-5.502474904060363770e-01,-1.336571574211120605e+00,-1.876461386680603027e+00,-1.296620845794677734e+00,-1.516240000724792480e+00,-5.048874020576477051e-01,-1.364591065794229507e-02,-9.273572266101837158e-02,-3.231239318847656250e-01,-2.913813889026641846e-01,-7.438047230243682861e-02,1.130122393369674683e-01,1.855081766843795776e-01,-3.392374515533447266e-01,-6.717603802680969238e-01,-2.201943099498748779e-01,7.223840057849884033e-02,-9.897668659687042236e-02,1.486612409353256226e-01,1.195510104298591614e-02,-2.727193832397460938e-01,-3.077530562877655029e-01,-7.430562376976013184e-02,-2.207716368138790131e-02,3.174091279506683350e-01,5.957423448562622070e-01,4.198533892631530762e-01,3.638154864311218262e-01,-3.111746907234191895e-02,-6.262624859809875488e-01,-1.552764415740966797e+00,-2.179237365722656250e+00,-4.713340103626251221e-01,1.149223893880844116e-01,-1.306216418743133545e-01,9.377712011337280273e-02,-8.997278660535812378e-02,-2.306946516036987305e-01,-1.985734254121780396e-01,8.270753920078277588e-02,-1.362557113170623779e-01,-9.229201078414916992e-02,2.838747501373291016e-01,-1.648613512516021729e-01,3.802623972296714783e-02,2.959244549274444580e-01,1.081547737121582031e-01,-1.213981136679649353e-01,-1.169043332338333130e-01,-1.117521338164806366e-02,2.887924015522003174e-01,5.024976134300231934e-01,3.146310150623321533e-01,7.079379558563232422e-01,8.002033084630966187e-02,-2.422619313001632690e-01,-8.582369089126586914e-01,-5.204551294445991516e-02,-4.484021961688995361e-01,-1.396564006805419922e+00,-2.484489083290100098e-01,-6.174362823367118835e-02,1.621029525995254517e-01,1.324541419744491577e-01,2.128079235553741455e-01,1.773623973131179810e-01,1.398722976446151733e-01,-1.344169676303863525e-01,-4.329426959156990051e-02,-6.975092925131320953e-03,3.470354676246643066e-01,2.690137922763824463e-01,6.094998717308044434e-01,3.525868058204650879e-01,2.082725800573825836e-02,-1.799633353948593140e-02,-6.550692021846771240e-02,-1.989558190107345581e-01,1.793191581964492798e-01,3.166500329971313477e-01,4.784093201160430908e-01,4.838058054447174072e-01,5.610522627830505371e-01,3.466092348098754883e-01,-3.353210091590881348e-01,4.378777146339416504e-01,5.040356516838073730e-01,6.748221516609191895e-01,3.780223429203033447e-01,1.805032938718795776e-01,1.858667135238647461e-01,8.215476572513580322e-02,4.087146222591400146e-01,-7.600771635770797729e-02,-1.494913548231124878e-01,-2.153343111276626587e-01,1.522321105003356934e-01,1.733646541833877563e-01,9.076633304357528687e-02,5.054935067892074585e-02,4.478558301925659180e-01,1.464221924543380737e-01,4.117363989353179932e-01,4.911084771156311035e-01,-5.967614650726318359e-01,-5.830632448196411133e-01,6.049648523330688477e-01,4.572167694568634033e-01,-6.594253331422805786e-02,-5.469471216201782227e-02,5.425624847412109375e-01,3.698702156543731689e-01,-2.339510172605514526e-01,9.399486333131790161e-02,4.418396651744842529e-01,1.413949608802795410e+00,4.715224504470825195e-01,1.377346217632293701e-01,1.154938936233520508e-01,1.152918860316276550e-01,-1.770175993442535400e-01,-3.769247531890869141e-01,-5.741013884544372559e-01,-4.184665381908416748e-01,-1.189334541559219360e-01,9.189749136567115784e-03,-2.801594324409961700e-02,3.135801255702972412e-01,4.052416384220123291e-01,3.311934769153594971e-01,4.925138652324676514e-01,1.940829455852508545e-01,-6.792214512825012207e-01,-3.481676578521728516e-01,5.331030488014221191e-01,5.502131581306457520e-01,7.179046869277954102e-01,-1.798548386432230473e-03,6.792300194501876831e-02,5.083852261304855347e-02,-8.270177245140075684e-01,-9.835691452026367188e-01,-9.105229973793029785e-01,3.560698926448822021e-01,2.303792983293533325e-01,-1.009974777698516846e-01,-1.460331678390502930e-01,-4.743773490190505981e-02,-2.455278486013412476e-01,-1.662980020046234131e-01,2.293204814195632935e-01,-1.171298623085021973e-01,-2.601287961006164551e-01,1.937113553285598755e-01,1.079367548227310181e-01,3.861242532730102539e-01,-2.785519957542419434e-01,8.474438637495040894e-02,-9.659224003553390503e-02,-4.246585369110107422e-01,-5.980816483497619629e-01,-1.385262012481689453e+00,-7.927225232124328613e-01,6.048397347331047058e-02,9.066876769065856934e-01,2.797596156597137451e-03,4.702190309762954712e-02,3.017977625131607056e-02,-1.401383131742477417e-01,-7.574229240417480469e-01,-1.502402544021606445e+00,-2.775014638900756836e-01,-1.410927623510360718e-01,-2.241820245981216431e-01,-3.615192472934722900e-01,-3.343782201409339905e-02,-1.867626756429672241e-01,-2.332290858030319214e-01,-2.555586397647857666e-01,-3.985617756843566895e-01,-4.076381027698516846e-01,-1.655678451061248779e-01,-9.688000082969665527e-01,9.781945496797561646e-02,1.990416347980499268e-01,2.574157118797302246e-01,2.791789174079895020e-02,-1.722207069396972656e-01,-4.575746953487396240e-01,-9.307119846343994141e-01,-6.123663783073425293e-01,4.414348602294921875e-01,6.160896420478820801e-01,-3.633925691246986389e-02,7.401845604181289673e-02,-2.661845088005065918e-02,5.769206956028938293e-02,-7.230818867683410645e-01,-1.762202262878417969e+00,-1.330798387527465820e+00,-1.059637427330017090e+00,-1.482066988945007324e+00,-5.880939364433288574e-01,-7.636025547981262207e-01,-1.996230006217956543e+00,-2.095761537551879883e+00,-6.972994804382324219e-01,-7.745491266250610352e-01,-7.910468578338623047e-01,-1.053063869476318359e+00,-2.198796987533569336e+00,-2.412284135818481445e+00,-3.129021406173706055e+00,-2.311090707778930664e+00,-1.913145303726196289e+00,-1.432591319084167480e+00,-9.136070013046264648e-01,-5.894914269447326660e-01,-4.845767021179199219e-01,-2.713741660118103027e-01,-1.737015843391418457e-01,-1.832561194896697998e-02,-4.989209026098251343e-02,8.569408208131790161e-02,-3.243297338485717773e-03,-4.500772655010223389e-01,-7.890269160270690918e-01,-1.288715004920959473e+00,-9.960419535636901855e-01,-9.250764250755310059e-01,-1.824406862258911133e+00,-1.693464279174804688e+00,-8.810818791389465332e-01,-1.578050255775451660e+00,-2.247174739837646484e+00,-1.843555331230163574e+00,-1.450318217277526855e+00,-6.332330107688903809e-01,-7.074710726737976074e-01,-1.932171225547790527e+00,-9.902029037475585938e-01,-1.146373510360717773e+00,-1.283650159835815430e+00,-8.771309852600097656e-01,-6.449925899505615234e-01,-5.668612718582153320e-01,-6.410689651966094971e-02,3.886938840150833130e-02,7.405959814786911011e-02,-8.186104148626327515e-02,-7.944763451814651489e-02,1.182801276445388794e-02,1.693857461214065552e-02,1.535075157880783081e-02,2.435950562357902527e-02,1.581517420709133148e-02,-1.050574257969856262e-01,-2.831476368010044098e-02,-1.307992339134216309e-01,-3.655660524964332581e-02,-5.673983693122863770e-01,-8.217855095863342285e-01,-5.702236294746398926e-01,-8.695705533027648926e-01,-1.058163881301879883e+00,-5.750892162322998047e-01,-4.328623414039611816e-01,-5.145978927612304688e-01,-5.940805077552795410e-01,-5.774365663528442383e-01,-1.413963735103607178e-01,-1.781376302242279053e-01,-4.581831768155097961e-02,-2.097306773066520691e-02,3.429485112428665161e-02,7.945252209901809692e-02,-7.546319812536239624e-02,2.753774821758270264e-02
-1.022151857614517212e-02,4.477582871913909912e-03,-6.635551154613494873e-02,1.302429288625717163e-02,-5.627507343888282776e-02,-8.011780679225921631e-03,-2.152995765209197998e-02,7.006906718015670776e-02,3.148364275693893433e-02,-2.523620426654815674e-02,9.237885475158691406e-03,-2.989538386464118958e-02,-3.720736503601074219e-01,-3.011732101440429688e-01,4.702112972736358643e-01,1.670709401369094849e-01,-2.797267585992813110e-02,6.074159592390060425e-02,7.005051523447036743e-02,-4.256408661603927612e-02,-5.115220323204994202e-02,8.039375394582748413e-02,-1.112674176692962646e-02,4.360304027795791626e-02,4.073803871870040894e-02,-4.078859090805053711e-02,1.468572765588760376e-02,-4.680479690432548523e-02,7.927117496728897095e-02,5.444350093603134155e-02,4.652965813875198364e-02,2.957966923713684082e-02,-1.886516511440277100e-01,-3.652802407741546631e-01,-6.798537373542785645e-01,-6.098404526710510254e-01,-2.246866673231124878e-01,-1.500867009162902832e-01,-2.251032143831253052e-01,-6.224326491355895996e-01,-1.080371856689453125e+00,-7.002153992652893066e-01,-3.859638050198554993e-02,1.399968117475509644e-01,8.652868866920471191e-01,3.623781353235244751e-02,-1.031781554222106934e+00,-1.467751502990722656e+00,-1.082032561302185059e+00,-7.656791210174560547e-01,-6.354283690452575684e-01,-4.157550334930419922e-01,9.924769401550292969e-03,-1.239730417728424072e-02,4.394612461328506470e-02,5.226495116949081421e-02,-3.212372958660125732e-02,-8.068277686834335327e-02,2.909314818680286407e-03,-4.510674476623535156e-01,-9.393214583396911621e-01,4.419320449233055115e-02,1.904001235961914062e-01,-1.163311228156089783e-01,4.348460137844085693e-01,6.577072739601135254e-01,1.388520896434783936e-01,4.059188365936279297e-01,4.172165691852569580e-01,-4.902442917227745056e-02,-1.990502141416072845e-02,1.371546238660812378e-01,7.393064349889755249e-02,-1.054259836673736572e-01,-8.735954761505126953e-02,-3.997878730297088623e-01,-2.486285418272018433e-01,-1.346434801816940308e-01,-1.021489739418029785e+00,4.587178230285644531e-01,6.375853419303894043e-01,5.412622690200805664e-01,-4.702241346240043640e-02,8.212193846702575684e-03,-1.519680023193359375e-03,1.481228321790695190e-02,-4.740087687969207764e-01,-1.013634443283081055e+00,-7.979540228843688965e-01,-2.765695452690124512e-01,-9.761296212673187256e-02,2.081211358308792114e-01,-2.742601186037063599e-02,6.727769970893859863e-01,3.058572411537170410e-01,3.896484673023223877e-01,2.626078724861145020e-01,4.774668514728546143e-01,2.015336751937866211e-01,1.152486875653266907e-01,1.882518231868743896e-01,1.262723058462142944e-01,-2.985506653785705566e-01,-2.036215066909790039e-01,-4.089201986789703369e-01,-1.690380722284317017e-01,-2.127926200628280640e-01,-1.643249511718750000e+00,1.068131700158119202e-01,5.324957370758056641e-01,-4.462904632091522217e-01,7.229662686586380005e-02,-6.722007691860198975e-02,-4.471182823181152344e-01,-9.390239715576171875e-01,-7.247164845466613770e-01,-7.027831077575683594e-01,2.408997528254985809e-02,9.316887259483337402e-01,1.028973832726478577e-01,1.066148430109024048e-01,3.544270992279052734e-01,1.903069019317626953e-01,2.044795751571655273e-01,2.057313621044158936e-01,9.824226796627044678e-02,2.861317098140716553e-01,1.329409629106521606e-01,5.637570843100547791e-02,3.033377043902873993e-02,7.567636668682098389e-02,-1.196312829852104187e-01,-1.111792996525764465e-01,-3.749682307243347168e-01,-7.657516598701477051e-01,-1.033462882041931152e+00,-1.064594030380249023e+00,3.112573325634002686e-01,-6.290647387504577637e-01,-5.541448593139648438e-01,-6.091614067554473877e-02,6.091006100177764893e-03,2.230377346277236938e-01,-9.737236797809600830e-02,2.355482131242752075e-01,-3.083399496972560883e-02,-9.234438650310039520e-03,-9.937178343534469604e-02,8.821056038141250610e-02,3.868269734084606171e-03,-8.815777488052845001e-03,1.280306726694107056e-01,1.803791522979736328e-01,1.029123142361640930e-01,1.140564307570457458e-01,5.956508591771125793e-02,2.549709677696228027e-01,1.235031932592391968e-01,6.198981031775474548e-02,-4.795015975832939148e-02,4.081866890192031860e-02,4.382952675223350525e-02,5.288793146610260010e-02,2.123241312801837921e-03,-7.708284854888916016e-01,-8.100970834493637085e-02,-6.867378354072570801e-01,-5.475474596023559570e-01,-8.522021025419235229e-02,-5.081394314765930176e-01,-1.670919656753540039e-01,-1.700164079666137695e-01,2.242771983146667480e-01,-8.310446143150329590e-02,1.110387146472930908e-01,1.343000978231430054e-01,6.135726720094680786e-02,1.041717752814292908e-01,1.665958166122436523e-01,-1.004390791058540344e-01,-5.233045294880867004e-02,-6.052323803305625916e-02,-6.741128163412213326e-04,8.437215536832809448e-02,1.431832164525985718e-01,-6.920420378446578979e-02,-3.926467522978782654e-02,-1.499681174755096436e-01,-1.918852329254150391e-01,-1.807600855827331543e-01,-2.048065662384033203e-01,-8.227367401123046875e-01,-1.007522463798522949e+00,-4.949373602867126465e-01,-1.179654121398925781e+00,-6.982401013374328613e-01,7.190279662609100342e-02,-1.044417858123779297e+00,3.001530468463897705e-01,-2.705961093306541443e-02,3.836516439914703369e-01,1.016211733222007751e-01,1.806266307830810547e-01,-1.123748794198036194e-01,9.633561223745346069e-02,-9.780220687389373779e-02,-6.676074862480163574e-02,9.290656447410583496e-02,-7.688328623771667480e-02,2.505386769771575928e-01,6.457473337650299072e-02,-1.648008078336715698e-01,-5.116064473986625671e-02,-3.741767704486846924e-01,-8.756211400032043457e-02,-5.955107882618904114e-02,-1.749116182327270508e-01,-3.173001483082771301e-02,1.532545536756515503e-01,-9.284855127334594727e-01,-1.210059404373168945e+00,-2.609476745128631592e-01,-1.099751234054565430e+00,-9.678409099578857422e-01,-6.002458930015563965e-01,3.970904350280761719e-01,-3.425113111734390259e-02,-2.459684759378433228e-01,3.653491139411926270e-01,3.023346886038780212e-02,-1.077179536223411560e-01,-3.104628622531890869e-02,3.551609814167022705e-02,-4.732565209269523621e-02,1.514239162206649780e-01,8.920011669397354126e-02,-1.835285425186157227e-01,-7.783074676990509033e-02,5.669546499848365784e-02,1.177520081400871277e-01,-5.285147950053215027e-02,-2.116497419774532318e-02,-1.774148046970367432e-01,1.746388375759124756e-01,4.167510569095611572e-02,-9.750262647867202759e-02,-6.233478710055351257e-02,2.083883583545684814e-01,-1.813374519348144531e+00,-2.032792091369628906e+00,-1.066455245018005371e+00,-7.554234266281127930e-01,1.005982886999845505e-02,-1.023929119110107422e+00,-3.813483417034149170e-01,1.441617608070373535e-01,4.701105877757072449e-02,3.173381984233856201e-01,-2.066346108913421631e-01,-1.424539685249328613e-01,-1.657783240079879761e-01,1.096666008234024048e-01,1.922047138214111328e-01,-1.262738257646560669e-01,7.121510338038206100e-03,-6.904523074626922607e-02,1.000438556075096130e-01,2.307005077600479126e-01,1.378195732831954956e-01,2.619898505508899689e-02,-3.171655535697937012e-02,1.127475313842296600e-02,-2.705662511289119720e-02,-1.816251873970031738e-01,-1.023305356502532959e-01,-4.245771840214729309e-02,-1.741279363632202148e+00,-1.531744718551635742e+00,-3.109945654869079590e-01,-8.414131402969360352e-01,-8.175236172974109650e-03,-6.860671639442443848e-01,-3.011829853057861328e-01,4.565719962120056152e-01,-2.643685340881347656e-01,4.476781487464904785e-01,4.019773304462432861e-01,-6.621114909648895264e-02,-5.255666002631187439e-02,-1.708393990993499756e-01,-9.922879189252853394e-02,-3.444898128509521484e-02,-6.468234118074178696e-03,-2.225600779056549072e-01,-2.238907106220722198e-02,-1.478572785854339600e-01,-1.040623150765895844e-02,1.759575158357620239e-01,4.613503441214561462e-02,-7.622891664505004883e-02,-1.311969906091690063e-01,-1.718994230031967163e-01,-1.633135080337524414e-01,-2.834562361240386963e-01,-1.388070344924926758e+00,-7.754068970680236816e-01,-1.955479383468627930e-02,-1.082846164703369141e+00,-1.251485645771026611e-01,-1.028288125991821289e+00,-9.602186679840087891e-01,-2.963338792324066162e-01,-1.848316639661788940e-01,3.594912290573120117e-01,3.802656009793281555e-02,-3.247227966785430908e-01,-5.668639540672302246e-01,-5.842503309249877930e-01,-9.011147618293762207e-01,-6.512941122055053711e-01,-7.801679372787475586e-01,-1.036622047424316406e+00,-7.568478584289550781e-01,-5.338737368583679199e-01,-2.005230486392974854e-01,-3.976313471794128418e-01,-1.267281770706176758e-01,2.189185321331024170e-01,-6.664977967739105225e-02,1.071374565362930298e-01,-1.422455906867980957e-01,-2.370533347129821777e-01,-5.575376152992248535e-01,8.940064162015914917e-02,-3.047077059745788574e-01,-6.541715264320373535e-01,-1.905452609062194824e-01,-5.531130433082580566e-01,-1.221597313880920410e+00,-9.635196924209594727e-01,-3.665735721588134766e-01,-5.141957998275756836e-01,-1.009252429008483887e+00,-1.247019529342651367e+00,-6.245167851448059082e-01,-5.736633539199829102e-01,-6.016033887863159180e-01,-6.731545329093933105e-01,-5.915625095367431641e-01,-4.652665853500366211e-01,-5.035293102264404297e-01,-5.422770977020263672e-01,-3.710687458515167236e-01,-2.959948778152465820e-01,-2.970119118690490723e-01,1.487851887941360474e-01,-1.095074415206909180e-01,-1.170912384986877441e-01,-8.923927694559097290e-02,-6.150897741317749023e-01,2.095815241336822510e-01,6.813103556632995605e-01,7.622304558753967285e-01,1.494493484497070312e-01,-2.325704097747802734e-01,-6.470082998275756836e-01,-3.185027241706848145e-01,-7.214780449867248535e-01,-1.423861503601074219e+00,-1.196737289428710938e+00,-1.235853314399719238e+00,-8.987578153610229492e-01,-4.317057430744171143e-01,-2.882870733737945557e-01,-2.825871109962463379e-01,-9.211130440235137939e-03,-1.948748081922531128e-01,-3.998371772468090057e-03,-2.692721597850322723e-02,-3.718530535697937012e-01,-2.546122968196868896e-01,-1.773186177015304565e-01,-2.115005254745483398e-01,-2.262586653232574463e-01,-1.973359137773513794e-01,-4.499850049614906311e-02,-2.206618785858154297e-01,-1.484536230564117432e-01,8.413711786270141602e-01,1.077139377593994141e+00,1.628272175788879395e+00,7.459848523139953613e-01,-4.402379393577575684e-01,-7.582167983055114746e-01,-7.072641849517822266e-01,-4.711117148399353027e-01,-7.857865095138549805e-01,-8.924630880355834961e-01,-3.577835261821746826e-01,3.285929560661315918e-02,-6.953124701976776123e-02,-2.315774410963058472e-01,-1.153890565037727356e-01,-2.016766741871833801e-02,-8.517134934663772583e-02,1.090698093175888062e-01,-4.387939721345901489e-02,-1.933532953262329102e-01,-1.671182215213775635e-01,-3.192200660705566406e-01,-4.778003320097923279e-02,-9.668068587779998779e-02,-4.680579155683517456e-02,-2.821264564990997314e-01,-2.339009195566177368e-01,4.423258453607559204e-02,9.658192843198776245e-02,5.012850761413574219e-01,1.572124123573303223e+00,7.625008821487426758e-01,-3.959235846996307373e-01,-6.143380999565124512e-01,-7.725311517715454102e-01,2.129796892404556274e-01,2.435196340084075928e-01,4.239970743656158447e-01,3.219881355762481689e-01,-1.507618278264999390e-01,-6.227080151438713074e-02,-6.347473710775375366e-03,-2.921942062675952911e-02,-2.277836203575134277e-02,-1.095797419548034668e-01,1.292009055614471436e-01,-2.394996583461761475e-02,3.964404389262199402e-02,-1.913707330822944641e-02,-2.200616747140884399e-01,-2.076090872287750244e-01,-3.267739375587552786e-04,-3.231057226657867432e-01,-7.945272326469421387e-02,-4.076088964939117432e-01,-3.315832316875457764e-01,5.374701619148254395e-01,5.652473568916320801e-01,1.262942314147949219e+00,1.039000630378723145e+00,7.739702612161636353e-02,-6.943236589431762695e-01,-2.147256024181842804e-02,8.261105418205261230e-01,3.827638626098632812e-01,2.543901503086090088e-01,3.040657043457031250e-01,2.956642955541610718e-02,-2.714833915233612061e-01,1.028877720236778259e-01,2.240290194749832153e-01,1.292338818311691284e-01,3.535696268081665039e-01,3.301715552806854248e-01,1.626355051994323730e-01,-1.378002017736434937e-01,4.560872539877891541e-02,3.263873159885406494e-01,1.236279867589473724e-02,-7.762978784739971161e-03,-2.049630135297775269e-01,2.979377210140228271e-01,2.499912828207015991e-01,1.733597517013549805e-01,4.190455675125122070e-01,1.328526020050048828e+00,1.549354434013366699e+00,1.306129217147827148e+00,2.539645135402679443e-02,-7.735593914985656738e-01,3.263049721717834473e-01,5.715763568878173828e-01,1.638926714658737183e-01,3.190805613994598389e-01,3.578832745552062988e-01,1.000095233321189880e-01,1.264067087322473526e-02,1.973646134138107300e-01,2.992214262485504150e-01,2.344827353954315186e-01,3.695314824581146240e-01,2.938396334648132324e-01,-8.013341575860977173e-02,1.466646492481231689e-01,-4.460772126913070679e-02,-1.738481968641281128e-01,5.436048656702041626e-02,-8.227775990962982178e-02,-6.634138524532318115e-02,8.293934911489486694e-02,7.045671343803405762e-02,-1.518776863813400269e-01,9.725184738636016846e-02,1.316604852676391602e+00,8.838802576065063477e-01,1.440978884696960449e+00,-5.018020272254943848e-01,-7.986319661140441895e-01,-1.831045299768447876e-01,1.276512295007705688e-01,2.428511232137680054e-01,4.449352622032165527e-01,8.814659714698791504e-02,3.605340719223022461e-01,2.330941380932927132e-03,-4.855094477534294128e-02,2.381846457719802856e-01,1.252619773149490356e-01,3.811649382114410400e-01,1.973873972892761230e-01,1.152026280760765076e-01,-8.387643843889236450e-02,9.480237960815429688e-02,2.911302447319030762e-01,1.114306524395942688e-01,2.302336692810058594e-01,-2.859380561858415604e-03,7.409562170505523682e-02,2.091915905475616455e-01,4.051409959793090820e-01,6.987604498863220215e-01,1.075124740600585938e+00,-9.684532135725021362e-02,8.920144438743591309e-01,-4.112111330032348633e-01,-7.277693152427673340e-01,-2.661894559860229492e-01,-3.845922052860260010e-01,1.882636547088623047e-01,2.265507355332374573e-02,-4.391940310597419739e-02,2.705362439155578613e-01,2.250854372978210449e-01,2.711219489574432373e-01,2.364876270294189453e-01,1.614153385162353516e-01,1.916351020336151123e-01,4.115168154239654541e-01,1.904224753379821777e-01,2.020187973976135254e-01,3.101059198379516602e-01,2.489092797040939331e-01,7.110542058944702148e-02,-1.576414406299591064e-01,4.765621945261955261e-02,2.067510932683944702e-01,3.524598479270935059e-01,2.464428693056106567e-01,4.597827792167663574e-02,1.160633683204650879e+00,6.641687154769897461e-01,5.607773661613464355e-01,-5.600831657648086548e-02,-5.829605460166931152e-01,3.493399918079376221e-01,-9.564732899889349937e-04,2.742781341075897217e-01,1.338616311550140381e-01,2.587755918502807617e-01,4.080929756164550781e-01,1.685216575860977173e-01,1.641468405723571777e-01,2.381579279899597168e-01,3.186157047748565674e-01,2.088906764984130859e-01,7.390307635068893433e-02,-3.540483862161636353e-02,7.290120422840118408e-02,9.400509297847747803e-02,-1.451295316219329834e-01,5.933574959635734558e-02,3.196955621242523193e-01,2.591131925582885742e-01,2.969045937061309814e-01,2.057234644889831543e-01,3.591094911098480225e-02,3.267613053321838379e-01,4.104942083358764648e-01,-7.034401595592498779e-02,-5.198376774787902832e-01,-5.187318325042724609e-01,2.539905011653900146e-01,3.183663487434387207e-01,1.415434330701828003e-01,-1.148480623960494995e-01,-3.148321062326431274e-02,8.325364440679550171e-02,2.539926394820213318e-02,-1.801183819770812988e-01,2.240436673164367676e-01,1.457367390394210815e-01,1.045205593109130859e-01,-3.933242708444595337e-02,1.476661562919616699e-01,3.558965772390365601e-02,-1.590460389852523804e-01,1.314504742622375488e-01,3.398492336273193359e-01,3.094944655895233154e-01,4.497983157634735107e-01,-6.618844345211982727e-03,9.016494452953338623e-02,2.865291237831115723e-01,6.332089900970458984e-01,2.306933552026748657e-01,4.097850620746612549e-01,-1.316718757152557373e-01,-7.803472131490707397e-02,-4.511932730674743652e-01,-3.157818317413330078e-01,3.742699325084686279e-01,3.674198091030120850e-01,2.987882792949676514e-01,1.327334791421890259e-01,2.364758700132369995e-01,3.034528493881225586e-01,3.227564394474029541e-01,3.793148696422576904e-01,1.692106574773788452e-01,1.441094726324081421e-01,8.267123997211456299e-02,-1.145388372242450714e-02,-4.140261933207511902e-02,-1.364189386367797852e-01,7.087545469403266907e-03,-5.876470357179641724e-02,2.261664271354675293e-01,1.130395233631134033e-01,2.061140686273574829e-01,1.193019077181816101e-01,1.300366669893264771e-01,3.973792865872383118e-02,2.179710417985916138e-01,3.120701014995574951e-02,-6.203135251998901367e-01,-1.576138585805892944e-01,-6.988145411014556885e-03,-1.231833547353744507e-02,-3.456569090485572815e-02,-2.505695521831512451e-01,1.689939945936203003e-01,-3.856396302580833435e-02,1.001292690634727478e-01,1.629070341587066650e-01,7.969892024993896484e-02,1.013579592108726501e-01,-7.132454961538314819e-02,1.096590906381607056e-01,2.071610391139984131e-01,-1.696434170007705688e-01,-3.315754979848861694e-02,-4.127144441008567810e-02,4.746570251882076263e-03,-7.409624010324478149e-02,3.487147986888885498e-01,3.889002203941345215e-01,3.224858343601226807e-01,5.116103887557983398e-01,4.827710986137390137e-01,4.092619121074676514e-01,4.589682817459106445e-01,1.592098027467727661e-01,-6.355861425399780273e-01,6.537771970033645630e-02,5.695449560880661011e-02,-5.046235397458076477e-02,-7.485018968582153320e-01,-1.305655121803283691e+00,-8.115727901458740234e-01,-8.831022977828979492e-01,-5.133124589920043945e-01,-3.674310147762298584e-01,-6.612928211688995361e-02,9.951330721378326416e-02,-2.015207111835479736e-01,-4.513682425022125244e-02,1.349160820245742798e-01,-7.125387340784072876e-02,3.429584503173828125e-01,-7.330565154552459717e-02,-1.794839054346084595e-01,1.508805453777313232e-01,3.526279032230377197e-01,6.590265035629272461e-02,6.598728150129318237e-02,4.615470468997955322e-01,-5.674685165286064148e-02,-6.022049114108085632e-02,1.412808656692504883e+00,1.229454040527343750e+00,4.968992471694946289e-01,6.939152628183364868e-02,2.395343780517578125e-02,-6.641991436481475830e-03,-3.159809410572052002e-01,-6.324060559272766113e-01,-1.308862209320068359e+00,-2.643094062805175781e+00,-3.108150362968444824e-01,-6.920861005783081055e-01,-1.362191796302795410e+00,-1.663388133049011230e+00,-1.102910041809082031e+00,-9.393510222434997559e-01,-4.746822416782379150e-01,-3.595030903816223145e-01,6.726676970720291138e-02,2.155127376317977905e-01,6.477847695350646973e-03,-7.746724784374237061e-02,-4.738923311233520508e-01,-7.472231388092041016e-01,-6.538326740264892578e-01,-6.236330270767211914e-01,-1.364493370056152344e+00,-1.233278274536132812e+00,-6.485739350318908691e-01,3.942375183105468750e-01,4.649824202060699463e-01,-1.841027289628982544e-02,-3.570721298456192017e-02,-5.913057178258895874e-02,-6.597076356410980225e-02,-2.027056217193603516e-01,-7.482463121414184570e-01,-1.167138695716857910e+00,-1.159887194633483887e+00,-1.697461009025573730e+00,-1.570596218109130859e+00,-1.136263370513916016e+00,-2.313183784484863281e+00,-8.861128687858581543e-01,-2.765728473663330078e+00,-2.164536237716674805e+00,-2.391840457916259766e+00,-1.724232792854309082e+00,-1.729585289955139160e+00,-1.183793187141418457e+00,-1.643406271934509277e+00,-2.718440294265747070e+00,-1.623466372489929199e+00,-1.595215559005737305e+00,-1.352640390396118164e+00,-7.762837409973144531e-01,-9.810943156480789185e-02,-6.342552602291107178e-02,-1.060058921575546265e-02,6.850627809762954712e-02,7.040704041719436646e-02,-6.888046860694885254e-03,-7.954359799623489380e-02,-4.640448093414306641e-02,7.649806141853332520e-02,5.709841474890708923e-02,-1.379868090152740479e-01,-3.097726106643676758e-01,-3.013034462928771973e-01,-3.647192716598510742e-01,-7.700319886207580566e-01,-9.811610579490661621e-01,-8.667526245117187500e-01,-1.071802020072937012e+00,-1.053414344787597656e+00,-1.063747763633728027e+00,-8.530135154724121094e-01,-7.389895319938659668e-01,-8.328214287757873535e-01,-6.093249917030334473e-01,-5.665847063064575195e-01,-9.354728460311889648e-01,-5.937091708183288574e-01,-4.722208678722381592e-01,6.151191145181655884e-02,-7.426200807094573975e-02,3.698325902223587036e-02,-6.438480317592620850e-02
7.227598875761032104e-02,-8.084291964769363403e-02,5.151722580194473267e-02,8.495307713747024536e-02,7.573855668306350708e-02,-8.045274019241333008e-02,5.756934732198715210e-02,-5.595683306455612183e-02,-3.836971521377563477e-02,-6.306032091379165649e-02,-5.724784731864929199e-02,-6.345744431018829346e-02,-2.852004766464233398e-01,-3.850634694099426270e-01,-1.287414878606796265e-01,-1.976209692656993866e-02,-7.378484308719635010e-02,-1.215647161006927490e-02,5.865237861871719360e-02,-7.219150662422180176e-02,5.739805847406387329e-02,3.300309181213378906e-03,-2.961532026529312134e-02,3.777180612087249756e-02,6.416598707437515259e-02,5.693822354078292847e-02,-5.409255623817443848e-03,-1.023482531309127808e-02,-3.650784492492675781e-06,-3.283224999904632568e-02,-6.015843525528907776e-02,-8.025379478931427002e-02,-8.581835776567459106e-02,-5.606544390320777893e-02,-1.610404402017593384e-01,-1.724269092082977295e-01,-3.907488286495208740e-01,-2.781755030155181885e-01,-6.907072067260742188e-01,-8.111032843589782715e-01,-8.594534993171691895e-01,-1.171551823616027832e+00,-7.901130914688110352e-01,-9.203611016273498535e-01,-1.564268827438354492e+00,-1.006061196327209473e+00,-6.143288612365722656e-01,-5.835070013999938965e-01,-7.381463646888732910e-01,-2.241163402795791626e-01,-1.462754607200622559e-01,-4.356208443641662598e-02,8.581008762121200562e-02,-4.207206144928932190e-02,-6.136256828904151917e-02,3.932458907365798950e-02,5.845908075571060181e-02,-6.904099881649017334e-02,3.371755778789520264e-02,-1.077658459544181824e-01,-1.355509161949157715e-01,-5.811071395874023438e-01,-5.499267578125000000e-01,-6.914434432983398438e-01,-1.171602487564086914e+00,-1.887101411819458008e+00,-2.736633121967315674e-01,3.536007180809974670e-02,1.405206173658370972e-01,-2.739290297031402588e-01,-1.349711418151855469e-01,-5.985998511314392090e-01,-3.582202196121215820e-01,-4.449378848075866699e-01,-5.267538428306579590e-01,-8.219177722930908203e-01,-9.232929348945617676e-01,-1.260696411132812500e+00,-1.073693275451660156e+00,-9.696217179298400879e-01,-3.947312831878662109e-01,-1.158843003213405609e-02,7.645338028669357300e-02,4.570525139570236206e-02,4.431388527154922485e-02,7.070190459489822388e-02,-6.067484617233276367e-01,-6.674202084541320801e-01,-7.115097641944885254e-01,5.728505849838256836e-01,2.748743891716003418e-01,2.591921091079711914e-01,6.583068370819091797e-01,-6.744106858968734741e-02,2.370883524417877197e-01,5.113813281059265137e-01,5.950912237167358398e-01,1.464271694421768188e-01,4.448724687099456787e-01,3.663601875305175781e-01,2.838928699493408203e-01,1.473221182823181152e-01,3.100548684597015381e-01,1.572040915489196777e-01,7.287708520889282227e-01,-4.263880848884582520e-01,-1.191253662109375000e+00,-1.143391370773315430e+00,-7.545320987701416016e-01,-2.623612880706787109e-01,-1.003321353346109390e-02,7.477011531591415405e-02,-6.281492859125137329e-02,3.712718784809112549e-01,1.238417327404022217e-01,5.824753046035766602e-01,3.339418172836303711e-01,7.481398582458496094e-01,3.519709408283233643e-01,1.587419956922531128e-01,3.303176760673522949e-01,9.018769860267639160e-02,3.433147668838500977e-01,2.506558299064636230e-01,2.193256318569183350e-01,3.315675258636474609e-01,1.222063228487968445e-01,1.947195231914520264e-01,2.744554579257965088e-01,-1.666618883609771729e-02,2.474761605262756348e-01,6.780596822500228882e-02,-1.808732748031616211e-01,-3.449202775955200195e-01,-2.862042747437953949e-02,-1.657133460044860840e+00,-2.210728406906127930e+00,-1.390482544898986816e+00,-3.960041403770446777e-01,-2.439326792955398560e-01,1.482000946998596191e-02,7.114661484956741333e-02,-2.301239222288131714e-01,6.291787028312683105e-01,5.505926012992858887e-01,3.739323616027832031e-01,2.944632768630981445e-01,1.723462045192718506e-01,6.959975510835647583e-02,9.219601750373840332e-02,1.263456940650939941e-01,7.781841605901718140e-02,1.047562956809997559e-01,1.198763996362686157e-01,4.166505113244056702e-02,1.385926157236099243e-01,2.407676726579666138e-01,-7.891716063022613525e-02,2.962290681898593903e-02,1.469045728445053101e-01,-1.095134541392326355e-01,-9.271891415119171143e-02,-7.470912486314773560e-02,-5.254137516021728516e-01,-8.441910743713378906e-01,-2.940421819686889648e+00,-1.105885505676269531e+00,-2.572244703769683838e-01,-8.654863387346267700e-02,4.673604667186737061e-01,1.157171577215194702e-01,4.315829575061798096e-01,-5.745470151305198669e-02,-3.381320461630821228e-02,2.816410958766937256e-01,6.938681006431579590e-02,1.003422066569328308e-01,2.684253156185150146e-01,3.126231431961059570e-01,9.019288420677185059e-02,9.936813265085220337e-03,2.493584752082824707e-01,6.673651188611984253e-02,1.024764403700828552e-01,2.216194421052932739e-01,-5.429596174508333206e-03,2.352420538663864136e-01,-1.948929578065872192e-01,-8.445521816611289978e-03,4.836867377161979675e-02,-2.056911587715148926e-01,-1.895162016153335571e-01,-2.870282232761383057e-01,-3.594727516174316406e+00,-1.456160426139831543e+00,-1.942595094442367554e-01,-1.031042337417602539e-01,9.797996282577514648e-01,-4.785274863243103027e-01,-2.284383168444037437e-03,2.456255108118057251e-01,3.630722165107727051e-01,1.025891378521919250e-01,4.707083106040954590e-02,6.433597207069396973e-02,5.213645100593566895e-02,-1.463503576815128326e-02,-8.771786838769912720e-02,1.520132720470428467e-01,-3.655324876308441162e-02,2.602033317089080811e-01,1.716730892658233643e-01,-2.185554802417755127e-02,9.618093073368072510e-02,-9.996562451124191284e-02,9.289927780628204346e-02,-3.632466867566108704e-02,-3.564623296260833740e-01,-2.846189141273498535e-01,-2.296397835016250610e-01,-5.406008958816528320e-01,-3.323917865753173828e+00,-1.533778429031372070e+00,-7.370002865791320801e-01,-2.790348231792449951e-01,-2.117307633161544800e-01,-3.223814368247985840e-01,3.555520251393318176e-02,2.403909713029861450e-01,-6.577423214912414551e-02,-3.645455464720726013e-02,5.021031200885772705e-02,-1.390271782875061035e-01,-1.365305185317993164e-01,2.956267632544040680e-02,4.347583279013633728e-02,3.513318300247192383e-02,3.573031723499298096e-02,1.187173277139663696e-01,1.760637760162353516e-01,9.276682883501052856e-02,4.825645312666893005e-02,2.082127034664154053e-01,9.692730009555816650e-02,7.980176806449890137e-02,-1.319361627101898193e-01,3.363507390022277832e-01,-7.164739370346069336e-01,-1.759260654449462891e+00,-3.363347768783569336e+00,-1.517435789108276367e+00,-4.336151182651519775e-01,-5.214838981628417969e-01,-5.343721508979797363e-01,2.894759774208068848e-01,1.975633054971694946e-01,5.647051334381103516e-01,8.750477572903037071e-04,1.513083130121231079e-01,1.452139914035797119e-01,8.173917233943939209e-02,5.429728329181671143e-02,-8.692595362663269043e-02,-4.283930659294128418e-01,-2.391684800386428833e-01,-1.592603176832199097e-01,2.098190188407897949e-01,3.669498860836029053e-01,2.641830146312713623e-01,1.302121281623840332e-01,9.549023956060409546e-02,1.721430271863937378e-01,3.434821069240570068e-01,1.413022726774215698e-01,3.298498988151550293e-01,-2.389898002147674561e-01,-3.548776865005493164e+00,-7.474220991134643555e-01,-1.815108895301818848e+00,-5.983938574790954590e-01,-6.196485757827758789e-01,-7.261943817138671875e-01,-1.646505892276763916e-01,6.356523633003234863e-01,1.171208247542381287e-01,-2.238320708274841309e-01,8.093187212944030762e-02,-3.071434050798416138e-02,-2.855232954025268555e-01,-5.898227691650390625e-01,-5.202179551124572754e-01,-5.082263946533203125e-01,-5.066931843757629395e-01,4.788292571902275085e-02,1.160345599055290222e-01,7.562506198883056641e-02,1.578030586242675781e-01,1.992891430854797363e-01,1.434666812419891357e-01,1.459453105926513672e-01,2.370610386133193970e-01,-3.366297483444213867e-02,2.351523786783218384e-01,3.033521771430969238e-01,-3.090274095535278320e+00,-7.517198473215103149e-02,-1.861064791679382324e+00,-6.343228816986083984e-01,-6.401361227035522461e-01,-6.977016925811767578e-01,-2.848137868568301201e-03,1.019737005233764648e+00,3.760960996150970459e-01,-3.124814331531524658e-01,-2.267598956823348999e-01,-6.325507164001464844e-01,-5.554298758506774902e-01,-4.774385690689086914e-01,-4.183494150638580322e-01,-2.169903963804244995e-01,-1.438964754343032837e-01,3.085995092988014221e-02,9.431358426809310913e-02,3.883338719606399536e-02,-4.587265849113464355e-02,1.807239502668380737e-01,5.957651510834693909e-02,7.131733745336532593e-02,2.200600802898406982e-01,-1.756817996501922607e-01,1.551816314458847046e-01,-7.247868925333023071e-02,-2.343430042266845703e+00,2.528783082962036133e-01,-1.208451151847839355e+00,-5.805090069770812988e-01,-4.448674321174621582e-01,-7.822445631027221680e-01,-1.172293543815612793e+00,1.593303680419921875e-01,-2.191011160612106323e-01,-3.566074967384338379e-01,-5.005921125411987305e-01,-4.151230156421661377e-01,-4.007914066314697266e-01,-2.234398871660232544e-01,3.268564864993095398e-02,-2.414620816707611084e-01,-6.426178384572267532e-03,4.586545750498771667e-02,3.406108319759368896e-01,5.488912016153335571e-02,9.685115516185760498e-02,-3.552995622158050537e-03,1.419877111911773682e-01,-7.233700156211853027e-02,-3.807965293526649475e-02,-7.855266332626342773e-01,-7.484980225563049316e-01,-9.210696816444396973e-01,-1.772711992263793945e+00,4.777768850326538086e-01,-1.064287066459655762e+00,-5.948947668075561523e-01,-3.284975290298461914e-01,-6.000443100929260254e-01,-1.062517762184143066e+00,4.355990886688232422e-02,-5.979342460632324219e-01,-2.226481437683105469e-01,-3.495139777660369873e-01,-4.005216658115386963e-01,-2.753857076168060303e-01,-1.329577565193176270e-01,-2.347170114517211914e-01,-2.431347370147705078e-01,-7.453311234712600708e-02,1.592557728290557861e-01,1.512224823236465454e-01,-1.522382050752639771e-01,-1.499096956104040146e-02,9.842615574598312378e-03,8.008248358964920044e-02,-1.440097689628601074e-01,-4.435453414916992188e-01,-6.346055269241333008e-01,-1.155581951141357422e+00,-5.106425285339355469e-01,-4.317903220653533936e-01,1.377460658550262451e-01,-1.468921184539794922e+00,-6.918609738349914551e-01,-5.088407993316650391e-01,3.547197282314300537e-01,-2.664581835269927979e-01,4.773305263370275497e-03,-3.942174017429351807e-01,-6.989284753799438477e-01,-5.555599927902221680e-01,-4.301507472991943359e-01,-1.228232085704803467e-01,-6.295564770698547363e-02,-1.755891442298889160e-01,-2.561467587947845459e-01,1.685868054628372192e-01,3.952137485612183809e-04,3.815283998847007751e-02,-7.371880859136581421e-02,-6.944267451763153076e-02,-5.074947327375411987e-02,-5.395697057247161865e-02,-2.027613967657089233e-01,-2.798184752464294434e-01,-3.257263684645295143e-03,-5.212035775184631348e-01,-1.315699815750122070e-01,-1.479148268699645996e-01,-6.465834379196166992e-01,-1.051630973815917969e+00,-5.316821336746215820e-01,-6.406221985816955566e-01,4.620283842086791992e-01,6.238109469413757324e-01,-1.539112031459808350e-01,-2.191020101308822632e-01,-1.622074693441390991e-01,-1.850103139877319336e-01,-3.850882053375244141e-01,-4.590445756912231445e-01,-3.688974976539611816e-01,-2.286403030157089233e-01,-7.218585908412933350e-02,2.042992739006876945e-03,-1.596728153526782990e-02,5.512217432260513306e-02,1.312052011489868164e-01,-1.096684858202934265e-01,-1.462638974189758301e-01,-1.756019741296768188e-01,-3.870354965329170227e-03,2.625904381275177002e-01,8.194395154714584351e-02,2.880243957042694092e-01,4.784118235111236572e-01,4.472275078296661377e-01,-2.753029584884643555e+00,4.218016564846038818e-01,-7.206642031669616699e-01,-2.255307286977767944e-01,7.161417007446289062e-01,5.397747755050659180e-01,9.408478438854217529e-02,4.686952233314514160e-01,1.025964021682739258e-01,-2.024213224649429321e-01,-3.948762714862823486e-01,-6.064655184745788574e-01,-1.112725809216499329e-01,-1.845224350690841675e-01,-7.379613071680068970e-02,5.970492493361234665e-04,2.547766566276550293e-01,-4.246073588728904724e-02,-2.292804419994354248e-01,-3.955816924571990967e-01,-1.156261563301086426e-01,1.979561597108840942e-01,2.946916818618774414e-01,1.061487719416618347e-01,2.528547495603561401e-02,7.283620536327362061e-02,4.585162699222564697e-01,8.463655114173889160e-01,-1.933002948760986328e+00,-9.909909367561340332e-01,-8.076412081718444824e-01,-4.975596442818641663e-02,8.384901285171508789e-01,-6.287918239831924438e-02,4.677169919013977051e-01,4.123882353305816650e-01,8.351257443428039551e-02,-6.629920750856399536e-02,-9.150727093219757080e-02,-3.251203000545501709e-01,-6.411539912223815918e-01,-6.050556302070617676e-01,-5.421700477600097656e-01,-3.007175624370574951e-01,-2.752999365329742432e-01,-5.505057573318481445e-01,-3.635829389095306396e-01,-5.983952060341835022e-02,1.891214102506637573e-01,-1.196644548326730728e-02,3.591132760047912598e-01,-4.097096994519233704e-02,1.147239953279495239e-01,1.814058274030685425e-01,1.985778361558914185e-01,-3.014217913150787354e-01,-1.852977514266967773e+00,-1.600096821784973145e+00,-8.969050645828247070e-01,-8.922922611236572266e-01,7.721715569496154785e-01,1.796974688768386841e-01,7.975803613662719727e-01,8.895880542695522308e-03,1.844406276941299438e-01,9.576206654310226440e-02,-2.647519111633300781e-01,-9.658645093441009521e-02,-4.517279565334320068e-01,-5.214908719062805176e-01,-3.820587396621704102e-01,-5.968292951583862305e-01,-3.531980514526367188e-01,-3.051863610744476318e-01,1.430673748254776001e-01,2.983058989048004150e-01,1.607201099395751953e-01,7.119519263505935669e-02,1.848842352628707886e-01,9.484126418828964233e-02,2.495271563529968262e-01,3.059740066528320312e-01,9.886701405048370361e-02,-7.527518272399902344e-01,-2.473952531814575195e+00,-1.210321307182312012e+00,-5.600000023841857910e-01,-2.380405068397521973e-01,-5.302576348185539246e-02,-5.926978588104248047e-01,5.361236929893493652e-01,1.223655864596366882e-01,4.066682457923889160e-01,5.060902610421180725e-02,-1.139709949493408203e-01,-8.073592931032180786e-02,-5.005288124084472656e-02,-9.357079863548278809e-02,-3.360779285430908203e-01,-2.093815654516220093e-01,-3.044130653142929077e-02,-6.548789795488119125e-03,6.990868598222732544e-02,1.396726220846176147e-01,2.673541605472564697e-01,1.906994581222534180e-01,1.808261573314666748e-01,-1.787168532609939575e-02,2.249831408262252808e-01,-3.212372586131095886e-02,4.978163912892341614e-02,-1.974408924579620361e-01,-3.205761432647705078e+00,-1.462489008903503418e+00,-6.061165928840637207e-01,1.899709552526473999e-02,-3.816742002964019775e-01,-5.989198684692382812e-01,4.302182495594024658e-01,2.669157683849334717e-01,1.978391855955123901e-01,3.469015955924987793e-01,1.120624393224716187e-01,1.323228627443313599e-01,2.446421682834625244e-01,-7.331771403551101685e-02,-1.519116163253784180e-01,-5.107944011688232422e-01,-6.731721013784408569e-02,7.042531669139862061e-02,-2.254347316920757294e-02,2.448921464383602142e-02,1.783906072378158569e-01,2.510391175746917725e-01,6.885538250207901001e-02,2.900154888629913330e-01,1.007717102766036987e-02,-1.536975502967834473e-01,2.866444885730743408e-01,-2.154891490936279297e-01,-2.917997121810913086e+00,1.658413112163543701e-01,-2.235493659973144531e-01,-4.007019102573394775e-01,3.104853630065917969e-01,2.311358600854873657e-01,3.304444551467895508e-01,1.125044599175453186e-01,-1.088276505470275879e-01,1.444834917783737183e-01,1.361545324325561523e-01,1.141641214489936829e-01,-2.321740686893463135e-01,-1.541726291179656982e-01,-1.051146015524864197e-01,-4.938485100865364075e-02,-1.025696918368339539e-01,-9.230951964855194092e-02,4.648081958293914795e-02,1.328109353780746460e-01,4.466643091291189194e-03,1.958214640617370605e-01,2.289553433656692505e-01,-4.144760593771934509e-02,-2.906521558761596680e-01,-1.472591608762741089e-01,-2.067282050848007202e-01,-1.078602433204650879e+00,-2.777751445770263672e+00,-2.865716218948364258e-01,2.126859966665506363e-03,-3.200950622558593750e-01,1.209542434662580490e-02,8.479141443967819214e-02,5.432116985321044922e-01,4.258709773421287537e-02,-1.341065019369125366e-01,7.716795057058334351e-02,1.328265853226184845e-02,-1.104269325733184814e-01,-1.271375082433223724e-02,2.835574001073837280e-02,9.557347744703292847e-02,-6.804772466421127319e-02,-1.491620540618896484e-01,-1.114088222384452820e-01,5.183068290352821350e-02,3.722101822495460510e-02,1.430560201406478882e-01,-6.320632528513669968e-03,1.127642840147018433e-01,1.123793572187423706e-01,-1.353241652250289917e-01,2.620156109333038330e-01,-4.772016778588294983e-02,-1.489141106605529785e+00,-8.674448132514953613e-01,3.230242729187011719e-01,4.127014800906181335e-02,5.761697888374328613e-03,1.881013065576553345e-02,8.737129569053649902e-01,1.165426254272460938e+00,6.681532263755798340e-01,2.113732695579528809e-01,3.248540163040161133e-01,2.864437401294708252e-01,1.914718374609947205e-02,1.077646389603614807e-01,2.059916555881500244e-01,2.345539182424545288e-01,-1.711023449897766113e-01,1.806909143924713135e-01,-5.358642712235450745e-02,3.298418596386909485e-02,-1.949652284383773804e-01,4.330136999487876892e-02,3.716847896575927734e-01,-2.645214460790157318e-02,-2.835995145142078400e-02,-2.051689773797988892e-01,-5.966661572456359863e-01,-5.463827848434448242e-01,-5.016927719116210938e-01,-5.667963624000549316e-01,5.285959839820861816e-01,6.737319380044937134e-02,-2.917535603046417236e-02,6.615715473890304565e-02,4.349133074283599854e-01,8.544353246688842773e-01,8.649444580078125000e-01,1.362611819058656693e-02,3.563897907733917236e-01,3.911811411380767822e-01,8.089079707860946655e-02,8.704708516597747803e-02,3.321488797664642334e-01,2.900058031082153320e-01,1.362044662237167358e-01,3.060767948627471924e-01,2.132451534271240234e-01,2.230978012084960938e-02,2.144758105278015137e-01,1.223180294036865234e-01,-2.110516130924224854e-01,-3.365339338779449463e-01,-1.804643273353576660e-01,4.360329732298851013e-02,1.866449043154716492e-02,-2.508184015750885010e-01,-9.604017734527587891e-01,-7.416815757751464844e-01,-3.913135230541229248e-01,-3.572748228907585144e-02,2.774427831172943115e-02,4.015893489122390747e-02,8.136821389198303223e-01,-7.239429950714111328e-01,-5.185744166374206543e-01,1.303782463073730469e-01,6.166723370552062988e-01,7.185575366020202637e-01,9.391493201255798340e-01,7.052063941955566406e-01,5.899624824523925781e-01,2.455546110868453979e-01,6.820750832557678223e-01,4.963870942592620850e-01,1.969060599803924561e-01,8.370748162269592285e-02,3.471221029758453369e-01,4.682608321309089661e-02,1.429009288549423218e-01,5.874299407005310059e-01,-6.548495497554540634e-03,-5.732809901237487793e-01,-2.284738868474960327e-01,-1.608570456504821777e+00,-7.028240561485290527e-01,-2.352687865495681763e-01,-3.892814740538597107e-02,8.696593344211578369e-03,1.584509760141372681e-02,4.199741035699844360e-02,4.895970225334167480e-03,-4.860650300979614258e-01,-3.550535440444946289e-01,5.804194808006286621e-01,1.458381861448287964e-01,2.117553725838661194e-02,-2.043228149414062500e-01,-4.435288310050964355e-01,5.696929618716239929e-02,-6.790913641452789307e-02,-3.004158437252044678e-01,4.897264391183853149e-02,5.204296857118606567e-02,-1.619543321430683136e-02,2.113362848758697510e-01,1.059069037437438965e-01,3.593286499381065369e-02,-7.116279751062393188e-02,2.167388051748275757e-01,-1.568435877561569214e-01,-2.388220131397247314e-01,-1.060949087142944336e+00,-2.007610537111759186e-02,6.667235866189002991e-03,2.434335649013519287e-03,1.095959544181823730e-02,-3.452181443572044373e-02,-6.965979933738708496e-02,6.817264109849929810e-02,-1.459822803735733032e-02,-7.564242184162139893e-02,-9.176442027091979980e-02,-5.327406525611877441e-01,-9.783837199211120605e-01,-1.320663809776306152e+00,-1.457803130149841309e+00,-1.403053879737854004e+00,-1.803975939750671387e+00,-2.008953094482421875e+00,-2.234633445739746094e+00,-1.877717971801757812e+00,-3.061964035034179688e+00,-1.314312815666198730e+00,-1.824488401412963867e+00,-9.417961239814758301e-01,-9.785937666893005371e-01,-1.104723334312438965e+00,-1.248289704322814941e+00,-8.785267472267150879e-01,-2.507266700267791748e-01,-4.792154952883720398e-02,-1.885417103767395020e-02,4.721035808324813843e-02,7.163349539041519165e-02
